0.05448157	-0.24766663	-0.42649204	0.23032518	0.26050308	0.114690214	0.6678725	0.10828817	0.7626463	-1.0921127	1.7313545	1.4379715	0.07312025	0.26932326	0.40851524	0.46750498
1.0083072	0.028079582	0.2186557	0.011406149	1.9426522	0.47462744	0.92255455	0.30838516	0.2708447	-0.6543756	1.6656877	1.1680261	0.37749508	0.13527758	-0.95024955	0.20918676
-0.09197354	0.5174941	0.37251225	0.020295572	0.48330063	-0.0016628199	-0.30709141	-0.02130826	-0.04002475	-0.0015351893	0.3052312	-0.45220798	0.24159132	0.15191497	-0.4534505	-0.4878337
-0.16418849	-0.33679682	-0.118542254	-0.080815	-0.27498925	-0.051643554	0.08423215	-0.10335744	0.2739778	-0.093302056	-0.03898535	0.1914497	-0.35963532	0.18441062	0.17799225	0.19127025
-0.36951217	0.44582337	0.11099401	0.44495833	-0.13147692	-0.56458354	-0.37364727	-0.53623843	0.14802015	-0.6718859	-0.09067503	0.42050084	0.2846838	0.26851937	0.13988271	-0.44726008
-0.47622362	0.83826554	0.25487643	0.22355026	-0.47702342	-0.3106642	-0.8574546	-0.10523908	-0.3504577	0.06931218	-0.33674404	-1.0464735	0.41978502	-0.09281787	-0.023742206	-0.6622845
0.032112144	0.40173444	-0.055070598	0.36927068	0.078968786	-0.048286345	-0.015106559	0.071813844	-0.14024809	-0.25787234	0.10922324	0.24166343	0.35670066	-0.13596709	0.15404905	-0.0372106
-0.91782933	0.16683817	-0.59708697	0.62824225	-1.604734	-0.7994276	-0.7365454	-0.37337857	-0.28462583	-0.117114596	-0.73501873	-0.15636483	-0.033169717	-0.23000666	1.3886071	-0.023690129
-0.2352656	-0.01262191	-0.19559689	0.10883334	-0.5216947	-0.07252041	-0.2235695	0.00020583914	-0.063617416	0.11710709	-0.21743415	-0.23970766	-0.04955941	-0.1139305	0.43383193	0.066730306
0.6557683	-0.9617042	-0.38739714	-0.78262424	0.17022988	1.2214551	1.0380859	1.0114526	0.07671668	1.1283131	0.14986798	-0.7359294	-0.7404338	-0.392311	-0.12640733	1.0958191
0.14892358	-0.11575429	-0.009085761	-0.17355835	0.32079384	0.41459334	0.31390083	0.2802049	0.14994934	0.15514922	0.2181673	-0.0748802	-0.008749177	-0.05343388	-0.19975288	0.21659634
0.0652721	0.33240533	-0.37721923	0.54446924	-0.06930538	-0.2460157	0.04737157	-0.0062178136	-0.26148385	-0.43351883	0.07643892	0.657975	0.471973	-0.27659336	0.43123192	0.18161404
-1.0731726	-0.4777616	-0.22430669	0.26245484	-1.241721	-1.0212029	-0.5181505	-0.84855735	0.4983296	-0.47818023	-0.49955076	0.2981199	-0.53472364	0.50289804	0.9328296	-0.017252292
0.22471517	-0.4601093	0.23150523	-0.32161656	0.7363033	0.215498	0.48437235	-0.10555	0.559499	-0.24579988	0.371754	0.40913555	-0.26946935	0.45980334	-0.5750616	0.1337342
0.58358276	-0.19912077	0.5709701	-0.13994043	1.4055642	-0.07268697	0.5939856	-0.3416156	0.5350405	-0.82111156	0.49373853	0.9436349	0.06634107	0.62771785	-1.0537709	-0.07481959
-0.041704427	0.04716732	0.08203468	0.33658937	0.24031407	-0.43401462	0.04512948	-0.41300327	0.3244151	-0.7985301	0.21319786	0.81004304	0.13636394	0.36553752	-0.058968637	-0.11300569
-0.6613312	0.17442007	1.0560248	-0.35422745	-0.031126004	-0.2786889	-0.6840694	-0.5142079	0.7965671	0.11214801	-0.15721676	-0.8949735	-0.20460321	1.0096928	-0.9673656	-0.7946978
0.07298269	-0.90252876	0.17788036	-0.604807	0.27629906	0.18491763	0.5095825	-0.22957467	0.6935554	-0.1104891	0.099912636	0.17578161	-0.76770353	0.64663935	-0.34840977	0.30154714
0.1211573	-0.21652456	0.32690364	-0.14740661	0.5310318	0.05560492	0.23908725	-0.17177959	0.47356722	-0.32998818	0.27652723	0.3186803	-0.15134089	0.41014826	-0.45917052	-0.0070303506
-0.059582606	0.10862588	0.040483195	0.14797737	0.11426843	-0.16877903	-0.004789405	-0.22619517	0.13069484	-0.39313713	0.086425856	0.39507592	0.14075506	0.18703821	-0.041249245	-0.052465826
-0.27497733	-0.36401626	0.29020452	-0.2711481	0.022814373	-0.17073539	-0.021156926	-0.36243254	0.52096957	-0.12490042	-0.035641048	0.036704056	-0.42791128	0.5631717	-0.2492604	-0.114183225
-0.5867338	0.924002	-0.07772242	0.8888257	-0.7614537	-0.67036426	-0.818591	-0.28682524	-0.42631668	-0.38864183	-0.32645208	-0.04154054	0.79915565	-0.25545785	0.74767184	-0.5128479
0.46983388	0.059990976	-0.12972201	-0.0473754	0.4924922	0.41290694	0.39748055	0.42638904	-0.22720936	0.25198904	0.15009408	-0.020460498	0.069529384	-0.2706999	-0.15509899	0.29494533
0.70050794	0.63354975	-0.6084592	1.0051965	0.39852437	-0.048611596	0.50269485	0.32691962	-0.57134205	-0.8060292	0.2319661	0.9954415	0.892959	-0.62058103	0.65046287	0.5651037
0.11177531	0.24806914	-0.15589812	0.3610848	0.10841105	-0.048505057	0.022103956	0.012957923	-0.18121047	-0.16940528	0.07861318	0.26998308	0.3116071	-0.13912618	0.18959214	0.052788995
0.051050812	-0.14843774	0.15343179	0.110861875	0.2350225	-0.20782284	0.060783744	-0.28294152	0.2811965	-0.41910064	0.06421766	0.43979657	-0.040036183	0.34030458	-0.084955044	-0.0135445595
-0.27332798	-0.10070587	-0.08836022	0.05813819	-0.446275	-0.17662254	-0.18103066	-0.19619413	0.088147245	-0.019297438	-0.17457278	-0.06347059	-0.15752023	0.14642124	0.2726838	0.06204441
-0.20006488	0.22337598	0.23331416	0.26452652	0.036252238	-0.36799985	-0.23938377	-0.4066353	0.18080881	-0.49679548	0.024459878	0.25881276	0.17930833	0.27204487	-0.051431123	-0.31313995
1.7744465	1.855583	-1.9900817	2.2059064	0.37450227	1.0106217	1.3092121	1.9019525	-2.1396563	-0.28953657	0.38900614	1.2490392	2.200984	-2.4245906	1.891081	1.7350905
0.17365593	0.17471246	0.18877074	0.16092837	0.4214835	-0.11106599	0.12157077	-0.12221236	0.056721978	-0.28381443	0.1461089	0.41223893	0.2375915	0.16792703	-0.2624171	-0.07529832
-0.19893058	-0.10278901	-0.30820033	0.12398058	-0.40946367	-0.1099937	-0.01594007	-0.06154419	-0.042115908	-0.08600263	-0.15743268	0.11666691	-0.13920881	-0.10331896	0.44180378	0.18962398
0.48930305	1.0716689	-1.4838946	1.5609632	-0.5627742	0.15835045	0.32759464	0.83823526	-1.3661847	-0.051472962	-0.06644315	0.62112373	1.2132411	-1.5327665	1.8496616	1.0579168
-0.66715175	-1.0997247	-0.06210347	-0.26413733	-0.4225665	-0.8086416	0.08407236	-0.9423521	0.8968351	-0.7207606	-0.12364013	0.6823251	-0.91382575	0.9071788	0.30749583	0.23463032
-0.25234	-0.021746282	-0.24724858	0.15415502	-0.636057	-0.16132781	-0.24216792	0.019255262	-0.19331515	0.14383677	-0.2537827	-0.10764629	-0.03777119	-0.19078444	0.5539325	0.08431076
-0.11544381	0.090165846	-0.27143592	0.39480492	-0.32585192	-0.23962298	-0.018875452	-0.08789343	-0.14364718	-0.21461259	-0.11452121	0.29717928	0.13275743	-0.1132601	0.5345201	0.09684644
-0.012185789	0.03898022	0.07690408	-0.19193563	-0.056261774	0.2603262	-0.08059167	0.21727253	-0.1509943	0.3348881	-0.10627268	-0.44813642	-0.07901222	-0.08481468	-0.09187066	0.03897464
-1.6934152	1.7327449	1.1685121	1.4213526	-0.72665673	-1.9294024	-1.8255719	-1.8832684	0.65665764	-1.5687563	-0.27932975	0.29884827	1.2667377	1.4700041	-0.08412616	-1.9554702
-0.29519406	0.016991572	0.0667341	0.1078019	-0.13557023	-0.30927145	-0.2167992	-0.2821955	0.1818847	-0.25998822	-0.053442545	0.18541907	-0.07199866	0.2848316	0.07810281	-0.17207146
-0.057123788	0.86236644	-0.18800232	0.9538305	0.036700755	-0.4382871	-0.26683635	-0.06774854	-0.41936	-0.57748705	0.104635924	0.57060945	0.88795805	-0.31141192	0.452663	-0.24410419
0.13561735	-0.5412425	0.6221708	-0.5074181	0.83244133	-0.10509706	0.26598546	-0.4554155	0.86088395	-0.45301074	0.27373838	0.44941035	-0.4246368	0.9160725	-0.9083372	-0.22316583
-0.041915465	-0.0998878	0.09533274	-0.013210303	0.18435894	-0.13408853	0.034708835	-0.22241557	0.20908903	-0.24513963	0.08591572	0.2688016	-0.085459545	0.32499862	-0.16387305	-0.005401188
0.03171749	0.3553541	-0.029239347	0.43793818	0.096422784	-0.24094217	-0.06209926	-0.204429	-0.067652956	-0.507504	0.045385774	0.5261235	0.39402065	-0.012261215	0.22460614	-0.0740217
0.08421516	-0.14514786	0.4016525	-0.20121403	0.6238558	-0.07172129	0.14145073	-0.26129112	0.36740595	-0.36264852	0.18491417	0.25864932	-0.069524705	0.48166415	-0.58016896	-0.19798277
0.32787788	-0.47084144	0.2735278	-0.39825535	0.6616966	0.2701647	0.41884726	-0.059119135	0.46027398	-0.12854981	0.20879184	0.22958945	-0.32512978	0.47316414	-0.5497534	0.093396924
0.06751705	-0.1865592	0.1357818	-0.052545015	0.32645547	-0.13862334	0.17931439	-0.20145081	0.23383069	-0.31359562	0.14784244	0.33792007	-0.06922262	0.28481758	-0.16338037	-0.030919574
-0.38985163	-0.3344204	-0.11732233	-0.054192126	-0.53129494	-0.20851606	-0.08842579	-0.25332385	0.17113863	-0.05214447	-0.1408286	0.06932695	-0.4418187	0.16110429	0.33715594	0.07923671
-0.18891543	-0.15102938	0.20901223	-0.074611366	0.1476757	-0.21137545	0.01868677	-0.37568194	0.46366957	-0.3782127	0.08797427	0.32540357	-0.19861805	0.40669432	-0.228751	-0.089658424
-0.0033813932	-1.067221	0.15250862	-1.0699388	-0.1222494	0.80476147	0.35625392	0.44400993	0.5646938	0.9340084	-0.05397871	-0.8209351	-1.1724864	0.41641667	-0.40255216	0.45352605
0.59538245	-1.2409694	0.044471912	-1.3113431	0.2612733	1.4572356	0.9925604	1.0369923	0.38446873	1.4039193	0.047329795	-1.0231433	-1.2586999	-0.0070753153	-0.5560814	1.004605
0.29291126	-0.43414602	0.11749358	-0.5654525	0.39702114	0.58036613	0.31741375	0.39331052	0.18786696	0.4535052	0.15446058	-0.3912612	-0.37993836	0.06436731	-0.4515608	0.2330221
-0.5578815	0.16964746	0.21998776	0.16695422	-0.51337063	-0.55636215	-0.49960694	-0.5663163	0.22538252	-0.33835548	-0.1495935	-0.029597003	0.084623985	0.4111983	0.16073543	-0.41884822
-0.33641845	0.44925272	0.036516905	0.5824776	-0.18550228	-0.59651357	-0.40058222	-0.40926185	0.051896226	-0.4911297	-0.045985132	0.39090195	0.35297918	0.2638047	0.22319098	-0.28700572
0.08007235	-0.50216633	0.33062342	-0.36325428	0.40745956	-0.105468124	0.25906608	-0.42314252	0.6274671	-0.45412087	0.14245546	0.39969578	-0.38318232	0.67264664	-0.4913581	-0.052419145
0.1794437	-0.19136022	0.037296634	-0.046480466	0.25194967	0.02246272	0.3184167	-0.11537042	0.117651924	-0.22433196	0.15245216	0.36467177	-0.04899613	0.16064364	-0.10986777	0.19193743
-1.3609351	1.4286592	0.75266826	1.3033164	-0.5993201	-1.6750215	-1.4646802	-1.4157252	0.27826908	-1.3166578	-0.22516581	0.23663722	1.1769212	0.9497288	0.09981483	-1.4845877
0.050134923	-0.4184016	0.32951307	-0.45833385	0.37822345	0.115907386	0.16415636	-0.15032782	0.5245516	0.00053485995	0.058275267	-0.0011948048	-0.4693506	0.54611003	-0.58158267	-0.03346322
-0.15232	0.21727405	0.044330914	0.2459338	-0.1738386	-0.19764784	-0.26333064	-0.10225658	-0.079321325	-0.053242095	-0.06239691	-0.027587894	0.17543797	-0.03217946	0.22551854	-0.15224263
0.41037318	-0.51345706	-0.12523998	-0.4947296	0.2479662	0.7838623	0.5615361	0.5347143	0.06896951	0.52525324	0.116687134	-0.2930962	-0.44057173	-0.17062601	-0.20984517	0.63050413
-1.3439182	1.3244005	0.88460517	1.0640503	-0.47417295	-1.5047412	-1.4572345	-1.4116943	0.49451733	-1.23522	-0.14819883	0.2598359	1.0052679	1.1907064	-0.066597156	-1.5524666
-0.24404313	-0.32303265	0.10515545	-0.20217447	-0.27616146	-0.018846694	-0.089708745	-0.12634729	0.2504323	0.107061766	-0.102392234	-0.13804397	-0.3744158	0.33729908	0.049945194	-0.0037575986
0.3542912	-0.69485366	0.9741775	-0.51374507	1.5150756	-0.3907285	0.5534086	-1.020846	1.2166524	-1.1632233	0.48267215	1.0512573	-0.44841713	1.3774974	-1.4468594	-0.32141274
1.2064613	1.3258244	-1.4684048	1.472666	0.20570579	0.885288	0.77151865	1.3762057	-1.5787015	0.33908984	0.1854781	0.5321435	1.5219165	-1.7245381	1.323525	1.1568981
-1.0821934	-0.9100999	-0.49993563	-0.014739127	-1.1960913	-0.67386055	-0.29927605	-0.45039034	0.2582182	-0.04504821	-0.4347162	-0.0052297073	-0.9043834	0.16073963	0.99897826	0.45010644
0.28931758	0.14979832	0.23886059	0.37644294	0.98001224	-0.2696028	0.37136877	-0.3879815	0.25084284	-0.856045	0.35687208	0.8994864	0.37720063	0.38301417	-0.5146524	-0.10141697
0.09961277	0.043879982	0.25176907	0.061215702	0.48568353	-0.25926527	0.02978855	-0.36670253	0.31195772	-0.5183314	0.18293424	0.4138687	0.07763169	0.44501266	-0.47162598	-0.20708327
-0.07095469	-0.6732596	1.2506536	-0.6209828	1.3183526	-0.5099655	0.28321514	-1.1987132	1.5797648	-1.1369703	0.4341407	0.9006197	-0.6084414	1.9606781	-1.651501	-0.56418145
0.12341364	-0.043739934	-0.051015716	0.07943172	0.15447888	-0.025417717	0.112545095	-0.031032948	0.020759746	-0.16018948	0.07641972	0.18516824	0.039698593	0.036984775	-0.024421068	0.1597814
0.44003147	-1.7519013	0.114172354	-1.638648	0.07191487	1.3459064	0.96681255	1.0083176	0.63647944	1.5368943	-0.07253328	-1.186553	-1.7543961	0.21216969	-0.61915797	1.0164388
0.05685253	0.22824252	-0.7822653	0.4873407	-0.6293383	0.0943074	0.05640942	0.4100421	-0.7634726	0.2130169	-0.18088274	0.033044774	0.3244457	-0.8398234	0.9238722	0.5150796
0.102630064	-0.4957013	0.3248694	-0.46450222	0.33263567	0.22404826	0.2552674	0.005601053	0.46371558	0.109120876	0.088530794	-0.032655567	-0.39784533	0.44287714	-0.43256345	0.04004254
-0.3571791	0.12677372	0.378903	-0.005130149	-0.03673285	-0.36867923	-0.39544654	-0.35458893	0.27262318	-0.15854572	-0.013009218	-0.08873184	-0.028139925	0.4353026	-0.22844447	-0.4581402
0.21089654	-0.23527665	0.0862323	0.033484247	0.4661625	-0.33843368	0.33260304	-0.39787167	0.32516888	-0.65719587	0.16628718	0.77127236	-0.047793657	0.40514684	-0.28493193	0.030029166
0.042711888	-0.14705117	0.044389695	-0.09138979	0.09301682	0.0049752425	0.10852041	-0.020479431	0.13645485	-0.074456975	0.053893764	0.06400003	-0.097476356	0.1643844	-0.13164535	0.03941403
0.034280177	0.21856597	-0.3121942	0.47552845	-0.03941567	-0.2194504	0.07948275	-0.10477991	-0.1840682	-0.36029282	-0.000116159485	0.3727899	0.34188002	-0.092665754	0.4070738	0.09840848
-0.25730765	0.64681363	0.10291941	0.40559572	-0.15553099	-0.28661788	-0.47347984	-0.15009366	-0.17976058	-0.16380244	-0.015922701	-0.09761814	0.5118689	0.013685994	0.03184594	-0.3793937
0.023223335	-0.42942128	0.23475946	-0.28361765	0.22275034	0.015027701	0.22966394	-0.19625556	0.41271994	-0.093471095	0.06605622	0.20998444	-0.33429447	0.3918712	-0.29524422	0.095788114
0.011339504	-0.0033711824	-0.105352215	0.033927295	-0.12181384	0.04083407	-0.005275221	0.11181866	-0.036339693	0.041536286	0.015802667	-0.06905932	0.05720977	-0.12236693	0.10904775	0.038773175
-0.87842715	-0.16352534	-0.36031476	0.27809313	-1.2359291	-0.59772927	-0.5361788	-0.3714901	-0.029642219	0.041232303	-0.49125037	-0.19261196	-0.28855315	-0.06897426	0.96336967	0.079135545
-1.1326503	1.2780743	0.72854346	1.0521939	-0.38807595	-1.4525303	-1.327673	-1.3411204	0.3852249	-1.189352	-0.12814957	0.290849	0.96320784	0.9738576	-0.058706615	-1.402452
-0.1170452	0.023507224	0.15843293	0.16615352	0.2562904	-0.3713499	-0.031899758	-0.32718056	0.23620053	-0.41874474	0.049010556	0.38794634	0.07173259	0.32988077	-0.16499789	-0.24052861
0.37681472	-0.17640136	0.25148046	-0.029144688	0.7783706	0.025011407	0.44334045	-0.16163121	0.3520588	-0.51779294	0.2807635	0.553105	-0.0029809568	0.31736007	-0.4763551	0.030524297
-0.5368857	0.5678572	0.5945206	0.23626402	-0.045791842	-0.61318713	-0.70013547	-0.5573076	0.2636182	-0.3899685	-0.12187254	-0.22917508	0.35849825	0.61886376	-0.48659366	-0.83752096
0.46295813	-0.6224164	0.19875135	-0.72624624	0.55866647	0.77795184	0.5067491	0.4795175	0.33410183	0.5521114	0.14779237	-0.4212148	-0.5569828	0.17763555	-0.6357973	0.3392609
0.21150473	-0.2445829	0.1108942	-0.17882954	0.3650881	0.090603024	0.17290589	0.007922646	0.2794563	-0.07319085	0.089220464	0.06126413	-0.16283754	0.19583327	-0.28916255	0.013367678
-0.13232349	-0.3060319	-0.14014034	-0.20866595	-0.38282746	0.16460997	-0.048880916	0.13529411	0.022570174	0.31978285	-0.11183336	-0.34457865	-0.32208169	0.035434254	0.1937566	0.09832351
0.08504711	-0.28502196	0.27089936	-0.42182487	0.21017143	0.19198379	0.09086272	0.015431114	0.28520542	0.11748549	0.017702546	-0.19877014	-0.27606276	0.32047606	-0.44718957	-0.090814665
-1.3253736	-0.48540926	-0.86627305	0.44072607	-1.7730553	-0.9452744	-0.7704282	-0.42567044	-0.17155263	0.08900138	-0.6512444	-0.27725026	-0.6459293	-0.32037976	1.6010624	0.39667043
-0.21834567	0.88739455	0.22570002	0.84278125	0.18259384	-0.56690043	-0.3943708	-0.3869144	-0.067849316	-0.76853734	0.05414923	0.45444643	0.8537238	0.1205132	0.015246277	-0.50651145
0.029815458	-0.58019847	0.14255212	-0.60737693	0.112018034	0.34888473	0.29605153	0.094407536	0.41063565	0.25344455	-0.029531911	-0.23637718	-0.62246394	0.31018916	-0.2849658	0.23177126
0.38320872	-0.35352224	0.03270443	-0.5483779	0.37419426	0.6896967	0.36615443	0.47355336	0.11156422	0.6174379	0.081581324	-0.50299776	-0.4030826	-0.112911284	-0.49566084	0.3200459
-0.47960052	-0.014553574	-0.36063793	0.16761564	-0.81827945	-0.29831684	-0.30932668	-0.017695343	-0.1797255	0.07812632	-0.2979606	-0.20409489	-0.07972764	-0.18957216	0.6987332	0.08663115
-0.5479638	-0.86960036	0.05524427	-0.2458794	-0.33993152	-0.6348578	0.038415626	-0.7642296	0.6400855	-0.42033547	-0.14110899	0.3685924	-0.76426464	0.8011265	0.11117539	0.015356731
-0.2185309	-0.19050574	0.054833658	-0.027112944	-0.1277721	-0.24605243	-0.13800411	-0.21567819	0.1715271	-0.15770233	-0.025284698	0.041879114	-0.12831809	0.17342465	0.04889701	-0.06896748
0.4521373	0.75642496	-1.0538353	1.0806772	-0.45330703	0.2254436	0.28398752	0.76497054	-1.0616165	0.14224672	-0.08275294	0.30572167	0.8161144	-1.161083	1.3480624	0.83136255
-0.25040013	0.06840289	0.21198559	-0.048148677	0.023059513	-0.046591777	-0.16447584	-0.18407737	0.11683476	-0.059476443	-0.017270392	-0.12394171	-0.02487784	0.24964596	-0.19754478	-0.2321007
-0.5195413	0.9786827	0.26404437	0.8519069	-0.15531608	-0.7909146	-0.81155443	-0.60586995	-0.08659682	-0.70849824	-0.09564045	0.16114612	0.8560463	0.20393753	0.15325001	-0.8078128
-0.0531759	-0.07025939	0.02628125	-0.03915468	-0.014547196	-0.0726092	0.05558231	-0.17159848	0.20026687	-0.19270803	0.035476573	0.09853285	-0.015172998	0.19207457	0.028789012	-0.011822966
0.21488985	-0.08580322	-0.12217961	-0.0055891303	0.21475512	0.11641495	0.24265556	0.043374732	-0.021849599	-0.11477538	0.057717886	0.19460312	0.031416066	-0.06490048	-0.045433257	0.19676255
-0.29836264	0.04312283	0.120172	0.0932229	-0.21802786	-0.22783218	-0.23077312	-0.26727855	0.097064525	-0.20422626	-0.005440875	0.021041345	0.030860646	0.21465917	0.075258836	-0.13094777
-0.712111	0.60322404	0.63551164	0.35467735	-0.14293619	-0.7212306	-0.7691924	-0.81422985	0.42106286	-0.5390406	-0.08210285	-0.0928893	0.4335611	0.70689225	-0.27467996	-0.92347944
0.26187143	-0.015379223	0.33025768	0.079628505	0.91623497	-0.18006003	0.2548875	-0.3941431	0.386745	-0.7106829	0.23661897	0.58796245	0.15268506	0.4414467	-0.60054475	-0.17667282
0.10698732	-0.36853972	0.11736817	-0.37823743	0.17532617	0.19905888	0.20865452	-0.014747845	0.30632377	0.065903	0.018963445	-0.044464413	-0.33126488	0.2347525	-0.30210182	0.12231461
0.0066312347	-0.23953463	0.02202408	-0.0994867	0.14453201	0.1046349	0.13781965	-0.023702424	0.11008318	-0.009242423	0.05017831	0.10812325	-0.17375435	0.15198287	-0.041875076	0.089234784
-0.084554344	-0.062421747	0.04792405	0.029950088	0.036643427	-0.072544456	0.03264255	-0.11227777	0.18693246	-0.14418265	0.037131485	0.14223295	-0.087072454	0.22175007	-0.016381728	-0.009260727
0.6873541	-1.2005442	0.33902618	-1.3206539	0.6548302	1.4296675	0.8741336	0.8742011	0.59878975	1.1189005	0.23845819	-0.7952743	-1.1305438	0.39619136	-0.98833466	0.5797402
0.52697307	-0.6786013	0.07912075	-0.7299918	0.5200231	1.0550486	0.71400565	0.6808956	0.18255301	0.6905618	0.17738111	-0.3759549	-0.5866163	-0.011433698	-0.4370563	0.5886906
-0.92566633	-0.5171453	-0.7877689	0.3816854	-1.5751444	-0.6460585	-0.35880464	-0.26608232	-0.2571395	0.146454	-0.5770206	-0.12235357	-0.5301726	-0.50076926	1.4504384	0.5685346
0.18990369	0.23848256	0.10251798	0.20433848	0.49174583	-0.13754019	0.08305126	-0.18115696	0.13017368	-0.38643748	0.13484474	0.32514912	0.29825357	0.17290166	-0.32001826	-0.17929092
0.8559123	-1.2743226	0.5174642	-1.6423495	1.0427852	1.5531101	0.9973119	1.0120915	0.67555547	1.1728469	0.2341876	-0.93601537	-1.3167442	0.45699346	-1.3763678	0.6744983
-0.72410613	0.10176413	-0.4340448	0.48095426	-1.1661448	-0.62205136	-0.5131455	-0.25695568	-0.2529214	-0.04665783	-0.33282393	-0.009893827	0.02511856	-0.21938929	1.1436414	0.08616256
0.032915447	-0.4365783	0.5478627	-0.38357887	0.81422913	-0.29700238	0.251736	-0.630899	0.84327394	-0.6132993	0.26165366	0.5541047	-0.29097265	0.96765167	-0.849478	-0.22704673
-0.24129273	-0.36575043	0.20317225	-0.3721485	-0.18424791	0.04581684	-0.034291014	-0.16239272	0.3846488	0.16251503	-0.09325798	-0.25590348	-0.48457494	0.48867115	-0.17726052	-0.10612368
0.272945	0.49404436	-0.13074847	0.38822007	0.29468116	0.20590807	0.03909668	0.29813188	-0.37018555	-0.018508015	0.1148979	0.11093838	0.46726918	-0.36337674	0.0024612786	0.05024211
0.34527662	-0.2738975	0.52750796	-0.4204243	0.9500067	0.24013776	0.27735004	-0.07439367	0.4323629	-0.07669626	0.29249057	0.1417562	-0.24213502	0.47911444	-1.035405	-0.1411612
0.39563867	-0.7371001	0.3331862	-0.93416417	0.5614985	0.7541009	0.547076	0.4416946	0.4203044	0.6723178	0.15775637	-0.5351918	-0.8036873	0.35988155	-0.7742187	0.26905882
-0.8483552	0.87626874	0.5824487	0.78021497	-0.14860582	-1.173297	-0.84324765	-0.99260294	0.2959655	-1.0598522	-0.035263572	0.40035394	0.6975221	0.6868369	-0.07145483	-0.9902829
0.040912993	-0.14447556	0.3616968	-0.102398165	0.5354841	-0.22628443	0.10457696	-0.3919996	0.46695337	-0.4302373	0.16396421	0.32903495	-0.052340776	0.6299402	-0.53947645	-0.2985837
0.33452183	-0.07165315	-0.09986835	-0.12719312	0.27106655	0.36246234	0.20463116	0.38693428	-0.13081987	0.34689382	0.04433305	-0.15062596	-0.052039597	-0.1541134	-0.13103646	0.22135346
-0.32174554	-0.24963607	-0.24737687	-0.069957346	-0.7222324	-0.117282964	-0.11640795	0.036829077	-0.042110633	0.23678271	-0.20550798	-0.27344704	-0.3635174	-0.09860869	0.49997708	0.15682176
0.5488971	0.20838356	-0.5167355	0.4369417	0.07201079	0.28263187	0.3858436	0.60497576	-0.5467521	0.057373483	0.056638345	0.2128733	0.4189799	-0.70249915	0.45633176	0.5923406
0.2616578	-0.40374264	0.46305183	-0.7166667	0.6519524	0.56615037	0.323268	0.23592934	0.49787122	0.38126844	0.20480306	-0.43961176	-0.49529245	0.46655518	-0.8448634	0.017377302
-0.15027969	-0.31817612	0.12748846	-0.34592265	-0.08903859	-0.01677139	0.028965194	-0.1365589	0.3229295	0.07348369	-0.036813024	-0.1523163	-0.43889874	0.2958427	-0.065715246	-0.028672427
-0.7629544	-0.33974823	-0.7513895	0.2865102	-1.3087412	-0.36945394	-0.39139208	-0.0077115204	-0.37076092	0.29086968	-0.44722453	-0.24183612	-0.3816428	-0.52689046	1.2477821	0.55381763
-0.39557472	0.34847468	0.4202263	0.37508982	0.06374644	-0.6008131	-0.4281965	-0.56781006	0.34764263	-0.6220341	0.048905775	0.35020033	0.32656914	0.48822805	-0.2387061	-0.48428494
-0.31793156	0.026129492	-0.03976013	0.045455083	-0.5033261	-0.21714392	-0.25159785	-0.12527643	0.026988095	0.087993495	-0.18587984	-0.14195836	-0.056798298	-0.032355808	0.34775028	-0.012744039
-0.31201413	-0.43467677	-0.04195315	-0.30176845	-0.3306719	0.083838254	-0.067217395	-0.085436404	0.23675254	0.24373417	-0.13466941	-0.25155786	-0.46683052	0.2252746	0.11933778	0.17253083
-0.8510969	-0.29975754	-0.7605359	0.526067	-1.4730685	-0.7556554	-0.49338767	-0.2216152	-0.22859633	-0.014413856	-0.47093433	-0.06684067	-0.3992962	-0.30383477	1.5261095	0.3941342
0.13265377	-0.17171174	-0.4005277	-0.0801907	-0.409318	0.24703507	0.13349195	0.34083623	-0.27109474	0.42694613	-0.14990565	-0.17541142	-0.19628431	-0.4722164	0.41551813	0.48627305
0.018782528	-0.23220001	-0.40210086	-0.1043447	-0.46672717	0.32770327	0.18067645	0.40236256	-0.29210448	0.4779634	-0.093128815	-0.29654893	-0.27447927	-0.41374367	0.42998797	0.45147339
0.0967076	0.3245727	-0.11873651	0.43103686	0.18007126	-0.25508535	-0.0032037783	-0.10701043	-0.1376864	-0.3918567	0.058690745	0.36773935	0.39518422	-0.080005184	0.16826731	0.0074106725
0.37341818	-1.001557	-0.26240277	-0.87328887	-0.15563963	1.0098003	0.6432296	0.8663976	0.008796431	1.0210177	-0.07789649	-0.709251	-0.90590644	-0.2853406	-0.05080274	0.8439877
-0.8987236	-0.465655	-0.82982624	0.4143258	-1.6700503	-0.80236745	-0.44154912	-0.33827877	-0.37265232	0.14712796	-0.5501673	-0.023661966	-0.48233306	-0.48751637	1.5695261	0.57258177
-0.8814119	0.1335203	-0.2061821	0.46537408	-1.066398	-0.71735686	-0.5876191	-0.49538037	-0.07403901	-0.118756436	-0.32022834	-0.04600797	0.059688654	0.01951674	0.96206	-0.20814216
-0.06001135	-0.034280326	0.21422195	-0.26377624	0.21263008	0.032958888	-0.053583104	0.006744118	0.20807996	0.17805374	0.0448325	-0.2917663	-0.17258377	0.25148693	-0.43974197	-0.11884657
0.5990734	0.39375544	-0.7269408	0.50818026	0.012839144	0.54676926	0.46559656	0.8067159	-0.7996662	0.23051135	0.051954836	0.103840746	0.5485741	-0.98456305	0.633332	0.65967596
0.26202312	0.2326824	-0.25313446	0.35165596	0.10868531	0.04547801	0.11781598	0.1758901	-0.26778558	-0.14597325	0.057547506	0.26065335	0.33071163	-0.25681978	0.19151469	0.16864488
0.4255603	-0.7803141	0.17622676	-0.8750075	0.20205888	0.815793	0.4838672	0.6016782	0.25396773	0.76807284	0.025596343	-0.61981034	-0.79393727	0.045072906	-0.53758454	0.48301795
-0.6491693	0.1587643	0.23189068	0.1142068	-0.5919668	-0.45522094	-0.5016987	-0.39250457	0.19084118	-0.048829816	-0.19434409	-0.2681452	-0.018627264	0.37410817	0.117417224	-0.41145906
0.014579362	-0.19451489	-0.11489239	0.062684946	0.05506765	-0.11339043	0.13140357	-0.114469945	0.09016603	-0.24770658	0.03579597	0.28304285	-0.14209323	0.11762375	0.15110585	0.13613756
-0.34017882	0.12204418	-0.07175927	0.25590116	-0.4306954	-0.22588244	-0.27392316	-0.1208171	-0.11330286	-0.061244	-0.119910546	-0.05379224	0.08357668	-0.07972528	0.4301352	-0.117728874
-0.049837817	-0.11620387	0.39889547	-0.1284038	0.40717614	-0.17848013	0.032376546	-0.40728876	0.57156205	-0.44639954	0.102383316	0.3067434	-0.1215728	0.71070707	-0.558337	-0.24412084
-0.4092284	0.16152433	0.89061606	0.06111145	0.6924351	-0.86850566	-0.33206856	-1.1364669	0.99059063	-1.0751207	0.12887092	0.6416277	0.09433738	1.3274372	-0.9768051	-0.7715711
-0.13789585	-0.28949478	0.36824882	-0.4715004	0.23361437	0.04677997	0.03934178	-0.18012902	0.49602556	0.035186753	0.007375517	-0.15955202	-0.4282274	0.5784866	-0.45638633	-0.100376174
-0.06252706	0.23120677	-0.022202956	0.28887588	-0.01692969	-0.18969582	-0.07536148	-0.05054591	-0.034012232	-0.21751292	-0.025805207	0.1785291	0.2537764	-0.021680249	0.15688603	-0.12414974
0.030006796	-0.18705697	0.21208487	-0.1654996	0.26313025	0.024798155	0.10902086	-0.13581768	0.2354152	-0.03795793	0.052317545	0.07584319	-0.21562828	0.3103522	-0.25358173	-0.042703032
0.35136774	0.11620619	0.04129638	0.07993154	0.6409794	0.16262922	0.2772349	0.07831604	0.043528788	-0.22210681	0.2606216	0.30111516	0.22503573	0.08208212	-0.26461524	0.05947823
-0.1399752	-0.44841072	-0.07652873	-0.3314122	-0.23814847	0.13556398	0.033301804	0.037871055	0.15656945	0.3165674	-0.07580222	-0.27874324	-0.4824802	0.10600696	0.03802671	0.16010495
0.7125237	-0.9631833	0.29923943	-1.159679	0.7501692	1.0324181	0.66162723	0.71745497	0.34598407	0.9203999	0.1550401	-0.7728035	-1.0415765	0.15533492	-1.1080899	0.49214074
-0.17704496	-0.10933865	-0.34942868	0.11873626	-0.48708424	-0.068864964	-0.03360976	0.09218146	-0.1920259	0.118180014	-0.13265431	-0.0468389	-0.083366685	-0.2853526	0.59511375	0.3116796
-0.07296872	0.0365304	0.30249792	0.13327426	0.29990578	-0.45899835	-0.028679678	-0.5114556	0.3313167	-0.5412925	0.141573	0.39528817	0.08799892	0.4709865	-0.24176446	-0.31864476
0.14396404	-0.49781373	0.46120787	-0.41271242	0.6047172	-0.054286174	0.23252213	-0.3966385	0.64730865	-0.33471867	0.18738216	0.30450124	-0.38834834	0.72772115	-0.7423111	-0.12121945
0.66789794	-0.12150383	-0.1459789	-0.22386955	0.60271245	0.84813464	0.5947023	0.7247397	-0.21962759	0.3947432	0.21523738	-0.050078336	0.052405562	-0.43557534	-0.192223	0.4587099
-0.39990535	-0.15546128	0.12870315	-0.07523663	-0.45323685	-0.23319699	-0.25323653	-0.27833796	0.28742716	-0.052524175	-0.13676816	-0.11428467	-0.26187336	0.30986193	0.1353125	-0.18125354
0.07462644	-1.1502217	-0.06872238	-0.994089	-0.4320446	0.73123807	0.42563188	0.5160402	0.27476397	0.9685215	-0.16297862	-0.6828158	-1.1942143	0.040827207	0.0071621854	0.6866402
0.18090124	-0.5533939	0.5475623	-0.46410927	0.8205183	0.043712966	0.3928977	-0.38294187	0.7561016	-0.3764094	0.2694176	0.2993981	-0.40210703	0.8337005	-0.91179925	-0.049817447
0.24234828	0.07527036	0.1775932	-0.031632952	0.6063418	0.13181356	0.20912662	-0.017300498	0.06168722	-0.10185498	0.12668757	0.13538559	0.08932496	0.10470148	-0.4737851	-0.09937949
0.1708337	-0.015716963	0.15639412	0.06063884	0.45834818	-0.14522155	0.19922446	-0.3161051	0.28645396	-0.41750732	0.17808466	0.3754857	0.040449265	0.31086752	-0.36055058	-0.11337772
0.0044006775	0.48242015	-0.008954774	0.32016793	0.0055722473	-0.14882456	-0.1844113	-0.02650245	-0.21531427	-0.10273598	0.043339502	0.035981614	0.41841105	-0.16915086	0.050654028	-0.14591783
-0.98032755	-0.4505692	-0.8298754	0.43990356	-1.5532026	-0.6268864	-0.42745084	-0.1903477	-0.34942245	0.20439175	-0.5835592	-0.18898882	-0.48472822	-0.4772466	1.5056264	0.52810514
0.27869797	-0.6918446	0.39897263	-0.53855467	0.7083184	-0.056858733	0.56366354	-0.4317063	0.70607144	-0.52297753	0.20187333	0.529241	-0.56692916	0.75077695	-0.7271127	0.09028538
-0.41512984	0.21182594	-0.08607198	0.29525095	-0.4004297	-0.38111687	-0.3133057	-0.23325865	0.018259011	-0.2018597	-0.10725379	0.071113035	0.09774349	0.09480868	0.39910996	-0.123509236
0.4189453	-0.24797636	-0.098932594	-0.2839103	0.3203932	0.60048467	0.3987696	0.52073556	-0.0943393	0.36268875	0.0701313	-0.15787788	-0.16736312	-0.17265353	-0.21846455	0.44106233
0.03745614	-0.19880773	0.50660485	-0.080703154	0.7533035	-0.33092052	0.08831071	-0.63994193	0.71080196	-0.72767895	0.24950421	0.5499589	-0.03838984	0.8488743	-0.8172873	-0.38758153
-0.021617293	0.1414737	0.09440214	0.14964202	0.40707713	-0.14313239	0.068394706	-0.26537278	0.13630427	-0.40014568	0.14976537	0.33121052	0.2037506	0.20201918	-0.19728222	-0.15180151
0.28354937	-0.8269263	0.7630788	-0.8103429	1.1684577	0.20836277	0.51887953	-0.45861205	1.0330003	-0.22685398	0.3117217	0.31402174	-0.7813213	1.1884353	-1.4181378	-0.039845828
0.09816198	0.02653683	0.16133082	0.13677214	0.4428373	-0.0663845	0.11835929	-0.1391319	0.098835096	-0.391738	0.14090085	0.29390213	0.1120139	0.13779455	-0.20667449	-0.030974638
-0.45285028	0.37815192	0.31074023	0.12445211	-0.16827416	-0.47214878	-0.5440353	-0.40284342	0.270067	-0.23857012	-0.09582124	-0.1019778	0.1529145	0.4647549	-0.09985154	-0.5429696
0.10246277	-0.4550439	0.64594805	-0.42903197	0.9221749	-0.33696902	0.27652615	-0.76787925	0.85044503	-0.6867144	0.27820525	0.539412	-0.41120815	1.2222903	-1.0454525	-0.33599734
-0.72578746	0.9089115	0.43276995	0.67882085	-0.16938105	-1.0139073	-0.8186233	-0.81713337	0.20918193	-0.7782726	-0.051343717	0.26721108	0.6584299	0.59064054	-0.06309495	-0.89570624
0.13048814	-0.06045005	-0.07348504	0.071754396	0.18784636	0.04210856	0.15250252	-0.027842468	0.0050796354	-0.1752531	0.036771946	0.2672345	-0.024844438	0.084411055	-0.04535806	0.13889158
-0.20453452	-0.3119998	0.29861933	-0.1849997	0.31406358	-0.28650376	0.024126578	-0.4595391	0.5635067	-0.4862879	0.120150045	0.3768589	-0.25373256	0.57075727	-0.38874313	-0.16880843
0.16152838	-0.6795732	0.65100837	-0.7323015	0.98911536	0.16470578	0.38800287	-0.34024358	0.8767179	-0.13587582	0.22351629	0.12719254	-0.66126066	0.86421233	-1.1657217	-0.10955783
-0.66041803	-0.45759854	-0.7203629	0.22115257	-1.3627944	-0.33396888	-0.24364124	0.038815606	-0.3554929	0.2877055	-0.48267892	-0.26908726	-0.5242716	-0.4697373	1.3187226	0.4818966
0.93696326	-1.3014319	0.2931658	-1.4672178	0.8396008	1.5793926	1.0387006	1.1236823	0.45725554	1.1842346	0.24395429	-0.80221605	-1.2036965	0.16896021	-1.0557708	0.8393596
0.26881227	0.10017008	-0.36335042	0.19133191	-0.08745984	0.29395226	0.20387307	0.5041287	-0.43647575	0.18375549	-0.010651573	0.038443267	0.24179842	-0.52970743	0.34737238	0.4609954
-0.5233931	0.49671724	0.053641077	0.5690485	-0.48113748	-0.7385072	-0.56518155	-0.5411521	0.07025807	-0.52100945	-0.068606935	0.14205332	0.38884124	0.1476607	0.3543565	-0.4191304
-0.007699974	-0.45988885	0.25711864	-0.630814	0.14016716	0.34710777	0.20634079	0.123739615	0.40477183	0.4610914	0.032861896	-0.36550194	-0.57101023	0.3369983	-0.5083564	0.046490222
0.09962506	-0.12619172	0.054920167	-0.11400073	0.1965645	0.06807329	0.13869031	0.0524826	0.12570885	-0.001942009	0.04489214	0.033100676	-0.049415946	0.08671002	-0.17994204	0.03628124
-0.4955781	-0.5306949	-0.52328354	-0.03354795	-1.1083121	-0.11574536	-0.15995343	0.03704341	-0.16737732	0.3220403	-0.32223016	-0.20254795	-0.552912	-0.35823178	0.9184059	0.48558924
0.19207352	-0.4023067	0.107460484	-0.40234858	0.28039733	0.36191487	0.28305033	0.14885394	0.21897677	0.2812357	0.0926241	-0.17940111	-0.3387262	0.18222442	-0.347278	0.24416056
-0.3475379	0.4957425	-0.26165688	0.66131055	-0.45431477	-0.46991825	-0.34691554	-0.1470008	-0.32131848	-0.33707282	-0.10061331	0.13426356	0.47491947	-0.31166834	0.6503048	-0.13896377
-0.40621513	-0.29309204	-0.5909735	0.21324249	-0.92804825	-0.19711563	-0.19296756	0.033079393	-0.1653634	0.24724418	-0.28230873	-0.08212478	-0.3329861	-0.31659892	0.96645683	0.4298788
0.11787675	0.011517963	0.2600402	-0.11127405	0.27090836	0.17996739	-0.012640927	0.04461572	0.071851596	0.09331441	0.028983612	-0.14372396	0.03604377	0.0718234	-0.32712993	-0.058991276
0.033423893	-0.27404162	0.116588004	-0.2139595	0.06782211	0.0011360884	0.093359105	-0.07498492	0.27044222	0.020335691	0.036832277	-0.003266649	-0.25344118	0.33487588	-0.21845919	0.016628692
0.03119818	-0.7604581	0.081863835	-0.68058145	-0.10260572	0.46792033	0.3055732	0.17190981	0.3597757	0.4897026	-0.040323343	-0.3927713	-0.7459379	0.33701926	-0.27129847	0.25672805
-0.539285	0.41801167	0.061721664	0.3108398	-0.45240468	-0.43214858	-0.558579	-0.2999787	-0.08533723	-0.16108043	-0.20625208	-0.14110269	0.17161718	0.05494282	0.243982	-0.38424388
-0.25718024	-0.18009639	-0.31282318	0.12157267	-0.60737807	-0.083198994	-0.07858823	-0.066646375	-0.11425654	0.13124041	-0.22881557	-0.0074560815	-0.19474855	-0.14991255	0.6107837	0.20469366
0.11335407	-0.6632311	0.7806805	-0.5838439	1.0527506	-0.38052192	0.38769084	-0.92210966	1.0007635	-0.7857236	0.26162055	0.6854363	-0.5048689	1.2783636	-1.1345817	-0.31939426
0.14586027	-0.2035166	0.2636986	-0.27189875	0.3680541	0.14605042	0.19542125	-0.045397718	0.24875332	0.012552194	0.12555267	-0.0017778266	-0.29199806	0.2605819	-0.4557504	-0.04938326
0.260697	-0.27703097	0.23730956	-0.3409959	0.5683964	0.30443752	0.28484508	0.11146742	0.24627225	0.09065368	0.11628797	0.009485015	-0.2619378	0.25166142	-0.5340233	0.09455169
0.0656864	0.03373402	-0.15289465	0.06286562	-0.13571736	0.04862398	0.03647012	0.09304278	-0.2004642	0.13772771	-0.020386076	-0.04077408	0.05928179	-0.1967173	0.20671195	0.15827738
-0.06504563	-0.22153866	0.47813517	-0.41461936	0.33947486	0.11811763	0.0011202923	-0.15581338	0.4756227	0.18943092	0.07538974	-0.274363	-0.3109959	0.62612754	-0.6729737	-0.21738692
-0.48067182	-0.009389567	-0.39923725	0.269503	-0.89675236	-0.3439576	-0.3224098	-0.15328078	-0.19189952	0.04208942	-0.23107658	-0.15246116	-0.14549285	-0.24772821	0.8114392	0.109121926
-0.10535285	0.0043482473	0.20946538	-0.068893515	0.19472554	-0.028889162	-0.059555195	-0.15813816	0.17943186	-0.14798886	0.005761431	0.05744367	-0.04380912	0.26203382	-0.24449334	-0.10073073
-0.04130392	-0.08908311	-0.07119608	0.02988391	-0.043053944	0.05144012	0.033633627	0.006510051	0.04753717	-0.020160083	-0.053120717	0.016175358	-0.06579259	-0.04216983	0.11273692	0.137331
-0.27930573	-0.06826337	-0.11240577	0.031839486	-0.40465435	-0.21963608	-0.19410492	-0.23817086	0.087113634	-0.113953985	-0.10792631	-0.010561664	-0.15139814	0.13232787	0.3362812	-0.07733234
0.27564144	-0.18310112	0.043353416	-0.058218367	0.3759666	0.01103471	0.26898664	-0.05427755	0.19969513	-0.16884388	0.07657292	0.28707224	-0.089081146	0.18225689	-0.231247	0.10877015
0.10142068	-0.13369076	0.037327334	-0.19202076	0.1409625	0.11744912	0.105949655	0.09917399	0.032348827	0.14579616	0.048579406	-0.111132465	-0.19650306	0.04558845	-0.14036945	0.040502913
0.03866608	-0.25856546	0.058670856	-0.3572863	-0.017868537	0.36150816	0.128905	0.15045087	0.16834068	0.30203623	0.024156798	-0.26270804	-0.33069536	0.07770299	-0.112068444	0.20005675
0.20900156	-0.1653484	-0.012170146	-0.053652294	0.20047471	0.07776788	0.20454663	0.013739025	0.091476485	-0.060393315	0.05541299	0.16563495	-0.046824027	0.0926745	-0.12819037	0.15231225
-0.15999337	-0.044102933	0.2352827	-0.10249533	0.10850892	-0.12320177	-0.09607787	-0.25409162	0.27516133	-0.16458407	0.013815281	0.09593402	-0.07995027	0.4350422	-0.25660044	-0.12456122
0.07565824	-0.2966562	0.19612698	-0.52832335	0.102632515	0.37483045	0.124640785	0.21591277	0.18405856	0.38597244	0.018040739	-0.5109073	-0.4522521	0.08365523	-0.4352792	0.06551208
0.04558136	0.6958885	-0.050716203	0.6191342	0.045449663	-0.22284974	-0.20157827	0.006069759	-0.3666452	-0.2748044	0.038123965	0.16777334	0.6706841	-0.27691767	0.18915921	-0.14768334
-0.2173073	-0.07158201	-0.10987894	-0.02256089	-0.35065144	-0.09420715	-0.16188774	-0.057444096	0.057128936	0.067773454	-0.11496096	-0.14930987	-0.1620342	0.033201076	0.26758772	-0.027468957
-0.9566601	-0.5594742	-1.0126086	0.2632822	-1.7072716	-0.3964972	-0.3798648	0.08591791	-0.44043705	0.49093392	-0.5740335	-0.34473053	-0.63668895	-0.72489357	1.6145707	0.7689018
-0.7610641	-0.039648928	-0.26434097	0.2953507	-0.9727202	-0.5159315	-0.52488226	-0.3552097	-0.015865205	-0.00793734	-0.3143605	-0.1613039	-0.14650609	0.008714081	0.83524156	0.0017311309
-0.014951223	0.07310409	0.13522142	-0.05090538	0.11531262	-0.0724122	-0.12441842	-0.06572155	0.025145167	-0.034158636	-0.00039679377	-0.029687906	0.0044275867	0.16917092	-0.15253708	-0.18976435
-0.27518585	0.1114157	0.006788035	0.21343777	-0.21008459	-0.32830983	-0.14477964	-0.26356313	-0.008329473	-0.23870707	-0.033745054	0.14154163	0.117518485	0.054643475	0.20026831	-0.07363465
-0.09046388	0.006761872	-0.017096331	0.12843111	-0.06169828	-0.18320169	-0.0035570813	-0.12694182	-0.043407112	-0.16991141	0.02941362	0.12158303	0.0527666	0.013445862	0.077774264	-0.0099579
-0.059416257	0.21987845	-0.32195053	0.4299239	-0.43299344	-0.077121235	-0.08096269	0.11022326	-0.37610433	-0.014610977	-0.13337164	0.06951607	0.2554585	-0.35144007	0.55786484	0.15346414
-0.15971157	-0.15106584	0.2289864	0.019090464	0.10656355	-0.33744255	-0.11620372	-0.48044372	0.35682443	-0.35463375	0.049328953	0.16917172	-0.1540245	0.547221	-0.2431893	-0.26688263
-0.458848	-0.12276531	-0.40962195	0.27936435	-0.85848755	-0.34767658	-0.2744328	-0.076677166	-0.25537273	0.049674902	-0.2523005	-0.12016615	-0.10943789	-0.289431	0.9140715	0.2547603
0.4179958	-0.5539069	-0.03275712	-0.61418927	0.1490131	0.6608856	0.44911787	0.51543283	0.039302647	0.63221735	-0.014484047	-0.46060738	-0.535094	-0.16077954	-0.301559	0.46231827
0.03492061	-0.2213553	0.5358141	-0.21767023	0.7101099	-0.3152612	0.16161472	-0.64158016	0.70652103	-0.57911193	0.17661825	0.47901174	-0.20522742	0.9163295	-0.7842065	-0.2932903
-0.70393807	-0.33201256	-0.51459324	0.20483264	-1.2766105	-0.479533	-0.37150016	-0.10706815	-0.11111232	0.2350452	-0.3696228	-0.24886766	-0.44838744	-0.2717905	1.131438	0.33280924
0.50501704	0.6294979	-0.7719947	0.90044886	0.002479241	0.16906928	0.27753207	0.5380331	-0.7631428	-0.2665627	-0.008550297	0.44090685	0.7878882	-0.9225432	0.94818556	0.54240954
-0.017651647	0.013770456	-0.042346273	-0.041710902	-0.06753239	0.111055255	-0.051836316	0.12747087	-0.04118492	0.21295752	-0.0075957268	-0.24939767	-0.030435069	-0.09504972	-0.008666798	0.07546389
0.18477418	-0.050942425	-0.24561669	0.08804339	-0.07548719	0.22045591	0.18292625	0.2496908	-0.2177595	0.19545157	-0.053097744	-0.066150635	-0.06580352	-0.3720639	0.21139306	0.35837072
0.56962895	-0.6434939	-0.06076192	-0.70855355	0.39220965	0.9378432	0.5656811	0.7331637	-0.051511116	0.7979787	0.012520898	-0.5994949	-0.5895155	-0.21723104	-0.46860018	0.6260342
1.0924248	1.0202725	-0.91877455	1.226027	0.5728881	0.70483	0.7099663	1.050302	-1.1343824	-0.048855096	0.24578606	0.551114	1.2242577	-1.280294	0.76989913	0.8309982
-0.09904584	0.1364483	0.15990625	0.18229328	0.176905	-0.20619726	-0.051591333	-0.24883676	0.24060409	-0.34999034	0.025400162	0.25551674	0.18409187	0.2862188	-0.10373505	-0.12366863
0.39260042	-0.083508804	0.05634945	-0.09881653	0.54662544	0.15799999	0.34160936	0.005890783	0.12944162	-0.18472603	0.20260793	0.24091816	0.05328423	0.037421335	-0.35653856	0.20118827
-0.36948052	-0.32950908	0.3934764	-0.09470843	0.17564248	-0.64392555	-0.15394993	-0.7886605	0.67490387	-0.5803947	0.038763344	0.3794154	-0.33261457	0.9073759	-0.34014142	-0.34613612
0.24698836	-0.21902229	-0.10402557	-0.19139284	0.13802853	0.3737166	0.27902618	0.29190844	-0.0804712	0.20736237	0.0455708	-0.104732744	-0.15939295	-0.13421512	-0.02473905	0.30186015
-0.2986481	0.31258604	0.3823951	0.09250057	0.026192917	-0.3305923	-0.3864014	-0.3589418	0.20583682	-0.2021484	-0.0022810113	0.0007872575	0.07038057	0.39373657	-0.29965118	-0.46318126
-0.5109921	-0.4654122	-0.33722425	-0.13574778	-0.932151	-0.078630574	-0.20668554	-0.022790441	-0.013598689	0.32164967	-0.2992922	-0.3074621	-0.5878733	-0.12621191	0.6858216	0.3206079
-0.51742357	0.50862986	0.10844857	0.5060537	-0.33322057	-0.53855264	-0.54017067	-0.37297484	-0.043671694	-0.32067746	-0.13344765	-0.07731325	0.4283381	0.15007116	0.17178142	-0.4245002
-0.08287364	-0.16378705	0.2271918	-0.12517866	0.13795218	-0.14419986	-0.0076674502	-0.25244397	0.33666813	-0.1691394	-0.031765208	0.06308229	-0.18686482	0.42996487	-0.2679008	-0.16340059
0.38682637	0.44242033	-0.22419094	0.4884528	0.21250923	0.114742264	0.12430468	0.32640404	-0.41126657	-0.11117756	0.104800195	0.20482425	0.50998074	-0.45630977	0.19682172	0.19765474
0.30306184	-0.0080027	0.15072626	0.15180337	0.5862216	-0.06381443	0.22409277	-0.14423895	0.13107154	-0.432621	0.13944143	0.42033547	0.14444508	0.17494325	-0.28592163	0.024017787
0.19878227	-0.686589	0.49326342	-0.64254415	0.57539994	0.13706933	0.36687186	-0.282992	0.77822995	-0.14911719	0.1481439	0.24671616	-0.6340956	0.89364266	-0.7774189	0.050495643
0.25354144	-0.30402356	0.06732525	-0.34650853	0.23734927	0.42575333	0.30701363	0.18743141	0.1784463	0.27234256	0.08684783	-0.15537839	-0.3395596	0.060304478	-0.3405845	0.20455733
0.2341431	0.38942462	-0.023863966	0.29779616	0.24659911	0.007669174	0.09450183	0.048458796	-0.22561705	-0.18905242	0.08853849	0.25641957	0.45667985	-0.21929824	0.039866492	0.021027133
-0.46754086	0.30678955	0.3253342	0.097658314	-0.36009085	-0.36289564	-0.50207	-0.34529233	0.1270985	-0.07024702	-0.17881815	-0.29676443	0.07448198	0.3332151	-0.02029213	-0.40112132
-0.1938821	-0.0830905	0.061320163	-0.0006965688	-0.13907282	-0.09947237	-0.13424684	-0.16124044	0.16729958	-0.10397771	0.000931961	0.047128752	-0.10147796	0.13487165	0.06533285	-0.022450998
0.39212555	-0.58094597	0.22327437	-0.7402218	0.48500848	0.776136	0.43847016	0.5157773	0.3142874	0.6520081	0.12676613	-0.47789806	-0.55543715	0.18188742	-0.7063231	0.26063994
0.26452553	-0.44125584	0.028454635	-0.20307587	0.2681946	0.08098629	0.37071717	-0.14292622	0.23661472	-0.32462424	0.12876	0.40357533	-0.28873533	0.25890753	-0.12705156	0.26796564
-0.11074024	-0.63697207	0.9032384	-0.47989982	1.0966275	-0.7022595	0.15546846	-1.1747209	1.1620486	-1.0412121	0.28595713	0.787191	-0.4248548	1.6386087	-1.2766593	-0.6338406
-0.52586544	0.5319586	0.4035259	0.3038064	-0.18522502	-0.6571259	-0.60044616	-0.59207904	0.21666433	-0.431213	-0.103034474	0.002165248	0.31518275	0.48960045	-0.10329431	-0.64496064
-0.62331957	-0.2956451	-0.45502862	0.288077	-1.0681671	-0.5196768	-0.27948758	-0.22696178	-0.17424506	0.0564114	-0.28776878	0.013748031	-0.30239305	-0.115941435	0.9303228	0.25274864
0.08299996	-0.078353554	0.050614007	-0.1817203	0.08729331	0.13669884	0.07163806	0.087086834	0.08546871	0.048639357	0.0554295	-0.06918345	-0.08256259	0.0059762998	-0.16233818	0.0982603
0.2509861	-0.10086868	0.27631956	-0.2050905	0.5783157	0.15621178	0.19878809	-0.039931983	0.29292613	-0.056883514	0.12895995	0.056571838	-0.04660142	0.3435681	-0.54818386	-0.048986953
-0.24475563	0.084064424	0.3457212	-0.0400112	0.0035392232	-0.09446388	-0.25407314	-0.17049333	0.18127018	-0.004798065	0.013901607	-0.1865828	-0.0034496197	0.3827975	-0.2810053	-0.3043989
-0.09317456	0.19763535	-0.13039309	0.19884466	-0.24972884	-0.14236848	-0.09796911	0.012287585	-0.15216711	0.005187872	-0.024757812	-0.047745246	0.24271232	-0.17895637	0.26161718	0.00054342666
-0.022253413	-0.19005321	0.01856098	-0.15271062	-0.060677093	0.03139844	0.03889145	-0.031796437	0.1501356	-0.038024157	0.027611278	-0.0619856	-0.18707493	0.1300318	-0.05047448	-0.020960122
0.33560666	0.017404245	-0.13949525	0.12394468	0.26144016	0.18543561	0.2873179	0.2423101	-0.1722854	-0.0028382759	0.03454718	0.11369978	0.10516254	-0.21904933	0.026618006	0.18396391
0.49197376	-1.0034729	0.48715538	-1.1945337	0.674788	1.1389354	0.6886082	0.6183061	0.6325802	0.8829193	0.1777435	-0.6244286	-0.95997417	0.5240793	-1.0112082	0.30846155
0.024063865	0.4604778	-0.045058887	0.2929378	0.028886128	-0.07223432	-0.17488338	0.06931975	-0.20755297	0.01544603	0.017384754	-0.04533735	0.40102327	-0.16099307	0.12280282	-0.11410479
-0.26397276	0.26313487	0.09591204	0.26792908	-0.26063776	-0.34863058	-0.3602508	-0.2200273	0.016391085	-0.18056181	-0.037381634	-0.061232686	0.17291659	0.09446115	0.14656004	-0.3251366
-0.016808966	-0.080998234	0.014739874	-0.002350275	0.14071615	-0.047677487	0.060955722	-0.13607465	0.15196232	-0.15780213	0.044020064	0.17184916	0.027157657	0.13674563	-0.06782447	-0.006024822
-0.72447187	1.0146676	0.3647848	0.82514817	-0.2615992	-1.1065633	-0.9182967	-0.8314339	0.116887674	-0.8169956	-0.05956161	0.25473812	0.83177644	0.44931483	0.08697822	-0.9350217
0.59912187	-1.0270998	0.31733227	-1.171598	0.58177674	1.146982	0.6775633	0.72049725	0.46089706	0.85926706	0.07433004	-0.62277925	-0.9802224	0.32545584	-0.80238205	0.4584656
0.032380473	0.107831724	0.06624896	0.13479616	0.18394142	-0.19072153	0.05845818	-0.18479934	0.053805906	-0.23743853	0.105825014	0.19320531	0.12757209	0.10352619	-0.124914095	-0.10336253
-0.77113706	0.6644864	0.44709498	0.49185666	-0.2973833	-0.8536787	-0.787456	-0.8371475	0.33704004	-0.6053752	-0.072551176	0.056583736	0.42442736	0.6268343	-0.056658313	-0.86740893
0.1370336	-0.34153432	0.078179695	-0.4407349	0.067262016	0.40105894	0.23814715	0.2488464	0.1343727	0.30224645	0.0020631268	-0.31449482	-0.32503247	0.101563275	-0.15409818	0.20149292
0.18476705	-0.2868884	0.045328688	-0.24171723	0.15094675	0.16415535	0.26675206	0.096391924	0.14023188	0.027931213	0.09761058	-0.03769364	-0.18672344	0.12392327	-0.16809356	0.195661
0.6995181	-1.2254522	0.5161847	-1.4331341	0.8414215	1.3198326	0.78986925	0.7396421	0.7206522	1.0326425	0.22377773	-0.75849444	-1.2524725	0.547402	-1.1662439	0.5220139
0.14686167	-0.22836447	0.094050445	-0.24886438	0.32852396	0.16362925	0.24193732	-0.059498522	0.20290352	-0.03612992	0.07172549	0.054798342	-0.22888882	0.23156443	-0.29505506	0.07069904
-0.3059036	0.13880284	-0.12916385	0.22929019	-0.43414396	-0.258772	-0.33780354	-0.10043381	-0.13950914	0.015917512	-0.11905407	-0.17739452	0.11573315	-0.060858473	0.4399361	-0.14564326
-0.031488176	0.058165044	0.08136297	-0.050775006	0.044102162	0.055380587	-0.009561831	0.053624514	0.05788498	0.064049296	-0.046883345	-0.1443648	-0.017807828	0.02178925	-0.04187279	-0.056969833
0.3804032	-0.30702612	-0.032377586	-0.3898285	0.30909964	0.56549555	0.3510533	0.49872202	0.025935616	0.47204456	0.053415507	-0.24996077	-0.30200478	-0.13524874	-0.28409094	0.31750536
0.12324084	-0.74995553	0.06439676	-0.80177695	0.0841932	0.6457744	0.3645889	0.42000565	0.29834852	0.61265343	-0.024474075	-0.49150792	-0.84200406	0.17496984	-0.32057044	0.3936931
0.22803734	-0.043355398	-0.10899195	-0.10321539	0.10757424	0.2268869	0.2204605	0.17058527	-0.07596528	0.11066536	0.037442382	0.025760297	0.009896701	-0.1755275	-0.077283256	0.23624639
-0.7743274	-0.32786956	-0.6864078	0.4102427	-1.3070431	-0.69026256	-0.3504768	-0.25944614	-0.2833703	0.09807792	-0.4789522	-0.034484074	-0.3720543	-0.46453685	1.2463096	0.4545553
-0.15157154	0.588156	0.11234066	0.47205973	0.07877723	-0.45596358	-0.35378185	-0.3150031	-0.04628896	-0.4340559	0.0136012575	0.28459606	0.53614956	0.12573096	-0.0067732083	-0.37170154
-0.013291188	-0.05183858	0.1259675	0.02315492	0.16117051	-0.07018344	-0.044736017	-0.12652615	0.15302831	-0.08249862	-0.014155348	0.10101772	-0.0020704889	0.1295364	-0.16486922	-0.072442524
-0.1432024	0.1312183	0.25806418	0.099265896	0.12340037	-0.21772544	-0.16349196	-0.30635417	0.2790817	-0.27868629	0.0075520533	0.04143427	0.09854665	0.3792117	-0.2865879	-0.25867736
0.69190496	0.5821737	-0.5850103	0.820264	0.26506436	0.36896023	0.43945834	0.65029144	-0.7209277	-0.14298765	0.14192696	0.34946182	0.77586335	-0.94189984	0.6385501	0.5664884
0.24614792	-0.22198172	-0.060751192	-0.24103424	0.18126771	0.3780328	0.2396013	0.26167357	0.0080635585	0.24590439	0.06632592	-0.14763224	-0.2425395	-0.027794825	-0.2066214	0.20425007
-0.042519845	-0.14664753	-0.14940688	0.06264758	-0.21431068	0.04922938	0.05806195	0.0957929	-0.07056679	0.01886617	-0.011836879	0.036824472	-0.045407165	-0.099652804	0.17746785	0.2404692
-0.15513448	-0.04087508	-0.051659305	0.09643238	-0.27250168	-0.037108928	-0.11674017	0.005910696	-0.09628188	0.1015537	-0.11383715	-0.14567249	0.016670533	-0.09515643	0.20223467	-0.008230322
0.03192044	-0.3138241	0.25089756	-0.46353543	0.07288315	0.2863727	0.054237004	0.094858974	0.24721171	0.33459085	-0.055601336	-0.3397368	-0.34396887	0.24630268	-0.3968446	0.011529998
0.23086448	-0.41454613	-0.031513255	-0.46198857	0.12978853	0.44860893	0.36599183	0.31860006	0.019240914	0.39717746	0.0049842065	-0.25906402	-0.46358824	-0.022387713	-0.19721614	0.33807042
-0.15310264	0.6929603	-0.02003046	0.57766783	-0.038424328	-0.27260062	-0.28468978	-0.1123217	-0.23011446	-0.30074432	-0.031478085	0.1268974	0.6531677	-0.16448766	0.15821609	-0.2964297
-0.14929013	-0.012024726	0.037539084	0.04843324	-0.026074443	-0.14583007	-0.09111094	-0.18881604	0.16097157	-0.1463303	-0.037604768	0.122497074	0.045151122	0.20704114	-0.011170919	-0.058853474
-0.32365364	-0.15435582	-0.1557366	-0.04242306	-0.65239334	-0.08944704	-0.19110766	0.025826605	-0.0061033596	0.15941992	-0.2069104	-0.2118225	-0.21995068	-0.029815042	0.43125215	0.108604975
-0.17815275	0.5065006	0.16313611	0.47711468	0.14906013	-0.4883719	-0.2920629	-0.32596564	-0.04566949	-0.50885385	0.020545915	0.26088697	0.52927643	0.15874344	0.0019091924	-0.39603364
-0.1582494	-0.4664789	-0.0626531	-0.22616637	-0.26990378	-0.055950988	0.06842584	-0.11673323	0.24471457	0.049318485	-0.08721717	0.0127567705	-0.47819373	0.22516482	0.099760294	0.1737461
0.29362112	-0.5103683	0.082696185	-0.6011733	0.2795944	0.6655724	0.39633876	0.38312334	0.21007992	0.535058	0.048961405	-0.370436	-0.5722801	0.12843919	-0.42716604	0.30924428
-0.4993069	-0.09478899	0.10350766	0.019640012	-0.45513207	-0.3456269	-0.28975165	-0.32823527	0.22371349	-0.08049166	-0.16585025	-0.0711467	-0.0997129	0.28329256	0.2167687	-0.17402077
-0.085270025	-0.076100305	0.39311653	-0.19337578	0.49855426	-0.19647782	-0.05275371	-0.42075533	0.4964643	-0.30769655	0.14632285	0.16732657	-0.084125444	0.62464863	-0.64781296	-0.32456708
-0.10868496	0.10409553	0.08140785	0.18927631	0.023130527	-0.25179943	-0.13392518	-0.23004119	0.13109614	-0.1678422	-0.04255731	0.10831189	0.14596912	0.13443649	0.012759821	-0.22009434
-0.47834122	0.27799785	0.7601144	0.19182387	0.35634574	-0.7750628	-0.43686283	-0.98856616	0.7223454	-0.8113358	0.046032365	0.42416677	0.16817103	1.1387	-0.64018726	-0.7110157
-0.058373168	-0.10567739	0.0059236623	-0.10840741	-0.08622573	0.03525479	0.01284671	-0.030991595	0.122075856	0.032341592	-0.010737085	-0.070949785	-0.13650015	0.14187686	0.011106239	0.078384176
-0.3350462	0.021385739	-0.13127512	0.037764974	-0.35930634	-0.19371097	-0.23044235	-0.13625056	-0.010741086	-0.02147585	-0.08578275	-0.05093376	-0.05200535	0.063001834	0.34212705	-0.047483213
0.121233694	0.24358942	-0.0057268366	0.25244233	0.28775117	-0.09260244	-0.0115383435	-0.016837396	-0.061127275	-0.27670616	0.073001854	0.20850249	0.3437621	0.007445124	-0.017438859	-0.07080934
0.045854665	-0.17067854	0.39748353	-0.4436965	0.37406942	0.22047254	0.03774031	0.05135736	0.36519498	0.21568938	0.101206325	-0.21695293	-0.28183255	0.35559508	-0.6280073	-0.10321733
-0.40829352	0.60873693	0.12626188	0.42870995	-0.23971178	-0.44361353	-0.45771536	-0.30729938	-0.086285	-0.34233713	-0.06905812	0.000590348	0.45597675	0.040243912	0.13600938	-0.47514555
-0.5794985	0.4448924	0.1324713	0.39748326	-0.3795304	-0.6529168	-0.5610915	-0.5593788	0.11283305	-0.37406707	-0.06612611	0.02290765	0.24109003	0.32069054	0.14170805	-0.49623662
-1.031284	1.0407228	0.65865004	0.859043	-0.43644378	-1.1847078	-1.1336504	-1.168867	0.3840171	-0.8944121	-0.100214384	0.20003547	0.77691764	0.8944274	-0.021887671	-1.1594875
0.23401147	-0.39129728	0.1187322	-0.515669	0.22407067	0.48759997	0.2172851	0.2782644	0.21809219	0.46309265	0.0054093036	-0.3758761	-0.48091432	0.18519896	-0.45373985	0.20765719
0.063733384	-0.44469282	0.62410766	-0.291216	0.8356202	-0.39467737	0.2607173	-0.6997134	0.7904607	-0.6797927	0.27159676	0.5342618	-0.27028114	1.0278046	-0.9094032	-0.3124655
-0.28945142	0.4525974	0.22719891	0.29381898	-0.060797937	-0.47195312	-0.44396555	-0.29458684	0.02307939	-0.31758627	-0.0047417595	0.005859815	0.3646937	0.14765717	-0.006683369	-0.4067046
0.07981766	-0.053456385	-0.042326387	0.07443266	0.06714662	-0.030757146	0.058521047	-0.031877812	0.038709003	-0.060376875	0.05063167	0.10464332	-0.025913125	0.085914664	0.001998848	0.07810604
-0.30080232	-0.23050731	-0.4885622	0.04939844	-0.65317476	0.023013672	-0.08304587	0.11328721	-0.18585172	0.23665082	-0.24796417	-0.27565804	-0.21245217	-0.33520532	0.7168905	0.3572931
-0.7902524	0.8037534	0.484663	0.6234093	-0.2506602	-1.1215607	-0.8926144	-0.9299276	0.3168973	-0.80788314	-0.021974877	0.17112762	0.61009467	0.68043065	-0.00056924025	-1.0120475
0.20080937	-0.27519462	0.09341204	-0.48932576	0.3302454	0.45918983	0.22234778	0.26757666	0.14441724	0.4038915	0.038430106	-0.354403	-0.36509115	0.052679896	-0.4329939	0.18011242
-0.21664977	-0.1759337	-0.14273705	-0.04853482	-0.36081868	-0.09615174	-0.13485545	-0.0009899017	-0.011243958	0.0954948	-0.15963446	-0.115330696	-0.20512573	-0.007078631	0.29123172	0.05134747
-0.08012761	-0.42036667	0.6474259	-0.35238186	0.7298855	-0.33986333	0.13563646	-0.7766918	0.91095805	-0.6008277	0.20052363	0.48628375	-0.41550234	1.0976636	-0.91031444	-0.37718448
0.55574983	-0.80533034	0.1968592	-0.97165173	0.5177553	0.9331375	0.6012432	0.64123976	0.26750258	0.82698965	0.080589235	-0.6405075	-0.81608444	0.059805535	-0.7504917	0.50678426
-0.031150218	-0.08035199	0.40127513	-0.1613819	0.38567898	-0.110639416	0.03307967	-0.33303466	0.41296598	-0.23583335	0.11322734	0.093177415	-0.118482664	0.56036884	-0.5294015	-0.23465157
0.026889674	-0.26538947	0.4039995	-0.3354704	0.4427503	-0.050014336	0.06598973	-0.32207584	0.49926215	-0.2584641	0.101292714	0.13503903	-0.2696725	0.5879966	-0.54761446	-0.21043698
0.11944921	-0.27376434	0.1969321	-0.23793569	0.38423568	0.0914464	0.2582013	-0.09722557	0.2923875	-0.04915367	0.14813098	0.12213452	-0.22083922	0.24228716	-0.44640887	0.012402532
-0.043922007	-0.15105776	-0.3257204	-0.020996297	-0.32368985	0.13165633	0.03368071	0.29568344	-0.22343104	0.22564924	-0.08668991	-0.09315859	-0.08983023	-0.30442104	0.3435412	0.34291148
0.20902926	-0.072864376	-0.22728269	-0.09832953	-0.09352691	0.20709293	0.21364242	0.30934435	-0.26606366	0.3019522	-0.07067482	-0.12004918	-0.08763457	-0.2964265	0.21153532	0.28346053
-0.03292913	-0.099968694	0.16950879	-0.14189866	0.17822044	0.032136537	-0.037698265	-0.09186735	0.16984737	0.044841263	0.08061849	-0.053210333	-0.080866836	0.27998877	-0.2448046	-0.04891201
-0.2532983	-0.02226904	-0.044022143	0.048229404	-0.24392073	-0.12702179	-0.18294089	-0.076656	-0.020169104	0.01282554	-0.13267377	-0.13650012	0.0010201145	0.04541636	0.09762011	-0.11987822
0.25311244	0.5135707	-0.19526789	0.46864685	0.24147162	-0.06472293	0.08458562	0.12305656	-0.33861575	-0.22246732	0.14352694	0.3429374	0.5981302	-0.3109855	0.17679499	0.014959377
-0.08713287	-0.2727605	0.21529774	-0.1968372	0.16230614	-0.2519397	0.0061195884	-0.45177484	0.42693967	-0.32018733	0.042892423	0.22629155	-0.20860021	0.5978068	-0.28213665	-0.14529483
-0.61076796	-0.030950487	-0.11206037	0.22860564	-0.72652215	-0.38553894	-0.40901846	-0.20015419	-0.052921474	0.030820807	-0.2082282	-0.15716651	-0.13476071	0.01678518	0.49249917	-0.06545827
0.086379945	-0.18555544	0.1988656	-0.30851093	0.31744012	0.17027274	0.15428872	-0.05808906	0.21374074	0.05233371	0.062454063	-0.08499008	-0.17368004	0.29521617	-0.37350407	-0.04071937
0.77426356	0.79715294	-0.7725901	0.9198754	0.21899423	0.5707981	0.513268	0.89479804	-0.9567625	0.08868391	0.09907876	0.3531855	0.91106176	-1.1864324	0.74111533	0.7461381
-0.39821994	0.13129139	0.20682375	0.052856293	-0.34290746	-0.3422832	-0.36916226	-0.3093169	0.17117634	-0.16415814	-0.12424539	-0.12998322	-0.012656831	0.3399741	0.052133407	-0.27992952
0.08235713	-0.34463575	0.19196674	-0.56394166	0.1915211	0.41837052	0.17745455	0.16828805	0.2858358	0.38707128	0.049226128	-0.363439	-0.43580663	0.2767178	-0.41053566	0.04082847
-0.43762532	0.6379391	0.18255281	0.61882573	-0.024496414	-0.6175856	-0.45096704	-0.48037565	0.05332066	-0.5298762	-0.02186235	0.18434583	0.5579761	0.13937128	0.043103512	-0.5538971
0.22903247	0.012849255	0.008232167	-0.1009435	0.3299883	0.1673368	0.18090573	0.1561996	0.044841778	0.045998476	0.115780555	0.012343427	0.023009205	-0.03402348	-0.17258032	0.030015
0.15487531	-0.14836746	0.22297125	-0.18385714	0.56819975	-0.027424155	0.16586475	-0.20330441	0.33536208	-0.2722824	0.17321093	0.2329902	-0.10021496	0.45934257	-0.5034896	-0.04257215
-0.04026767	-0.069634415	-0.22188522	0.0013538098	-0.27085614	0.04117115	0.010953757	0.1681734	-0.12577163	0.19878344	-0.12748334	-0.10809681	-0.11363588	-0.1842222	0.3166842	0.2701808
-0.8141054	0.8269863	0.45099047	0.6006404	-0.21382104	-1.0297722	-0.8403098	-0.8857149	0.2562009	-0.768644	-0.021130646	0.19463378	0.59225535	0.7314132	-0.037859783	-0.9141771
-0.03277699	-0.11822	0.21835227	-0.2144335	0.18397602	-0.024833987	0.011601709	-0.09474589	0.28505877	0.03821252	0.011266623	-0.10493481	-0.14954598	0.31057677	-0.36410835	-0.15290979
-0.0039996007	-0.20248213	0.0038137925	-0.09462919	-0.08849553	-0.031199316	0.059951708	-0.032916013	0.0755594	0.0032065464	-0.06479302	0.08559336	-0.23811202	0.13561383	-0.007438503	0.070341215
-0.20670867	-0.15980348	-0.19917084	0.006697959	-0.5304428	-0.04388716	-0.12208565	0.06153839	-0.025023442	0.18689348	-0.16681263	-0.10235385	-0.26571846	-0.14087899	0.4686918	0.20874287
-0.091939785	-0.14680247	-0.13652019	0.03331776	-0.18361853	0.00901179	-0.015702993	0.023903629	0.06338899	0.040277276	-0.068420276	0.0073013655	-0.15957206	-0.033493035	0.1538152	0.06673619
-0.2611689	0.057163816	0.39339858	0.033005092	0.3271742	-0.45927742	-0.16593751	-0.55210567	0.4598739	-0.5074604	0.10670702	0.3101203	0.10138273	0.5737744	-0.41999575	-0.3904082
-0.4715776	-0.100966915	-0.4309006	0.26463243	-0.8493427	-0.30800757	-0.28957728	-0.12706679	-0.18025862	0.01828268	-0.2196886	-0.054936554	-0.1117155	-0.21255864	0.8067408	0.19009028
0.01980153	-0.23776494	0.228891	-0.19831452	0.20530142	-0.19359358	0.086142525	-0.2857244	0.36471197	-0.32878	0.029824154	0.26752424	-0.22490633	0.4876235	-0.3309028	-0.050663456
0.3555983	0.55813503	-0.52770656	0.6191999	0.04162394	0.2033284	0.20048787	0.48814738	-0.59992945	0.02111311	0.10689307	0.20581317	0.6529908	-0.7434206	0.53901637	0.31993893
-0.06662977	0.21890008	0.2377246	0.21234961	0.2638337	-0.34489816	-0.21837363	-0.29404452	0.1973663	-0.4220057	0.106127635	0.180666	0.20502535	0.27325132	-0.22504956	-0.31196705
-0.15899023	-0.083748154	-0.06501246	-0.0009416172	-0.16081856	-0.041501347	-0.016379742	-0.07799425	-0.01794111	-0.004343923	-0.041533083	-0.04806802	-0.013857932	0.04925637	0.15748356	0.009735455
-0.21230553	0.41501808	0.0068263146	0.2940383	-0.049163926	-0.1622886	-0.23505841	-0.0550588	-0.12584274	-0.11426769	-0.038398523	-0.102222644	0.33733568	-0.105882764	0.077303655	-0.18174541
-0.2177098	0.015447814	0.24929982	0.064881705	0.12927504	-0.37750214	-0.112712815	-0.38709223	0.3541391	-0.37860563	0.03587363	0.24391851	0.011629518	0.49018347	-0.24003394	-0.26737493
0.059708294	-0.22582142	0.13062125	-0.3160461	0.13380994	0.14612232	0.15015246	0.0072677745	0.19917013	0.004073606	-0.009243696	0.023649072	-0.27311325	0.19938731	-0.19123095	0.08301294
-0.2071953	-0.1314115	-0.31609726	0.17835009	-0.48583746	-0.1385042	0.00033507159	0.025378142	-0.057341624	-0.008257648	-0.11047247	0.02619093	-0.17036745	-0.13896677	0.46477494	0.20974587
0.16482727	-0.41330054	-0.11586769	-0.3573711	-0.07157894	0.42145047	0.31455883	0.3044162	0.009299064	0.45231602	-0.0028994	-0.20326784	-0.33450812	-0.1154105	-0.07209583	0.3632282
0.25025803	-0.21170291	-0.26179206	-0.11068287	0.06305344	0.48959678	0.34130916	0.4277958	-0.16081811	0.34197783	0.058401745	-0.17520839	-0.080713786	-0.32968104	0.0659289	0.4140767
0.27236187	-0.097646326	0.10148184	-0.15857127	0.3248264	0.22465883	0.19832377	0.14704292	0.0264641	0.07515067	0.11206607	0.046101373	-0.05679248	0.033641543	-0.27471578	0.17800993
-0.13391156	0.44868094	0.029302798	0.3089317	0.034263503	-0.23032463	-0.21919869	-0.08101743	-0.108805515	-0.13388418	0.04400343	0.028503317	0.38946941	-0.046908613	0.020187153	-0.2223109
-0.37713546	1.0119244	0.07663413	0.9675261	-0.17416766	-0.64390904	-0.61488956	-0.38905105	-0.26593274	-0.59051234	-0.07120416	0.21545452	0.9068909	-0.079825506	0.28769767	-0.62180895
-0.31209716	-0.10178758	-0.07302707	0.09433874	-0.41721243	-0.3260265	-0.19960523	-0.18579793	0.037261788	-0.12310069	-0.07498429	0.0058532907	-0.13769586	0.12989256	0.38123253	-0.054638065
-0.16079298	-0.067183025	0.0016224268	-0.0758342	-0.17834747	-0.12976943	-0.10734857	-0.15475488	0.094779074	-0.010479729	-0.08861865	-0.034394063	-0.17628607	0.14292508	0.09757734	-0.08809351
-0.3920116	0.23499988	0.070259996	0.18968399	-0.32471865	-0.408308	-0.38296703	-0.33605164	0.13113047	-0.22622845	-0.11439753	-0.028400656	0.15746474	0.23234348	0.14046848	-0.32284328
-0.18111937	0.19900908	0.07387959	0.14083119	-0.12231096	-0.21928786	-0.22435172	-0.12276633	-0.016027661	-0.14939839	-0.050346743	0.0020187064	0.1477223	0.025626536	0.032635584	-0.12494441
-0.0074206893	-0.115189224	0.14846765	-0.100618795	-0.004609147	-0.03048282	-0.027237844	-0.065517366	0.20436406	0.021601373	0.028157085	0.025960222	-0.09384784	0.16522251	-0.086776614	-0.049380023
1.1890187	1.104102	-1.0525655	1.2261341	0.5671308	0.84625673	0.70982796	1.3047265	-1.2498533	0.13787633	0.23466307	0.44292304	1.2763608	-1.5344529	0.877036	0.89755017
0.10379233	-0.2798174	0.28312322	-0.40487447	0.24912077	0.2985861	0.09732614	0.15906702	0.20095657	0.34192714	0.082082346	-0.37540102	-0.39365548	0.24916941	-0.4921954	-0.04688014
-0.18946287	0.1451042	0.029551856	0.033805996	-0.23437984	-0.08565596	-0.22339964	-0.05100235	0.017007768	0.017174358	-0.052981008	-0.122069225	0.05689475	0.03897691	0.14443934	-0.10900356
0.17000571	-0.7950947	0.8755743	-0.67451006	1.1382488	-0.34157968	0.4259807	-0.903255	1.0971979	-0.7368254	0.2567409	0.6345776	-0.6578494	1.4420786	-1.3311756	-0.3665416
-0.09456131	0.0664711	0.07781972	0.17058042	0.092082106	-0.2944205	-0.07773106	-0.2518552	0.114651375	-0.24567613	0.041730538	0.11519881	0.06974985	0.22421265	-0.037428502	-0.0944059
0.34573278	-0.22949477	0.3357749	-0.19613113	0.7025449	-0.05136958	0.39708704	-0.31200427	0.41376835	-0.41167876	0.1939552	0.43377152	-0.12073622	0.50771457	-0.63949585	-0.025537048
0.3152704	0.22689968	-0.6241811	0.40370375	-0.2625613	0.3095852	0.23988521	0.56519955	-0.59508383	0.18803225	-0.015390731	0.096804015	0.38883868	-0.7693397	0.595192	0.55661505
-0.16398694	-0.017726926	0.21242195	-0.13735813	0.05101832	-0.08885113	-0.11710697	-0.16375673	0.22016275	-0.09858373	-0.0047625247	-0.039302785	-0.08382231	0.2777241	-0.20762727	-0.22624674
0.18736784	0.2605595	-0.3571125	0.25842854	0.0021345029	0.19647624	0.12954518	0.37522116	-0.43545988	0.09008578	0.015566124	0.045220632	0.25682044	-0.54790735	0.2438433	0.19072212
-0.13173495	0.26589626	-0.06837293	0.28885067	-0.10587288	-0.165047	-0.14954819	-0.022976618	-0.10428694	-0.057470776	-0.068010755	0.016091084	0.21283191	-0.09637515	0.17427473	-0.15594263
0.17231672	-0.566251	0.70626915	-0.47956276	0.9544705	-0.2797712	0.31789201	-0.71163523	0.8695601	-0.6810945	0.19796468	0.47910604	-0.4183198	1.0833564	-1.1014272	-0.27268142
-0.3517267	0.33960557	0.30071104	0.17379542	-0.05268682	-0.3790678	-0.44398758	-0.384362	0.18790829	-0.22211953	0.003922499	-0.061549693	0.21335787	0.39887026	-0.13462996	-0.45779976
-0.027424188	-0.038214326	0.35873407	0.0010695413	0.41214725	-0.30285773	-0.051231187	-0.4901847	0.37481087	-0.49913722	0.14641243	0.3137739	0.078124784	0.5857148	-0.50116587	-0.29761317
0.080947675	-0.025578288	-0.23918244	0.16496557	-0.14209199	0.07439681	0.110133775	0.13120674	-0.17539012	0.07853768	-0.032542188	-0.02311063	0.06286997	-0.30786633	0.24368013	0.23821582
0.08181512	0.5720384	-0.37643158	0.68226796	-0.059061904	-0.16616899	-0.07973962	0.13036054	-0.50436604	-0.16404796	-0.016892651	0.19461362	0.65006804	-0.49963036	0.49671552	-0.0036884213
-0.04187012	-0.14112024	-0.014432505	0.006708138	-0.12118876	-0.03963692	-0.019473672	-0.051799417	0.06027478	0.050792344	-0.08231838	-0.022453545	-0.10178687	-0.008144662	0.18084826	0.13712144
-0.08989475	0.09919303	-0.252349	0.26033083	-0.2641221	-0.13917619	-0.03689336	0.025512325	-0.1132891	-0.01196471	-0.009193202	0.012280671	0.031080723	-0.2064052	0.35399047	0.10025001
-0.067316085	0.08605198	0.2735284	0.031123538	0.3179142	-0.24846469	-0.17339055	-0.32010606	0.15893878	-0.2799005	0.016687457	0.102939755	0.12748218	0.31305522	-0.4231181	-0.31383666
0.189362	-0.52850264	0.2964959	-0.6740326	0.27083355	0.5458287	0.30197972	0.33143988	0.36535212	0.5267093	0.07891795	-0.42008027	-0.5613452	0.24928196	-0.57267535	0.18149771
-0.004898608	-0.06576175	0.019975044	-0.017729359	0.13060112	0.057852928	0.02882943	-0.0019322847	0.013815427	-0.06205286	0.010836608	0.090508215	-0.039079215	0.08667259	-0.06220017	0.057455875
-0.11057337	-0.24561581	0.10389919	-0.22616938	-0.15724204	0.044247717	-0.060093444	-0.056996316	0.21932793	0.11639395	-0.05172247	-0.12596291	-0.31531563	0.2623983	-0.033327103	0.014938402
0.11870671	-0.5372844	0.65220934	-0.4110213	0.8989879	-0.39848635	0.3836108	-0.8229712	0.8595166	-0.7584004	0.2999636	0.55201155	-0.39939448	1.1205708	-0.9261655	-0.3045398
0.6497764	-0.5363392	0.099864654	-0.7397119	0.5172976	0.97557724	0.5599205	0.638739	0.16029437	0.5936731	0.15614404	-0.31847054	-0.48218507	-0.043139096	-0.5476351	0.39422968
-0.0777722	-0.053244583	0.06557441	-0.06104948	0.0119489245	-0.051018644	-0.0807097	-0.111181304	0.15430148	-0.092192754	-0.019207017	0.012465946	-0.14463821	0.19900931	-0.11132211	-0.08655757
0.047049336	0.21271326	-0.19757302	0.29386428	-0.039992236	-0.029095119	0.009522238	0.14210683	-0.18139803	-0.097119726	-0.03800849	0.16467844	0.21539187	-0.24135263	0.19789553	0.13623767
0.033106368	-0.07433476	-0.016043922	0.04007575	0.11267478	-0.019632595	0.111904874	-0.10452237	0.015247636	-0.12535064	0.087112084	0.14922231	0.018391982	0.10686094	-0.002368811	0.037703447
0.18948373	0.035872806	0.12715375	-0.018329566	0.42678115	0.059669897	0.13324302	-0.027723825	0.04878093	-0.20332196	0.104469456	0.20329504	0.11651316	0.05225809	-0.22248681	-0.011792029
0.07060291	-0.016360788	0.1933254	-0.19934684	0.44814596	0.14229552	0.015125765	-0.047237977	0.16812891	-0.031345144	0.09451474	-0.03626836	-0.026230823	0.18192792	-0.49226186	-0.1398117
-0.17945956	-0.10593986	-0.042683303	-0.0040001413	-0.303924	-0.15156047	-0.06129553	-0.100506134	0.05132266	0.0041669225	-0.074992396	-0.08656566	-0.19544281	0.07747272	0.13790351	-0.01203205
0.11977657	-0.016646223	-0.082526	-0.0044949255	0.16579072	0.08384516	0.16392133	0.04495863	0.0074607963	0.018106734	0.0054378076	0.0072150882	0.018441096	-0.03039243	-0.10946607	0.06944323
0.19322248	-0.40033245	0.3062762	-0.63173145	0.3351581	0.4120866	0.22058572	0.16359508	0.2898486	0.3760738	0.024778998	-0.31526157	-0.524846	0.35427672	-0.55850595	0.08410967
0.32685363	-0.011367409	-0.1872635	0.057568923	0.19875187	0.25715008	0.2947165	0.29436016	-0.12945062	0.0687172	0.08387107	0.100593716	0.14484671	-0.19654895	0.034929648	0.1992277
-0.073383264	-0.2408573	0.45090073	-0.12721848	0.44771928	-0.3108488	0.07183298	-0.4836877	0.48544058	-0.42386895	0.15453343	0.301814	-0.117556304	0.6453937	-0.605235	-0.34703836
-0.0980698	-0.60086966	0.79067713	-0.4573665	0.9609169	-0.5592896	0.1646371	-1.0425539	1.0787147	-0.80318415	0.22621001	0.61163104	-0.43415436	1.4123675	-1.1205139	-0.49235284
0.0056605022	-0.15862975	0.20222645	-0.25584763	0.2310332	0.07170117	0.018398559	-0.051392872	0.24145986	-0.004132012	0.047784735	0.012533286	-0.22931899	0.370757	-0.33703694	-0.107799426
-0.15319507	0.011379039	0.15149103	0.074779145	0.0045613884	-0.2655658	-0.10010582	-0.249107	0.13200973	-0.171646	-0.034556262	0.07220978	0.045354497	0.24421778	-0.07227262	-0.13535841
-0.070312425	-0.15455171	0.22325505	-0.20872009	0.061835647	0.06057841	0.01756321	-0.09924397	0.23750077	0.051677145	0.0035281521	-0.12985529	-0.19781797	0.29919863	-0.23773445	-0.15201299
-0.46008396	-0.26704523	-0.16350138	0.101398915	-0.6344055	-0.38297653	-0.20104313	-0.2899942	-0.0053850235	0.016567739	-0.1716789	-0.07273496	-0.2661092	-0.011385376	0.541772	0.108461544
-0.17392848	0.087165624	0.29673585	-0.10111856	0.10537964	-0.17972767	-0.16367197	-0.24109192	0.26278588	-0.12326989	0.039188202	-0.045299888	-0.07391252	0.41829246	-0.2872726	-0.301284
-0.25671846	-0.24493952	0.33029258	-0.087879136	0.15002336	-0.47511455	-0.050711513	-0.6437608	0.55187786	-0.55321866	0.051345814	0.3888554	-0.24427709	0.74769646	-0.31087703	-0.30856058
-0.24623996	0.005009516	0.04120846	0.0019769608	-0.24858111	-0.17479424	-0.18067183	-0.21683191	0.14075722	-0.063304454	-0.030532783	0.012139048	-0.06833719	0.2637752	0.05999485	-0.13891175
0.01011458	-0.09090022	-0.0032031275	0.027337793	-0.014040772	0.06537652	0.0009949965	0.021437297	0.017354777	0.017151741	-0.0118218595	0.017052276	0.0038565733	0.05809662	0.073457494	0.024437075
0.005086822	-0.43504283	0.3319629	-0.2921955	0.4286181	-0.24974544	0.19301748	-0.49438423	0.48068583	-0.3766615	0.1328054	0.35175064	-0.32643297	0.6999179	-0.45055288	-0.07080986
-0.17146395	-0.13219115	-0.21948549	0.07431592	-0.42880416	-0.10307321	-0.07774146	0.057166755	-0.076415576	0.04798562	-0.1304089	-0.022422548	-0.11022835	-0.13863014	0.40758258	0.16305026
-0.116920464	0.095647074	0.1996646	0.12244445	0.26731658	-0.26614547	-0.060491446	-0.29826978	0.18865739	-0.31903026	0.030547163	0.21831156	0.09127897	0.26872236	-0.27913415	-0.2423576
-0.060527183	-0.1846982	-0.00045433326	-0.18921188	-0.090915725	0.06178987	0.007901612	-0.05894634	0.08290938	0.122022726	-0.063291594	-0.03991926	-0.25134528	0.1921187	0.052180517	0.06619071
-0.14195319	-0.06313797	-0.21469425	0.1399688	-0.35056496	-0.0179412	-0.05729293	0.056696262	-0.114305854	0.007184928	-0.12609383	0.0055628824	-0.036667902	-0.14031644	0.31601518	0.1566944
0.85590315	0.7389085	-0.7147757	0.83243877	0.35697517	0.5615481	0.55658513	0.9206821	-0.9304324	-0.033078454	0.110252425	0.33523202	0.94819367	-1.0543242	0.5936677	0.60652393
0.06921174	0.13830498	0.0018462269	0.04977108	-0.011412866	0.00092347217	-0.018355371	0.09143545	-0.09600338	-0.015607967	0.021205043	0.014704549	0.13280432	-0.014936651	0.07133936	-0.021570858
0.14864622	-0.45847198	0.17131177	-0.50845546	0.12224324	0.45244595	0.2619141	0.21665923	0.21264102	0.44749975	0.0381128	-0.32366407	-0.42624697	0.14876944	-0.33454326	0.1547431
-0.1477721	0.46392232	-0.015718201	0.40728074	-0.01076473	-0.20110542	-0.30338156	-0.058270067	-0.1839703	-0.1197248	-0.0024070404	-0.0148008615	0.44523895	-0.1560444	0.10120043	-0.22947134
0.44911274	-0.58899397	-0.044218887	-0.57618445	0.33741215	0.74517506	0.4294088	0.5077454	0.05653085	0.6108142	0.06956563	-0.42914337	-0.52743036	-0.031139094	-0.3896271	0.39041805
-0.022445107	-0.047708865	0.35130617	-0.10194089	0.40316552	-0.101302125	0.058374505	-0.27566296	0.31065577	-0.3031981	0.14394276	0.21018426	-0.08772144	0.45698667	-0.4734123	-0.16991569
-0.014079636	0.05128008	0.24759848	-0.0722331	0.24745174	-0.084643036	-0.083842285	-0.20371798	0.19940703	-0.2056997	0.033046126	0.0967213	0.049926706	0.3056407	-0.23165455	-0.1692026
0.036915794	-0.26729771	0.13127738	-0.26762363	0.22883272	0.07721078	0.11128163	-0.026127947	0.25501615	0.06390858	0.05845531	0.034105323	-0.2544693	0.305704	-0.2977849	-0.037241373
-0.56834745	0.3102772	0.5212649	0.30084485	0.042207066	-0.75207806	-0.5255045	-0.8034782	0.407413	-0.61636376	0.030423455	0.208859	0.15941355	0.73872924	-0.2751054	-0.64126825
-0.29113805	0.17834382	-0.02398317	0.11839394	-0.30597034	-0.2865323	-0.29470018	-0.21574268	0.013992103	-0.035161868	-0.08320894	-0.09378626	0.087487854	0.06781936	0.29145682	-0.15969266
-0.23677908	-0.042290486	0.35700268	-0.10613847	0.12684079	-0.17778532	-0.17095727	-0.31620663	0.36134237	-0.19416706	-0.00953968	-0.0021448552	-0.13406591	0.5480879	-0.36082423	-0.2777082
-0.44276807	0.70122486	0.27682418	0.5664119	-0.17147925	-0.6858835	-0.54053986	-0.52020663	0.017768424	-0.51023895	-0.042700462	0.16163668	0.56588125	0.30697325	0.022944415	-0.61010927
-0.32000992	0.21785735	0.2287507	0.0769281	-0.121355094	-0.25836253	-0.2703815	-0.25401998	0.114041656	-0.115786746	-0.05418749	-0.08812744	0.14612715	0.25865802	-0.093689665	-0.30060858
0.048974343	-0.14652257	-0.15512033	-0.20034994	-0.119542755	0.24595855	0.08113732	0.20021638	-0.023476765	0.2031037	0.008792867	-0.15672427	-0.14330918	-0.14224698	0.099757634	0.12783253
-0.043978646	0.4727421	0.036565628	0.41436744	0.031843573	-0.29030463	-0.203149	-0.14480242	-0.16903828	-0.20528719	0.043183874	0.14652379	0.48809832	-0.08978952	0.0037208088	-0.31073081
0.28873402	-0.8035888	0.63089967	-0.6195192	0.94209373	-0.058823075	0.46907085	-0.6069032	0.9252937	-0.56072694	0.25683177	0.5438723	-0.613046	1.1740305	-1.0506198	-0.078057185
-0.21560793	-0.12975217	0.060739253	-0.13685006	-0.1189608	-0.03071028	-0.06798658	-0.15313223	0.13362098	-0.013214027	-0.07598744	-0.028164284	-0.14237869	0.19668876	-0.09784234	-0.06352063
-0.15667352	0.38155198	-0.6237022	0.7236876	-0.5810803	-0.21036223	-0.15473123	0.2562295	-0.5460499	-0.047402333	-0.11255739	0.106421195	0.4569489	-0.61504567	0.92365485	0.3250218
0.07589153	-0.13322395	-0.024883388	-0.069185965	0.04420809	0.05129853	0.0630098	-0.013805449	0.110961415	-0.04051483	0.03199247	0.0076855426	-0.09812478	0.083763555	-0.09233783	0.057877712
-0.12526254	-0.2080463	-0.110761404	-0.03451784	-0.31885785	0.06048881	0.013604732	0.057386644	0.06537491	0.15463312	-0.052379552	-0.059868857	-0.1551918	-0.09048604	0.22979008	0.18421644
0.4295411	-0.78264785	0.11681905	-0.88388497	0.39798513	0.86071587	0.49959216	0.60164225	0.23418991	0.67190295	0.089354716	-0.44805014	-0.8379406	0.1080883	-0.69061136	0.47827595
-0.8068443	-0.20456234	-0.56326145	0.328906	-1.1328988	-0.579094	-0.45315206	-0.26295412	-0.11346824	0.06411298	-0.31783712	-0.12574193	-0.28176612	-0.27557558	1.0685627	0.22540659
0.057179403	0.40492207	0.081803314	0.27461946	0.32391283	-0.13543734	-0.11189544	-0.13829577	0.0029085681	-0.2386345	0.056640502	0.20137066	0.38862526	0.0454157	-0.17260757	-0.17679346
-0.26142833	-0.02773614	0.22202803	0.033462074	-0.050064825	-0.21078049	-0.21677318	-0.2891807	0.2701477	-0.1734798	-0.05625687	-0.04300616	-0.002223367	0.33757505	-0.11243186	-0.20725393
0.1715905	-0.13374454	0.10051663	-0.017429885	0.28017253	0.110385925	0.1981925	0.024312776	0.08857865	-0.10739946	0.07960297	0.1199744	0.0025642524	0.14247596	-0.2516141	0.08066391
0.023879625	-0.09014654	0.059982955	-0.09990032	-0.04821886	0.11608617	0.05493185	0.044555917	0.035836425	0.114080064	-0.05173172	-0.05792482	-0.03065603	0.031695534	-0.012618038	0.06926201
-0.44700995	0.07836512	0.14409316	0.17996946	-0.23632976	-0.4862826	-0.30806622	-0.47380406	0.20785834	-0.27125165	-0.12060551	0.06299686	0.0007008535	0.3735423	0.13469113	-0.29680076
-0.23651165	0.22626272	0.07113315	0.13586254	-0.096710086	-0.2770318	-0.2390784	-0.24603158	0.022954294	-0.21173039	-0.028787473	-0.0062358524	0.174035	0.144489	-0.009901712	-0.24524483
-0.10921818	-0.20852482	-0.50332266	0.16745518	-0.63828903	0.040098563	0.033684634	0.23471811	-0.25447288	0.26436588	-0.20771836	-0.14946955	-0.19398916	-0.47003505	0.71228254	0.44342306
0.11485745	-0.4373679	0.06875875	-0.4839643	-0.030480111	0.45847127	0.21604589	0.28866258	0.18893547	0.43218794	-0.01850592	-0.37490904	-0.51958066	0.18037432	-0.22145043	0.2280464
0.027676675	0.07350927	-0.39237148	0.4177768	-0.22661246	-0.063448146	0.07988839	0.18661804	-0.25922364	-0.12297504	-0.02341277	0.17345774	0.22699262	-0.34317434	0.50162804	0.31755146
0.16619778	-0.57353157	0.4037952	-0.69514346	0.37259406	0.5289311	0.2751665	0.14451393	0.48315045	0.3915638	0.05500101	-0.34923443	-0.57454616	0.5720885	-0.67583805	4.4391658e-05
0.33198452	-0.64206934	0.26003838	-0.76996255	0.37442282	0.753833	0.39039886	0.4707891	0.3267798	0.5740372	0.068641804	-0.45880365	-0.64423937	0.17953639	-0.6236579	0.30361158
-0.41981384	-0.33789378	-0.5795202	0.17117903	-0.98043853	-0.12924173	-0.13764445	0.06395082	-0.28943458	0.31170222	-0.3474795	-0.13391775	-0.37089744	-0.4282199	0.97315776	0.42446363
0.06592453	-0.344802	0.26170677	-0.38959947	0.22366889	0.21610513	0.16882628	-0.030801533	0.25549716	0.15828663	-0.0060052094	-0.14439924	-0.33192345	0.40176424	-0.40729278	0.032589324
0.20278302	-0.06790252	0.048554234	-0.14702632	0.2376379	0.29081252	0.18151812	0.14953539	0.01882847	0.12950595	0.05405142	-0.044703584	-0.09703965	0.02561551	-0.17146188	0.11284163
0.25651294	-0.4061695	0.18747027	-0.5882057	0.41954207	0.4892313	0.3128506	0.23876897	0.2840983	0.38498715	0.1602185	-0.19829482	-0.3602116	0.2514523	-0.55083567	0.20030378
-0.030645436	-0.24371631	0.041190453	-0.23176542	-0.03149748	0.174167	0.041814383	0.14914677	0.11800611	0.1890349	0.035043333	-0.15103988	-0.30489713	0.10795569	-0.13195434	0.04134517
0.0014858611	0.003881293	0.03903323	0.065920606	0.13579507	-0.045270547	0.023620592	-0.04951892	0.09040319	-0.1830288	0.050416775	0.059650235	0.02753382	0.049403645	-0.038138498	-0.023582151
-0.5787692	0.752202	0.24747369	0.7374898	-0.2369093	-0.73100144	-0.66528004	-0.5134873	-0.013719182	-0.5265771	-0.12016691	0.16366212	0.7504389	0.24384128	0.20292136	-0.6368457
-0.008206951	-0.11184451	0.3037641	0.057621762	0.49205226	-0.2823825	0.095559195	-0.48394397	0.3720508	-0.58189285	0.18840039	0.43446836	0.0389946	0.5270547	-0.4486696	-0.20250888
0.16968592	-0.15853666	0.30470943	-0.07414596	0.5024024	-0.19535363	0.16169758	-0.33604735	0.3192755	-0.4422044	0.11610485	0.3164459	-0.020952404	0.50874084	-0.49413517	-0.14840056
0.2981936	0.0329469	0.14583196	0.086433426	0.6642221	-0.1480415	0.22243014	-0.25559565	0.19868024	-0.46620548	0.23903902	0.49743214	0.25078967	0.27224842	-0.43773156	-0.039464604
0.21743391	0.05756897	-0.056712493	-0.029136078	0.20884146	0.2200117	0.11086987	0.20683241	-0.03277612	0.13528337	0.08768574	-0.038016856	0.08295786	-0.07441508	-0.18259963	0.07380148
0.08414036	-0.09882523	0.21872307	-0.116043	0.34293568	-0.104524076	0.13467751	-0.216103	0.24507982	-0.25824207	0.087519005	0.23178442	-0.045243073	0.36019632	-0.35327154	-0.122063495
-0.10898164	-0.086631894	0.2438073	-0.16597444	0.15112133	-0.07112654	-0.06407722	-0.20976548	0.3266554	-0.12220625	0.017713705	0.004510588	-0.11019127	0.4125105	-0.38673294	-0.26189297
-0.23378336	0.0076265265	-0.09805214	0.1134056	-0.37454402	-0.21649058	-0.19613703	-0.17876382	0.0014501304	-0.014223718	-0.08028092	-0.02364241	-0.003091375	-0.031889018	0.37058234	0.054892585
-0.23515081	-0.06841513	0.0073264637	0.006315608	-0.26253548	-0.10117188	-0.07355081	-0.11564936	0.057406876	-0.056251306	-0.04425076	-0.020245805	-0.03631277	0.08325942	0.19348814	0.0015413475
0.2796701	-0.12018107	0.17573155	-0.22600119	0.37628275	0.22549464	0.23315266	0.07111162	0.12644339	-0.025032194	0.08174342	0.0019699647	-0.08830421	0.17558113	-0.38092497	0.048807945
-0.24922433	-0.08104158	0.34943548	0.020659832	0.15342236	-0.44364515	-0.14003047	-0.5103672	0.4830754	-0.368215	0.046142183	0.20350417	-0.06478075	0.59660715	-0.2438313	-0.28151727
-0.25570574	-0.338664	-0.056611784	-0.19050515	-0.3685616	0.020831117	-0.06751753	-0.051986434	0.166149	0.22173454	-0.062023066	-0.20660806	-0.3963762	0.09186064	0.21336998	0.10561336
0.07719832	0.2519892	-0.052750163	0.28541514	0.14355399	-0.06534181	0.030258512	-0.015732057	-0.11586056	-0.20650291	0.033323072	0.214189	0.31605187	-0.011277313	-0.046460543	-0.033740792
-0.3781507	0.81308717	0.2671408	0.6232396	0.011043818	-0.65452665	-0.576283	-0.4729188	-0.083190635	-0.54350805	0.0014988746	0.13973022	0.70873845	0.14176314	0.023571776	-0.6441582
-0.032023914	-0.36940956	0.07769401	-0.2990346	-0.06658423	0.1794025	0.057698783	0.10642476	0.14925203	0.1762303	0.032886796	-0.19859369	-0.37521183	0.13512766	-0.050212376	0.14864488
-0.2859335	-0.062997684	0.012775249	-0.0264876	-0.32676554	-0.14977926	-0.1436384	-0.088796586	0.04081056	0.040861823	-0.115119316	-0.15141271	-0.11017631	0.09852442	0.111635	-0.103359
-0.8468205	1.0863084	0.5852195	0.88672286	-0.29650897	-1.0327444	-0.9962986	-0.87145424	0.17235401	-0.83178663	-0.15484211	0.16967057	0.8528886	0.6663604	0.06554624	-1.021146
-0.36072877	-0.06654099	0.04338532	-0.031116212	-0.30500144	-0.22093506	-0.20232746	-0.30623415	0.16230896	-0.05855199	-0.057847876	-0.13143194	-0.13634582	0.31563535	0.13150673	-0.18435997
0.14264236	-0.18512942	0.107587315	-0.115470365	0.23673064	-0.021850973	0.18717876	-0.11991673	0.15182494	-0.17939396	0.049643118	0.21367475	-0.0837048	0.28885424	-0.17563112	0.044146102
-0.14919646	0.53229797	-0.03757889	0.53653437	-0.055024024	-0.2624	-0.15926258	-0.11065584	-0.16282801	-0.26233461	-0.030140297	0.0905782	0.50903773	-0.084296025	0.17097716	-0.13097905
0.03169033	-0.253538	-0.08599435	-0.1940563	-0.08326376	0.23825133	0.18509492	0.21098141	0.0520717	0.20717165	-0.012630968	-0.12170893	-0.24959521	-0.08298846	0.06403496	0.23610282
0.5766048	0.5485596	-0.47910434	0.52875423	0.19694617	0.44320586	0.31059915	0.6462672	-0.64537704	0.038887855	0.03868813	0.2037867	0.57952374	-0.753323	0.44159248	0.38716257
-0.26449457	0.24310428	0.15354466	0.1840472	-0.10035473	-0.37967953	-0.28705984	-0.35331506	0.069847435	-0.2777505	-0.019540671	0.052220266	0.19443141	0.1901757	0.017864378	-0.36512303
-0.0144141	0.12717812	-0.23925573	0.19486357	-0.22601706	0.024061201	-0.03241549	0.096090734	-0.23204823	0.060572118	-0.09324495	-0.060155183	0.09340481	-0.29988375	0.31629035	0.122961394
-0.026348203	-0.08819757	-0.19006261	0.026356682	-0.30419225	0.08147734	0.05542342	0.20979507	-0.21807227	0.10920394	-0.09559447	-0.023182973	-0.033869315	-0.29431894	0.31012514	0.26595274
0.29933897	0.14700231	0.0845121	0.023124034	0.44596168	0.23189272	0.24120733	0.1695745	-0.07651936	0.06585131	0.09478709	0.017674306	0.120136015	-0.097021915	-0.32506776	0.03731392
-0.87205076	0.8497156	0.4472564	0.74358225	-0.45924538	-0.9387505	-0.8254848	-0.80986226	0.16730401	-0.7389417	-0.11151832	0.16063572	0.6938049	0.55341977	0.17535217	-0.8029155
0.10558453	-0.09738652	-0.03538546	-0.07023515	0.07232321	0.054822322	0.15424246	-0.0049844068	0.06730883	0.03289538	0.0057037193	0.026603252	-0.093742274	0.016887298	-0.061229154	0.13531077
-0.624021	-0.2534751	-0.5628566	0.19362564	-0.9855532	-0.33056515	-0.3318502	-0.11803928	-0.2173173	0.1236293	-0.29100466	-0.06987933	-0.26824668	-0.30909902	0.9560362	0.3307322
-0.002138436	-0.45202735	0.41677216	-0.3761408	0.5192536	-0.20750085	0.25758278	-0.50136584	0.61815506	-0.3563778	0.1469125	0.3326921	-0.32584384	0.7077371	-0.5610435	-0.10401218
0.05756035	-0.41040045	0.054777194	-0.3328469	0.008114502	0.23800507	0.17498994	0.081457555	0.21310645	0.22656995	0.015206497	-0.17762008	-0.4296742	0.1346864	-0.124462046	0.13244589
0.25279653	0.087500826	-0.10355135	0.19365428	0.17685008	0.20928058	0.2098779	0.25203216	-0.14835705	-0.025985468	0.058288917	0.1876813	0.2252564	-0.23451047	0.10836551	0.17821158
-0.089225486	0.24158724	0.13038267	0.17234513	0.08932462	-0.21092892	-0.20313855	-0.12479951	0.014585144	-0.19083424	0.0018981346	-0.0039076004	0.22518606	0.06104431	-0.097701125	-0.20758453
-0.045317512	0.012318452	0.2190801	-0.121742845	0.14962685	-0.026160495	-0.037950307	-0.17620961	0.21947901	-0.030669445	0.07273174	-0.056022566	-0.044143356	0.23940794	-0.1554043	-0.093093805
0.1324339	0.18591483	-0.4903139	0.5297045	-0.42982426	0.078376696	0.04676295	0.32924238	-0.5179925	0.09160764	-0.0391006	0.12834683	0.287564	-0.64530134	0.68434113	0.40678754
0.090393834	-0.06139834	0.047995806	-0.11076637	0.05711158	0.07337226	0.058148026	0.00044542458	0.047982402	0.012473596	-0.022177735	-0.032321554	-0.10573017	0.08261452	-0.123607785	-0.029692411
-0.257224	0.7395322	0.2682945	0.67650646	0.2484548	-0.6337734	-0.35300234	-0.4250232	-0.03481994	-0.6010787	0.093318686	0.29793063	0.6628356	0.20264122	-0.13271531	-0.5123783
-0.4274512	-0.037079956	-0.358846	0.3120395	-0.8133441	-0.38937122	-0.25276667	-0.11099223	-0.14527154	0.039515536	-0.24832377	-0.028793626	-0.04546989	-0.2559243	0.79311746	0.15471841
-0.11968416	-0.35426334	0.007864073	-0.12961145	-0.15057552	-0.09844639	0.08959787	-0.13041037	0.16521871	-0.049397096	-0.043138962	-0.0069957105	-0.32317248	0.19416556	0.053079367	0.13634977
0.725035	-0.4542889	-0.026147582	-0.4513399	0.5070644	0.91992086	0.5943394	0.7225874	-0.08917633	0.5323827	0.087761566	-0.31121817	-0.33335975	-0.20576352	-0.34486043	0.59223884
0.4404125	0.4027449	-0.5670677	0.6725699	0.027341856	0.23181108	0.3541664	0.49805436	-0.6093781	-0.046992708	0.11868272	0.24376206	0.5286712	-0.75617534	0.5614488	0.4895246
-0.061520115	-0.16693732	0.21029375	-0.22643751	0.030784478	0.048519127	-0.051780876	-0.06766725	0.24757712	0.033246778	-0.03978188	-0.07918058	-0.21151115	0.27665773	-0.20213777	-0.02669134
-0.13994965	-0.043690234	0.22564195	-0.06405073	-0.0847235	-0.033821266	-0.20287111	-0.17489973	0.13947944	0.01050276	-0.08851546	-0.14891781	-0.15463807	0.26739582	-0.17111163	-0.15400302
-0.11986767	-0.16026686	-0.063142315	-0.118520975	-0.34425142	-0.059007615	-0.068184346	0.014644717	0.0070173256	0.06292402	-0.08725187	-0.061828483	-0.22562076	0.024504175	0.22337294	0.14080054
-0.30083907	0.65509725	0.10217441	0.62850183	-0.09989933	-0.50695854	-0.4411082	-0.31981084	-0.069170065	-0.45482448	0.014578558	0.1992002	0.59153384	0.054139614	0.118273295	-0.35191128
0.12068248	-0.3655788	0.20165806	-0.4941282	0.21841733	0.4112326	0.15672119	0.22516075	0.20334074	0.30950123	0.01774752	-0.2974542	-0.3297424	0.15523155	-0.44913808	0.056929905
0.067908354	-0.35997003	0.50305337	-0.31741717	0.58196026	-0.31501016	0.15940987	-0.62087363	0.6915643	-0.52009815	0.13371448	0.3594385	-0.23459244	0.8685896	-0.6960494	-0.2185817
-0.19624606	0.25763288	-0.2249423	0.3190946	-0.2738927	-0.16517122	-0.17658173	-0.0076294555	-0.1488327	-0.14257121	-0.021572178	0.029084891	0.24051148	-0.19383912	0.4490744	-0.050653107
0.0041757845	0.15235724	0.019671537	0.15885665	-0.024563788	-0.040021136	-0.088363305	0.011466488	-0.04816829	-0.0076729637	0.004728079	-0.00035499266	0.14296177	-0.07465631	0.08497054	-0.063481845
0.17625542	-0.13824344	0.12429768	-0.2108253	0.2992424	0.1059898	0.1267458	0.008243065	0.20590693	0.02950693	0.041656625	0.07904997	-0.11010545	0.18582553	-0.34963542	0.029193155
-0.5029796	0.5100978	0.30778888	0.41736236	-0.17974827	-0.6385115	-0.49841464	-0.62281215	0.1869577	-0.42034113	-0.022780905	0.043260764	0.33892483	0.41756955	-0.050571203	-0.6290493
0.03148169	0.35071662	-0.051468827	0.39693165	0.1000725	-0.17208861	-0.053692773	0.037102003	-0.18706241	-0.23294856	0.03799956	0.19315535	0.37290058	-0.1870357	0.114254	-0.027418077
0.91041505	0.84389675	-0.76318914	0.94817597	0.4251117	0.6426314	0.5249679	0.9847432	-0.9666539	-0.02578713	0.21739098	0.35774216	1.0083869	-1.1489322	0.63965493	0.69362044
-0.9593504	-0.1960504	-0.5533807	0.46546888	-1.3022741	-0.77865005	-0.60157686	-0.4094929	-0.14188313	-0.06191128	-0.46019298	-0.099170625	-0.3400182	-0.17782927	1.2527068	0.15013747
0.33789855	0.0072415834	-0.084235504	-0.095051445	0.22110453	0.31756613	0.28594735	0.33941367	-0.09034716	0.17503479	0.077485576	-0.0155650545	0.05017796	-0.17090422	-0.07152183	0.2268806
0.08310505	-0.075740315	-0.006233834	-0.14097245	0.14179933	0.16855845	0.06352354	0.039510597	0.11141366	0.09179151	0.026049968	-0.077651136	-0.16695578	0.09978147	-0.14906731	0.08361462
-0.32725653	0.056424893	0.15886857	-0.0011450154	-0.19172303	-0.24337961	-0.26319	-0.17260674	0.12608078	-0.0113078635	-0.051365897	-0.09291754	-0.030442426	0.2594777	0.017944707	-0.18696478
0.19484006	-0.49579966	0.2557993	-0.58899504	0.3681164	0.3588021	0.2768083	0.06507497	0.40732786	0.20585448	0.09347704	-0.07526747	-0.5419113	0.3832313	-0.5259077	0.09940173
0.1632958	0.15302429	-0.20212318	0.1536452	0.024902424	0.19707625	0.10720406	0.22073443	-0.22007775	0.04009651	0.05898321	0.06508376	0.25167143	-0.2646482	0.19687366	0.18737794
0.10769697	-0.52312005	-0.13058995	-0.30882463	-0.26871496	0.38707364	0.22454338	0.40227857	0.016432147	0.4758205	-0.08568625	-0.29243678	-0.46326983	-0.13968281	0.1955783	0.5112498
0.07057399	0.060096398	0.07867632	0.023339856	0.14978068	0.0988098	0.03962727	0.06628906	0.02471422	-0.032187846	0.059354175	0.034520175	0.13038145	0.05480414	-0.18908273	-0.050349336
-0.46195677	0.57749444	0.3099049	0.4134568	-0.20576242	-0.52735794	-0.5949881	-0.48017853	0.09522238	-0.4060426	-0.06518933	-0.03917711	0.37320712	0.31680274	-0.030459922	-0.52523136
0.2462939	-0.095181495	0.06562033	-0.118032545	0.39953572	0.14683855	0.12264601	0.06910693	0.07254215	0.08093185	0.13484898	0.027867706	-0.020920495	0.032498695	-0.32761076	0.072304934
-0.6121655	0.4513617	0.21053192	0.51316845	-0.35910025	-0.6565931	-0.5062065	-0.48882833	0.04766979	-0.3350754	-0.12086702	0.022235984	0.42761517	0.29913482	0.1451706	-0.45024607
0.03817157	-0.21965277	0.050210353	-0.18773572	0.016560247	0.09404475	0.0624448	0.026605261	0.085486025	0.1279756	-0.008448516	-0.107218936	-0.21795459	0.05618548	-0.097274974	0.06849863
-0.021774998	-0.3133225	0.036390617	-0.2809851	-0.20054117	0.15133888	0.06482593	0.14093526	0.07280093	0.35298252	-0.07151812	-0.30161226	-0.37291947	0.111956626	-0.024909275	0.14541087
0.055972442	0.15762712	0.0025396417	0.0067967353	-0.026627881	0.018555507	0.010262657	0.03642223	-0.13553873	0.053122398	-0.031280216	-0.13545151	0.077492416	-0.14581703	0.006905064	0.02250437
-0.02262616	0.10714784	0.2541972	-0.110862575	0.20268644	-0.026958311	-0.14224662	-0.14927189	0.14949904	-0.023293458	0.08275401	-0.043755148	0.042764954	0.27642867	-0.34658992	-0.27695578
-0.2642357	0.011645987	-0.011129131	0.12291195	-0.32446325	-0.21791661	-0.13823724	-0.11057103	0.020753969	-0.055110537	-0.034392804	-0.101013325	-0.067465514	0.09689178	0.2168283	-0.08465635
0.12320672	-0.060112517	-0.29852247	0.032078713	-0.21678698	0.22127247	0.11599921	0.32317695	-0.24148625	0.16801749	-0.028327556	-0.082514785	-0.036342382	-0.34011433	0.38520256	0.3495323
0.3980327	0.3427025	-0.39283717	0.3854185	0.2179459	0.32753766	0.2794564	0.45326856	-0.48682442	0.060154837	0.12416843	0.13484998	0.49154013	-0.5007847	0.226861	0.26277903
-0.5129228	-0.17024972	-0.32428464	0.24824598	-0.8165442	-0.32330438	-0.26768363	-0.18873563	-0.10748618	0.0046922774	-0.22824776	-0.061566915	-0.20850612	-0.14056051	0.6865909	0.16608231
-0.041364837	0.0036003832	0.059972163	0.0415617	0.15355399	-0.11596123	0.053290617	-0.15793358	0.14014764	-0.24022213	0.029866407	0.13514772	-0.03396027	0.28808007	-0.085025564	-0.08297599
0.24224304	-0.16010861	-0.053983923	-0.24854715	0.103155695	0.44334346	0.21317762	0.31047893	-0.11309868	0.29474634	0.048929792	-0.21263447	-0.15626968	-0.20496888	-0.0916751	0.2634326
0.28687173	-0.18751854	0.007019628	-0.17804514	0.3588062	0.3906436	0.31765223	0.19789495	0.030888794	0.10749341	0.06282409	-0.068314776	-0.14402705	0.020558108	-0.27735963	0.20248248
0.2012445	-0.21751033	0.1124579	-0.2563657	0.24609092	0.15303949	0.1312754	0.0018855715	0.22502404	0.021020921	0.09412965	-0.022022702	-0.27170753	0.16051129	-0.2999355	0.08751737
0.5611734	0.6009618	-0.51300997	0.68303573	0.19970149	0.3299191	0.24107945	0.6088522	-0.7313479	0.03336208	0.04846529	0.24388954	0.7389434	-0.8381175	0.54585516	0.44081116
0.2205743	-0.20531523	0.14082839	-0.32303745	0.1859244	0.42772293	0.16461329	0.28819162	0.03430559	0.31211284	0.06177967	-0.21396163	-0.24042161	-0.008402365	-0.36723986	0.13824196
-0.61337763	-0.22458817	-0.38983282	0.24194936	-0.9960446	-0.46182567	-0.29899284	-0.2396452	-0.12978537	0.08569738	-0.3053059	-0.10795101	-0.2898917	-0.1825955	0.89067835	0.2503895
0.42484558	-0.8344039	0.3091969	-1.0166807	0.5502603	0.9523602	0.56718487	0.47239783	0.44009012	0.71194214	0.11610654	-0.4812914	-0.89545584	0.37762767	-0.7624568	0.2889514
-0.18286262	-0.24487878	0.49752048	-0.18728258	0.53752345	-0.4771229	-0.0102805775	-0.7200962	0.6319873	-0.5923541	0.14816235	0.4146774	-0.21240142	0.9226548	-0.6918014	-0.43330717
-0.20409325	-0.14983042	0.0690683	-0.08955403	-0.11194641	-0.044102516	-0.10156828	-0.15148902	0.17515641	0.06132862	-0.030564854	-0.16060835	-0.14180948	0.23251118	-0.06850288	-0.066308394
-0.4889375	0.46546698	0.30332562	0.31995857	-0.17129762	-0.5447499	-0.48275685	-0.45561776	0.12721798	-0.33812696	-0.09720326	0.0028318046	0.35377365	0.3233747	-0.017137976	-0.5101735
-0.22893842	-0.24214432	-0.19527026	-0.09687655	-0.4595961	-0.06532777	-0.061285846	0.0052859164	0.021579653	0.12576075	-0.15636341	-0.11720937	-0.22711876	-0.028546853	0.35664874	0.16587457
0.10275672	-0.34571943	0.026443364	-0.23569496	0.060540333	0.2281551	0.23211826	0.04741661	0.15083402	0.08261813	-0.024465345	-0.0784336	-0.2968171	0.09888992	-0.081007525	0.15890718
0.07657618	-0.17583415	0.14463742	-0.22298011	0.20254743	0.0983774	0.016130796	-0.073958695	0.21908672	0.060117565	-0.010365951	-0.09766439	-0.16408777	0.20689031	-0.24681672	0.0033240034
0.055597793	-0.29494253	0.07205978	-0.329219	0.18437117	0.24326442	0.1470214	-0.00015224903	0.22300248	0.11989658	0.0561297	-0.070213795	-0.26359564	0.13277043	-0.25145704	0.049926475
0.40215042	0.38361737	-0.50658214	0.46443012	0.05014764	0.2957922	0.23442516	0.5038816	-0.526337	0.1321106	0.011889692	0.14248416	0.49443093	-0.71380526	0.4867083	0.40628952
-0.015142026	0.82418406	-0.08530088	0.7822029	-0.017598582	-0.31741667	-0.24421425	-0.014513919	-0.2785271	-0.39526245	0.0291653	0.22311823	0.7765083	-0.20458601	0.3415106	-0.2676045
0.0584409	-0.1623044	-0.042637926	-0.06639502	-0.09216308	0.025069522	0.101072185	0.030464904	0.037861835	0.07949238	-0.0051976033	-0.06246465	-0.087718636	-0.017037211	0.11527559	0.16283329
0.3678422	-0.62819636	0.2764794	-0.8375287	0.53857845	0.74321127	0.4231498	0.41645244	0.32997805	0.4607788	0.10543394	-0.31109604	-0.6055649	0.31995004	-0.6735691	0.23158146
-0.18825094	0.0097090015	-0.43872395	0.32711667	-0.5788766	-0.15475036	-0.09414759	0.15533729	-0.27995017	0.077785365	-0.111820914	-0.03448557	0.015782872	-0.47476032	0.7142887	0.2748032
-0.12667583	-0.008323278	-0.096136875	0.15270099	-0.22052152	-0.09648934	-0.016506296	-0.09108066	-0.047122035	-0.016809996	-0.084361404	0.11250282	-0.031550784	-0.053895727	0.21738863	0.11790095
-0.060198095	0.053343486	0.25361773	-0.029717278	0.22603664	-0.14190996	-0.044625815	-0.1740715	0.17359893	-0.1206178	0.00792309	0.07451809	0.033942953	0.26209402	-0.29858205	-0.19387457
-0.3064608	0.11253472	0.21157102	0.15376355	-0.08358483	-0.35255572	-0.25162634	-0.4303807	0.19582391	-0.30191943	0.02719495	0.12365433	0.13268135	0.32594505	-0.032092024	-0.3057803
-0.13611385	0.23540804	0.16424221	0.23007809	0.23597272	-0.36542764	-0.14049645	-0.33672005	0.14431694	-0.35852444	0.09428177	0.19815025	0.24232611	0.21626282	-0.1975421	-0.240823
-0.23037893	0.097657174	0.15081054	0.012797086	-0.0397499	-0.25255242	-0.19094533	-0.24566633	0.17671287	-0.12971756	-0.016094156	-0.005234913	-0.008787812	0.25994188	-0.0793134	-0.19962606
0.12320738	0.25156552	0.010247082	0.27293682	0.2727346	-0.15354156	0.035490975	-0.1663736	0.020417463	-0.3895473	0.05376396	0.39252803	0.22759564	0.07542134	-0.07117608	-0.078959525
-0.59292895	-0.22296233	-0.40154088	0.29147437	-0.8956805	-0.4696181	-0.37380734	-0.29593188	-0.12243533	0.01212483	-0.27634066	-0.12697566	-0.25903925	-0.12070126	0.88014054	0.09595819
-0.15089738	-0.08633661	0.20972653	-0.21604447	-0.08684393	0.010043179	-0.15050505	-0.08988452	0.21806665	0.100807466	-0.07504767	-0.19577777	-0.24072711	0.3037901	-0.13388732	-0.19556762
0.7616518	0.61336476	-0.5900253	0.6725086	0.28332424	0.5620439	0.46427947	0.726959	-0.76199883	0.03172284	0.09883067	0.3247156	0.757122	-0.91871053	0.47787395	0.5892945
0.014487449	-0.10270918	0.045081493	-0.14692453	0.031693924	0.04904961	0.037614226	-0.043773305	0.12418934	0.045891453	-0.046375863	-0.06987386	-0.19031917	0.14145531	-0.13680786	-0.022209892
0.18546362	-0.3968292	0.30348867	-0.35050553	0.5079825	0.10886991	0.2109103	-0.1956257	0.41282967	-0.18226446	0.16616863	0.16377021	-0.3599524	0.5333744	-0.5827616	-0.017403228
0.22037959	-0.026759192	0.0073489323	-0.094678655	0.24351107	0.22998711	0.12913004	0.24811327	-0.055284742	0.20200945	-0.0014103771	-0.14949833	0.014221729	-0.115543805	-0.13724063	0.16306004
-0.7064566	0.6958509	0.3501004	0.6499464	-0.21924974	-0.9547161	-0.8051918	-0.86692524	0.1925251	-0.6765764	-0.11582403	0.081604674	0.6120893	0.52254117	0.04456953	-0.8513695
0.15354839	-0.28071386	0.14530061	-0.5133416	0.16510595	0.32317305	0.13967578	0.1681712	0.191857	0.374161	-0.01758837	-0.34243456	-0.3570533	0.1243541	-0.49281198	0.05979184
0.33559084	-0.66449463	0.16791658	-0.7823628	0.3300716	0.6529538	0.46017766	0.37730408	0.30554616	0.4050064	0.054820474	-0.26456884	-0.6879506	0.23302455	-0.5624049	0.3932321
0.02254205	0.08328118	-0.022439908	-0.0018906211	-0.053004917	0.09128867	-0.0006347888	0.04868541	-0.039374348	0.04825569	0.046372954	-0.068571374	0.06657159	-0.07773208	0.015195717	0.020991266
-0.009841304	-0.20415048	0.15163672	-0.296701	0.10340678	0.17147225	0.010014461	0.009600465	0.15093292	0.17163807	0.026439572	-0.23878646	-0.24795975	0.16457519	-0.2848362	0.0042098565
0.19083291	0.042572033	0.048516855	0.003878535	0.25653318	0.0073909042	0.04187859	0.021755133	-0.012621886	-0.13838512	0.028756028	0.12176162	0.06950616	0.016155628	-0.2005525	-0.027256386
-0.0534082	-0.02292996	0.13750929	0.032940123	0.14053755	-0.08406096	-0.014043103	-0.16839394	0.170482	-0.15533568	0.031293705	0.13435827	0.0049924958	0.17133941	-0.14577287	-0.032383088
0.102024175	0.01246674	-0.001800767	0.12817861	0.16995996	-0.020701448	0.10261128	-0.079910465	0.06615283	-0.17748977	0.1035114	0.14910445	0.09711454	0.091651216	-0.03366714	0.041214872
-0.04030373	-0.32804623	-0.21475615	-0.2813862	-0.2842444	0.22546285	0.11467084	0.14785467	0.039266884	0.33114627	-0.07328572	-0.28332248	-0.4016534	-0.13131653	0.25932062	0.24725951
-0.43642792	-0.12579186	-0.21891652	0.20372203	-0.6730101	-0.24730615	-0.19872111	-0.0605099	-0.0767377	0.046739377	-0.22547685	-0.07382133	-0.12468141	-0.15928201	0.5674181	0.16679847
-0.47590172	0.40962243	0.061479256	0.42633924	-0.3083865	-0.6048087	-0.42009848	-0.4801699	0.06472038	-0.39065525	-0.086028494	0.059611503	0.2748482	0.1734514	0.14110117	-0.44540986
0.36542147	-0.15638989	-0.05186907	-0.15097585	0.41439587	0.32548755	0.3221135	0.23918296	-0.026649062	0.09353275	0.08209947	0.0023401561	-0.12612267	-0.09314339	-0.2089446	0.24550197
0.11611275	-0.24604468	-0.20253223	-0.114432044	-0.1485295	0.15856315	0.109295376	0.21781975	-0.0939046	0.2248591	-0.018179063	-0.1167335	-0.26727408	-0.168951	0.20168765	0.34493873
