-1.1105685	-0.00015996027	0.14866634	0.2788226	2.265917	0.061624028	0.4628113	-0.08148032	-0.51079094	0.20227113	-0.11380462	0.014204969	-0.011526831	0.12419807	-0.06452032	0.05148003
-0.32942578	0.10302556	0.05498617	0.74058187	0.952351	0.5769727	1.0553557	0.15062857	-0.34976292	-0.65475386	0.094204	-0.34254938	0.09433117	-0.23908745	0.15089492	0.22634228
-0.05583615	0.3080444	-0.43897486	0.064508684	-0.03086071	0.055582054	-0.0065032565	0.124762364	-0.35451204	0.092934385	-0.045272324	0.28102946	-0.4500984	0.42128715	0.030162828	-0.24126099
-0.27193335	-0.0006483483	0.075261265	-0.20907465	0.4497532	0.0040200055	-0.07320989	-0.25661963	-0.17573357	0.116473906	0.11449417	-0.12220689	-0.122652896	-0.028208455	0.0902991	-0.19962318
-0.7342791	0.23245454	-0.12545778	-0.7931968	0.29991472	-0.07213637	-0.41818032	-0.8833072	-0.63993585	0.103564	0.5918106	-0.14810355	-0.5352006	-0.03410859	0.7592794	-0.7949576
0.32461762	1.0375816	-1.3995419	-0.45388877	-0.34891552	-1.2727656	-1.0607785	0.7443851	-0.33789387	1.3180393	-1.2428929	1.3575811	-0.9839745	1.0612643	-0.3616802	-0.47887236
-0.014258887	-0.14084071	0.155035	0.1647601	0.1216311	0.07516006	0.1413844	0.14443278	0.19296348	-0.058234803	-0.06660417	-0.09075302	0.20118432	-0.07598822	-0.1199504	0.13945678
-0.06254908	0.0052394974	0.042991288	-0.8843461	0.04150548	-0.93756276	-1.1073507	-0.26425862	0.3258175	1.0351512	-0.2046284	0.29920614	0.027598944	-0.01971929	-0.12991698	-0.26181886
0.077524684	0.17096637	-0.20587479	-0.07744158	0.072895326	-0.40198874	-0.2592333	0.1982851	0.14981826	0.44264808	-0.3455821	0.3791329	-0.049815428	0.22094089	-0.22173545	0.07977225
0.8071786	-0.20182113	0.021438798	1.1740828	-0.042785067	0.06640972	0.5423798	1.3205127	0.5657078	0.0941666	-0.90735	0.507036	0.37339598	0.3326989	-1.1840708	0.9498204
0.2470969	0.07164338	-0.12758243	0.56062686	0.06380498	-0.02809131	0.330615	0.7023408	0.12999535	-0.011196883	-0.53443754	0.25874472	0.09563647	0.26416692	-0.49514222	0.3351042
-0.21704003	-0.06848422	0.17939468	-0.13035941	0.3322293	-0.10675473	0.016008578	-0.19371042	0.16291295	-0.007436958	0.014992008	-0.2282407	0.29558992	-0.301079	0.08773095	0.119525865
-0.7195519	0.033517294	0.13783161	-1.2526703	0.32048318	-0.35056743	-0.8514613	-1.0925034	-0.43129918	0.5018547	0.4222151	-0.10545717	-0.4112122	-0.096037135	0.61979455	-0.8868024
-0.36295897	0.008880339	0.10215452	0.1630935	0.30982918	0.39482272	0.51858616	-0.22384425	-0.46959126	-0.43133056	0.29996216	-0.33185148	-0.14452244	-0.02244674	0.2250265	-0.0879928
-0.74227136	-0.28876844	0.48441944	-0.049310584	0.53682244	0.8071479	0.67043877	-0.93405336	-0.6358325	-0.9533142	0.8720078	-0.9212793	-0.025737025	-0.6418088	0.8486443	-0.38316995
-0.6728581	-0.04063568	0.21581078	-0.30352196	0.49927703	0.30481353	0.108396895	-0.7461981	-0.49544653	-0.27365917	0.5832971	-0.4577489	-0.09650202	-0.29494148	0.6434063	-0.38111863
0.02928046	1.4169935	-1.7111628	-0.4777151	-0.41479704	-1.1065563	-1.0790988	0.6143117	-1.043158	1.342021	-1.0613948	1.6525372	-1.6674867	1.4679663	-0.17039901	-0.9016649
-0.388579	-0.07819645	0.19656624	0.03220049	0.3266788	0.39138806	0.35152677	-0.33379936	-0.46483967	-0.3302677	0.40230855	-0.35244325	-0.20412003	-0.023396675	0.3166415	-0.2533752
-0.24054906	0.15636152	-0.10789535	-0.06658384	0.11193716	0.15664567	0.14499123	-0.19664612	-0.4046462	-0.10737144	0.11433448	-0.02423089	-0.21264091	0.03568917	0.24626389	-0.18803884
-0.15017146	0.17439951	-0.0410085	-0.17721632	0.13182484	-0.082832	-0.0680942	-0.14084838	-0.14793025	0.006117301	0.07704326	0.031452905	-0.18943433	0.057426784	0.12019911	-0.18301861
-0.4073375	0.23125787	-0.16356702	-0.28686386	0.14947534	-0.011643176	-0.13214396	-0.34926626	-0.5377869	0.15668814	0.13141927	-0.0022786953	-0.47093213	0.12086852	0.27919838	-0.47322515
0.17187446	0.36754283	-0.4547683	-0.35782266	-0.073606476	-0.9060908	-0.6302422	0.27221963	0.29147443	0.83460504	-0.67472804	0.5554275	-0.118356474	0.25090912	-0.19256574	-0.06241898
0.30416194	-0.11365852	0.0422229	0.4819654	-0.024590714	0.063180484	0.31817046	0.44384226	0.3401914	-0.07428671	-0.24180213	0.100748815	0.2927675	-0.012535945	-0.3863818	0.41532055
-0.19233449	0.11622172	0.20978846	0.19133474	0.58294046	-0.14459758	0.54954195	0.046856485	0.5269107	-0.2516084	-0.1519735	-0.41715527	0.7842242	-0.62670505	0.044760842	0.560822
-0.030112538	-0.11851148	0.1690248	-0.010332797	0.092026874	0.074155875	0.16040018	-0.14575927	0.07653673	-0.11773731	0.1214869	-0.24601863	0.16452807	-0.19418377	0.035339348	0.10941823
-0.47627124	-0.08710277	0.17938301	-0.32624438	0.3168197	0.20880236	0.08361708	-0.5874663	-0.26662067	-0.23550244	0.43940645	-0.3460614	0.011695275	-0.20711616	0.424378	-0.2493825
-0.123727255	0.17896125	-0.12594461	-0.40626708	0.057797723	-0.36479658	-0.4551965	-0.21712294	-0.13414632	0.44321314	-0.04085981	0.16118479	-0.16187891	0.12208387	0.03506991	-0.21158339
-0.4055559	0.16903546	-0.19341874	-0.42057666	0.17005676	-0.06312157	-0.1551926	-0.50997686	-0.4257289	0.033724826	0.2812747	-0.09724123	-0.32924032	-0.049356546	0.51818186	-0.48389366
0.19334896	-0.9391505	1.3883445	0.95963734	0.8989912	0.5244429	1.542006	0.27607822	1.7082373	-1.2307364	-0.0888661	-1.4163681	2.236414	-1.7291801	-0.30721462	1.697239
-0.25543478	-0.10742081	0.11779949	-0.049877975	0.13250804	0.23656985	0.20418598	-0.3439526	-0.19625746	-0.29134235	0.3762179	-0.2808202	-0.02221885	-0.19883895	0.2862533	-0.104371175
-0.08589186	-0.04467843	0.14333424	-0.31460387	0.16089354	-0.21687753	-0.23629992	-0.19235688	0.07428188	0.26969784	0.016601706	0.008958442	0.060493	-0.0854161	0.0027093417	-0.048272125
0.5243543	-0.79019433	0.97922647	0.46930975	0.27296415	0.08522251	0.46213746	0.35147724	1.3956627	-0.3417111	-0.21924463	-0.5449077	1.3685563	-0.87426406	-0.5468454	1.0622996
-0.7019052	0.14569691	0.13849059	-0.9048627	0.40851006	0.06537783	-0.35251212	-0.8531505	-0.5743817	0.024699714	0.46160963	-0.22474936	-0.45344898	-0.036719106	0.5164597	-0.7438366
0.24897376	-0.143753	0.022892885	-0.12264517	-0.051848944	-0.31791177	-0.31294647	0.20885657	0.3239804	0.33729896	-0.24044932	0.18420032	0.12875345	0.02711625	-0.3620817	0.1822301
-0.14112417	-0.07737949	0.23390388	-0.24297822	0.19259956	-0.053271566	-0.15162075	-0.30287835	0.1010401	0.05611875	0.1302797	-0.1334156	0.1882415	-0.22977597	0.04932233	0.030893324
0.54710877	-0.0185299	-0.14388834	0.288065	-0.2329088	-0.18762097	-0.14330725	0.80880404	0.38885832	0.33415505	-0.58135045	0.4969948	0.050507754	0.3415847	-0.62052363	0.28223744
-0.8120414	1.9977506	-2.2045822	-1.80107	-0.19938302	-1.8250444	-2.0501008	-0.80629694	-1.8801491	1.9327757	-0.61938846	1.6249881	-2.324729	1.3512348	0.8855165	-1.9793764
-0.33759987	0.18899058	-0.078180514	-0.33396813	0.14559563	-0.06847237	-0.2460198	-0.39276078	-0.37971517	0.107340775	0.22587389	0.024520306	-0.3360856	0.07928834	0.35197842	-0.42113307
-0.14640976	0.02747562	0.12659219	-0.22392541	0.11802625	-0.06773239	-0.05523849	-0.2936089	0.06365711	-0.103200234	0.19499153	-0.19026425	0.11946155	-0.2558098	0.27447915	-0.051924784
-0.58712715	0.06870564	0.09164771	-0.13437852	0.27758253	0.51289237	0.27126268	-0.57901824	-0.7834622	-0.40192825	0.5605891	-0.37324578	-0.43559992	-0.084623404	0.6084347	-0.4918952
-0.33307227	-0.10961691	0.20851865	-0.12490153	0.22105572	0.27116013	0.11485296	-0.3930283	-0.29849568	-0.19776893	0.37579036	-0.3072132	-0.112153836	-0.18594126	0.31080228	-0.2069983
-0.2439855	-0.009425978	0.19151028	-0.1404028	0.2876611	0.037245706	0.1298856	-0.30019632	0.02071058	-0.07434337	0.08651797	-0.23330072	0.26194236	-0.27118024	0.16431414	0.06769983
-0.3710225	-0.046017926	0.15440783	0.051293395	0.16992724	0.5076173	0.28929093	-0.43143272	-0.4440738	-0.43575996	0.44359416	-0.3692695	-0.16367376	-0.10659753	0.36965528	-0.27363876
-0.36675465	-0.09049936	0.14682236	0.20897192	0.27107885	0.44619632	0.4209893	-0.17743863	-0.33171302	-0.43134895	0.30143517	-0.27479857	-0.10605003	-0.03517855	0.25441813	-0.07415372
-0.28165606	-0.1657145	0.24735245	0.015279232	0.1809049	0.35909772	0.23915164	-0.36671928	-0.20041364	-0.33230692	0.32749113	-0.35809848	0.014671973	-0.19922617	0.28528756	-0.06287545
-0.3280073	0.07798274	-0.06155127	-0.44988802	0.1312789	-0.27260745	-0.43363717	-0.40546015	-0.25916457	0.3190525	0.050823744	0.0800166	-0.16148995	0.012696848	0.25797698	-0.35474628
-0.31210092	-0.07654093	0.19851007	-0.17082043	0.22518565	0.3048291	0.13261831	-0.40188655	-0.3330666	-0.2469726	0.35338166	-0.29919246	-0.12360615	-0.07024766	0.30618027	-0.22949807
0.7378473	0.15506537	-0.46367073	0.66012114	-0.23683174	-0.39064944	-0.068061255	1.2550765	0.26275417	0.65311193	-1.0579652	0.9754395	-0.30242226	0.78979665	-1.1563166	0.5284869
0.9594378	0.010832562	-0.37655428	1.0226102	-0.40067855	-0.1461898	0.3331142	1.5392532	0.48311207	0.3893345	-0.9981638	0.8706931	-0.05048726	0.7047564	-1.2825967	0.7576283
0.3188568	0.20040487	-0.40432447	0.30558786	-0.14313951	-0.17863217	0.013803656	0.6254215	-0.025500432	0.21071102	-0.5204876	0.47591555	-0.26839718	0.45155874	-0.5092935	0.19781369
-0.3014322	0.44818574	-0.38589066	-0.5936716	-0.057931233	-0.41247764	-0.6680494	-0.32337144	-0.444375	0.54496795	-0.05832575	0.27827036	-0.5633969	0.3089887	0.252493	-0.6054194
-0.3741097	0.035672214	0.019804375	-0.5085441	0.13805209	-0.11370351	-0.30750394	-0.59246117	-0.27163342	0.13251878	0.32507744	-0.14202471	-0.22024213	-0.08059613	0.4253238	-0.43120506
-0.5356863	-0.11569657	0.30576664	-0.1288765	0.26093706	0.38596967	0.2899796	-0.6358955	-0.4853649	-0.43386245	0.5112434	-0.43992695	-0.20212492	-0.18369463	0.5264006	-0.35881746
-0.4332279	-0.24591357	0.3710685	-0.18542758	0.2320559	0.3678235	0.2374355	-0.52274317	-0.23877996	-0.45343497	0.5508166	-0.5229974	0.083126344	-0.32953393	0.386293	-0.18346873
-0.46459776	1.4361442	-1.5529246	-1.293358	-0.19143982	-1.3010038	-1.4905169	-0.46429202	-1.1402736	1.3549116	-0.5122507	1.056828	-1.4974077	0.92275506	0.5928641	-1.2846358
-0.27640226	0.06653066	-0.122729525	0.023009494	0.16852427	0.1635651	0.10102334	-0.22806785	-0.43049964	-0.14113559	0.16050981	-0.039013527	-0.37486216	0.07849781	0.18430476	-0.22647238
0.06225366	0.16690452	-0.17263828	-0.12058282	-0.10068384	-0.23044586	-0.29638273	-0.02159703	-0.04405897	0.2862624	-0.11264741	0.13056438	-0.097477674	0.13056242	-0.034379523	-0.12845401
0.40703145	-0.12319634	-0.01691997	0.7233923	0.009735584	0.18264638	0.4246466	0.7437943	0.25061962	-0.08589814	-0.45082125	0.26990652	0.13678277	0.20916103	-0.66208637	0.52492994
-0.5550211	1.5328513	-1.7703094	-1.2849946	-0.19917007	-1.3677422	-1.5473416	-0.42643204	-1.381887	1.545951	-0.5040932	1.2078838	-1.8857361	1.0998343	0.60174775	-1.4833959
-0.11974449	0.18067388	-0.20127136	-0.17551401	0.07014793	-0.2715473	-0.29688546	-0.01950741	-0.2619612	0.3189078	-0.14387542	0.24305707	-0.36519763	0.2842658	-0.04676687	-0.24638014
-1.1446937	-0.25261337	0.6036724	-0.4064457	0.542025	0.98485786	0.6190847	-1.3504285	-1.032968	-1.0484335	1.2187237	-1.0986735	-0.3167723	-0.5769555	1.1905415	-0.8431903
0.69449604	-0.8750657	1.1069651	0.8351574	0.2990105	0.40158707	0.88010854	0.7279681	1.5026829	-0.70163316	-0.3628401	-0.74400777	1.5284042	-0.9980624	-0.6926757	1.4196328
-0.31150073	-0.06256475	0.25780028	-0.7501064	0.21886393	-0.45848566	-0.7164811	-0.5103983	0.06320779	0.5069918	0.034311123	0.054357238	0.0016567371	-0.041683517	0.11925627	-0.30573484
-0.6641669	-0.21839583	0.5249463	0.059922975	0.5310534	0.62285817	0.6896738	-0.77292246	-0.2881985	-0.81127036	0.70230633	-0.91497546	0.25945997	-0.6131899	0.71095836	-0.09272477
-0.48037627	0.04203624	0.08512477	-0.24489753	0.21425942	0.23172243	0.07706769	-0.6804102	-0.42494926	-0.3328523	0.48711452	-0.38480383	-0.15726401	-0.22070238	0.5962049	-0.38699052
-1.0400416	0.23631848	-0.10839033	-0.6086428	0.35216004	0.5512596	0.10755522	-1.2053107	-1.4571986	-0.5422842	0.98339117	-0.50464344	-1.0346494	-0.05342147	1.2034436	-1.1837544
-0.24464379	-0.18035999	0.20788911	-0.11225948	0.12010001	0.17342907	0.12078992	-0.30315483	-0.14366901	-0.2264529	0.27084586	-0.30155736	0.060140893	-0.15299137	0.18596573	-0.056656636
0.8603965	0.10808012	-0.54693675	0.7582742	-0.34850848	-0.27353194	0.019532727	1.4790016	0.31670633	0.64292717	-1.1617913	1.0335385	-0.3396916	0.966404	-1.263831	0.6009276
0.23822653	-0.22609359	0.28796408	0.11970467	0.118451685	-0.20344947	0.013023183	0.3615167	0.67551494	0.21645734	-0.33844522	-0.034527745	0.519504	-0.188558	-0.42458045	0.4394353
-0.0016294349	0.24468365	-0.27841204	0.14981484	-0.015099034	-0.03186624	0.093897164	0.13118593	-0.31741127	0.11547253	-0.13875642	0.20158654	-0.39842206	0.3589918	-0.10115247	-0.11796162
-0.20870402	0.49946216	-0.55721354	-0.3461699	-0.09019247	-0.4711343	-0.47336397	-0.09685398	-0.4474012	0.540145	-0.22050893	0.5092742	-0.60760456	0.44472203	0.1302009	-0.51655495
-0.5399822	-0.18186808	0.431889	-0.22860572	0.42613375	0.34076166	0.2488592	-0.72540396	-0.31824133	-0.4540842	0.52736634	-0.5975255	0.115059376	-0.4663158	0.5183863	-0.31383958
-0.23934737	0.13763598	-0.12477218	-0.045675606	0.08034617	-0.03897669	-0.049067408	-0.13833627	-0.27582914	0.029056087	0.0008119793	0.08359688	-0.26329795	0.13521375	0.11402679	-0.12824783
-0.29002053	0.093590684	0.076424696	-0.19511333	0.24403828	-0.14947377	-0.06664054	-0.28120562	0.0016806226	0.04464052	0.021879002	-0.13493115	0.1939375	-0.19873774	0.17831497	-0.0138112465
0.13699377	0.43016183	-0.5536566	-0.1906207	-0.18502833	-0.4492337	-0.3844667	0.16212246	-0.23584142	0.47857803	-0.3622503	0.49554867	-0.3944131	0.31993875	-0.10021636	-0.23897555
-0.24356219	-0.11549352	0.10711424	0.048173346	0.17514513	0.22939163	0.20186444	-0.20857443	-0.19693829	-0.1681018	0.1761232	-0.11388353	-0.1326074	-0.044817764	0.09981673	-0.07491257
0.14338508	0.15142517	-0.23109642	-0.013390396	-0.0816113	-0.2864183	-0.14121398	0.26549566	0.11919223	0.25731868	-0.27576318	0.27078515	-0.09176423	0.17259574	-0.1738462	0.109126374
0.00019915181	-0.02106095	-0.019982688	-0.68231004	0.0230951	-0.6153518	-0.8178652	-0.19412564	0.22466068	0.7749323	-0.14593233	0.2365134	-0.028561426	0.07638921	-0.13076472	-0.2566515
-0.68717754	1.2074181	-1.3635279	-1.1409038	0.04867209	-1.0694952	-1.2989045	-0.7627135	-1.2259164	1.1351938	-0.15108356	0.75440025	-1.4159662	0.6878912	0.7876155	-1.2824674
-0.39658937	-0.16066714	0.21959877	-0.26136422	0.2000417	0.24764334	0.098950155	-0.597366	-0.3025167	-0.25247976	0.5209314	-0.41638193	-0.019490225	-0.24473512	0.5326729	-0.28243685
-0.56708544	-0.29908255	0.5362411	0.024353553	0.4325131	0.6839453	0.6593093	-0.696247	-0.30626622	-0.73644465	0.68943375	-0.75773066	0.10939554	-0.5265422	0.6043125	-0.16335814
-0.1606119	0.97374946	-1.1527535	-0.52542293	-0.19738406	-0.82961	-0.86250675	0.09383552	-0.77461064	0.9568003	-0.56001544	0.8736411	-1.1170299	0.81771874	0.15550502	-0.7386728
0.26682204	0.10069996	-0.30771145	0.46390307	-0.06933081	0.036211457	0.2368453	0.5882439	-0.064411834	0.02150986	-0.32968792	0.3562735	-0.18673104	0.4306119	-0.43123758	0.250223
-0.26096004	-0.035624202	0.130221	0.0027661843	0.12134582	0.24124607	0.19986846	-0.28714487	-0.26239583	-0.23400496	0.22648203	-0.16845337	-0.06443065	-0.04340359	0.26723245	-0.21348435
0.2875862	0.126166	-0.20725255	0.016414575	-0.14467701	-0.3665911	-0.28219908	0.44448364	0.1699788	0.5416068	-0.47035864	0.4567443	-0.115253165	0.3580826	-0.45690948	0.043103945
-0.06648783	0.34033933	-0.406336	0.039708197	-0.06097229	-0.10373356	-0.09977816	0.18823743	-0.3503483	0.21725383	-0.15511191	0.31416452	-0.436377	0.36336884	-0.0909313	-0.16633824
0.053480607	-0.21035528	0.2897683	-0.83447236	0.09070199	-0.8707125	-1.0859712	-0.26457778	0.52640265	1.0899571	-0.19128844	0.32026574	0.23802735	-0.05477033	-0.24398668	-0.06753662
-0.3035325	0.11100823	-0.018768296	-0.24542548	0.14679326	0.010287406	-0.034571268	-0.39399937	-0.18577436	-0.091170006	0.20560303	-0.1775318	-0.03164363	-0.21978158	0.47953722	-0.17419624
-0.15547182	-0.12935759	0.095938936	0.14108022	0.07360297	0.24938689	0.22643968	-0.048554983	-0.24483384	-0.20671362	0.13243377	-0.13104707	-0.1794038	0.047858343	-0.010824874	-0.08476339
0.52398336	0.20602159	-0.38312623	0.48000747	-0.22434963	-0.25692317	0.082711816	0.9315148	0.25645933	0.3138393	-0.7525055	0.606612	-0.09155531	0.40600654	-0.7145578	0.42036703
-0.0010685419	-0.06724902	0.054276384	-0.39279178	-0.023783553	-0.29448903	-0.48722118	-0.16156055	0.11002533	0.4319451	-0.050043818	0.08168425	0.04822561	0.041884817	-0.02364541	-0.14266203
-0.6034285	-0.06671219	0.19298358	-0.62358433	0.27531883	0.09976498	-0.28142476	-0.8215945	-0.4738214	-0.0065076924	0.46290413	-0.2991944	-0.255165	-0.05673058	0.51028824	-0.6648847
-0.15798111	0.0028106968	-0.019373517	-0.20008181	0.058852553	-0.03147531	-0.16547257	-0.12556104	-0.09863245	0.117109604	0.0566453	0.029542767	-0.108315006	0.038222924	0.09223847	-0.11267341
0.39782488	-0.65831995	0.7827557	0.41007864	0.15683898	0.13310197	0.42908326	0.36272976	1.0459054	-0.27158186	-0.15604788	-0.40892962	1.0558534	-0.59550846	-0.43534917	0.8720501
0.16301292	0.28813118	-0.4216255	0.018823398	-0.09356164	-0.28523365	-0.24909271	0.37109715	-0.16327128	0.33947825	-0.34042475	0.4268181	-0.40536752	0.44468877	-0.23250881	-0.09483465
-0.38268587	0.6856434	-0.7368054	-0.54388946	0.009297194	-0.49817574	-0.6044878	-0.42771602	-0.5842271	0.4745923	-0.016022135	0.3719058	-0.661963	0.31738713	0.44280118	-0.5867137
-0.22944738	-0.120805904	0.14030473	-0.12781358	0.12063113	0.15974496	0.06954089	-0.3326336	-0.23756894	-0.12959792	0.25546008	-0.18239513	-0.039598692	-0.10914025	0.23002273	-0.1344708
-0.22738922	-0.14379852	0.203357	0.02204825	0.19124156	0.2035197	0.257185	-0.24146484	-0.108929396	-0.2251212	0.23443092	-0.24973133	0.12205633	-0.14663757	0.20997424	-0.04927517
-0.19379087	0.24662225	-0.17754236	-0.28269055	0.030796373	-0.23015404	-0.25368938	-0.17669253	-0.21329984	0.27281997	0.021383936	0.085430086	-0.18661131	0.11646884	0.1691604	-0.24885586
-0.25974333	1.0493921	-1.1196883	-0.6487019	-0.15442131	-0.9765625	-0.93198985	-0.06870672	-0.77986157	1.0020844	-0.4462664	0.86791104	-1.1560524	0.7703172	0.25610244	-0.84782916
-0.48903096	-0.2176203	0.43601125	-0.023627646	0.326195	0.6083068	0.45423922	-0.6891749	-0.34293744	-0.73510027	0.6550048	-0.73125273	0.07703969	-0.41315365	0.57129496	-0.26306105
-0.1311656	0.04653632	-0.14177881	-0.018231768	0.10073827	0.054185458	0.005317361	-0.022755492	-0.2109187	0.04893043	0.019188467	0.07279285	-0.22754247	0.08870599	0.047548003	-0.17475791
-0.10537772	-0.0046084933	0.01835571	-0.01802651	0.08391233	0.10149595	0.065869704	-0.043255724	-0.10711513	0.003599695	0.013619861	-0.060545374	-0.1276871	0.028353216	0.063056566	-0.08223707
-0.16023724	-0.026193721	0.026107408	-0.11067317	0.15139559	0.06948652	-0.028019816	-0.3274221	-0.17954302	-0.05044021	0.16560008	-0.1574979	-0.13496716	-0.075380184	0.1779621	-0.12726517
0.69528586	0.14638948	-0.61966836	0.98372287	-0.26084775	0.13112776	0.54384977	1.4067434	-0.008050374	0.18049772	-0.95422155	0.9063386	-0.42650685	0.85864717	-1.0468574	0.59391534
0.36774838	0.12182297	-0.2932457	0.6889822	-0.103916615	-0.0013794922	0.34266785	0.8123596	0.058305867	0.09588101	-0.54682326	0.38299954	-0.08738043	0.33705142	-0.6218092	0.34633398
0.0057757376	-0.5253516	0.69219923	-0.604764	0.1985645	-0.3523169	-0.5601636	-0.3445	0.54362714	0.56197554	0.16963816	-0.22847383	0.48779494	-0.3037132	-0.14566413	0.1301325
-0.27120566	0.12111838	0.005667652	-0.105924584	0.13912359	0.028566906	0.103188284	-0.3896874	-0.20951886	-0.18631278	0.18032277	-0.18803078	-0.010030165	-0.12873957	0.35150376	-0.1348873
0.62384856	0.27124107	-0.7927366	1.014903	-0.22468689	0.19815457	0.55050194	1.4579767	-0.14504252	0.13168108	-0.9559858	1.0026507	-0.6476128	0.9955828	-0.9742379	0.5458289
0.009537288	-0.10005577	0.16215803	-0.46294618	0.04237682	-0.4443717	-0.56314194	-0.25121465	0.2950657	0.49519807	-0.010556906	0.0843299	0.13031246	-0.03522176	-0.044635165	-0.025630431
-0.633868	0.14674348	0.07026541	-0.3377151	0.29826593	0.34248242	0.102556124	-0.7520261	-0.82997197	-0.39264768	0.60610336	-0.4187623	-0.42335206	-0.12600574	0.74714386	-0.6621274
0.07475182	0.2743868	-0.35962418	0.033830233	-0.11548796	-0.18796611	-0.2517595	0.2726198	-0.20489933	0.4168701	-0.34193954	0.4257132	-0.4634279	0.40865713	-0.25913745	-0.14406005
0.30939618	-0.04555696	0.018754734	0.32090163	-0.035979494	0.061908953	0.23064579	0.42022085	0.25654837	-0.11507584	-0.22624293	0.030249022	0.23517846	-0.050564423	-0.24242489	0.33360207
-0.21767117	0.08268163	-0.055801235	0.13873382	0.015953176	0.3195439	0.28300354	-0.1502456	-0.41010427	-0.3156914	0.18433583	-0.098070234	-0.27132905	0.1030039	0.27738798	-0.21815881
0.28838807	0.138702	-0.26779264	0.45309272	-0.06194361	0.090303496	0.22555882	0.6162865	-0.12526783	0.047854967	-0.31557235	0.40213695	-0.2804343	0.44823763	-0.36797297	0.11976778
-0.5834675	0.5644844	-0.5256826	-0.8513082	0.04510503	-0.39775494	-0.6206043	-0.76790226	-0.7772005	0.35669178	0.3094411	0.19666529	-0.7993327	0.21507722	0.78238535	-0.8887413
-0.41054904	-0.011333801	0.061846264	-0.19858786	0.20572136	0.3010372	0.12904856	-0.5652245	-0.52968866	-0.27441838	0.47828197	-0.27415204	-0.23183422	-0.105351314	0.49911922	-0.4123492
0.27035663	-0.040910553	0.003905166	0.36114854	-0.0061198184	0.08910314	0.18946818	0.42150447	0.22095703	-0.059210017	-0.19017443	0.1261521	0.07108499	0.08737821	-0.30983198	0.26843143
-0.0029175975	-0.021256968	-0.059805684	-0.25847217	-0.0041539036	-0.3318073	-0.46497095	-0.006544975	0.05857596	0.4288333	-0.11154362	0.22506452	-0.028288722	0.14030503	-0.1575067	-0.116848655
0.03734992	-0.23727219	0.32621747	0.27995473	0.19169408	0.10584475	0.41981122	0.07095594	0.535855	-0.24737713	-0.08713881	-0.2750836	0.6707258	-0.43439007	-0.11915184	0.47528854
0.25312608	0.29527733	-0.48829532	0.48096716	-0.26570848	-0.012537503	0.12684369	0.68043	-0.30456558	0.13506	-0.44783238	0.52193713	-0.5423847	0.5509965	-0.38013878	0.0702508
-0.09976087	0.15943868	-0.1886587	-0.22113913	0.015851721	-0.20680295	-0.28701848	-0.1085236	-0.2793288	0.24946836	-0.030301357	0.19093339	-0.29186243	0.21394293	0.07672205	-0.25471658
0.24461195	-0.23807742	0.24985714	-0.43823233	0.044094477	-0.60860395	-0.65226686	0.011042427	0.6069765	0.72512895	-0.27502403	0.16062105	0.34972593	-0.03270637	-0.46567822	0.20604974
-0.38177788	0.33314806	-0.30774978	-0.39727908	0.008968536	-0.18139836	-0.22637512	-0.45778957	-0.45537388	0.15358151	0.1813762	0.07551551	-0.38570312	0.11304861	0.38786608	-0.48701546
0.0581265	0.029551862	-0.07555418	-0.18036853	-0.047054283	-0.22785062	-0.32261342	0.02865482	0.033566125	0.2954552	-0.08095264	0.2190083	-0.15321817	0.1385461	-0.084591255	-0.046433277
0.13568613	0.21253435	-0.31965923	-0.050146304	-0.11113432	-0.26369163	-0.21802403	0.30676213	-0.063882805	0.43825185	-0.33427715	0.44395936	-0.25972682	0.43601894	-0.25562668	-0.04284578
-0.10865647	-0.20536022	0.28535596	-0.57871586	0.09292354	-0.43839487	-0.57171106	-0.3788952	0.32086152	0.5309468	-0.0017647846	0.014904325	0.3121618	-0.17513555	-0.095442235	-0.016601168
0.29436505	-0.34622967	0.27069026	0.1354444	0.049089666	0.01253859	0.0401244	0.32876197	0.49854246	0.058135316	-0.17036499	-0.030914763	0.41788638	-0.058130592	-0.41170686	0.44366312
0.33889776	-0.08775161	0.09706314	0.07765186	-0.08863523	-0.19695339	-0.10847221	0.44016728	0.46038625	0.24086586	-0.3545194	0.21609281	0.32216403	0.057784874	-0.4120644	0.3205736
-0.11294721	-0.17398478	0.2847951	-0.098105535	0.14809981	0.10761828	0.19242834	-0.3049717	0.049134314	-0.20599765	0.24830371	-0.32463112	0.23786023	-0.3166261	0.19794643	0.046081547
0.4405142	-0.07103974	-0.06401951	0.48069853	-0.08276696	-0.09286267	0.10941672	0.71992236	0.37015334	0.22178885	-0.530594	0.3540705	0.036872026	0.27954668	-0.71228755	0.51913863
0.0018157024	-0.49399024	0.6135689	-0.66418594	0.16697267	-0.52719283	-0.6909402	-0.35775107	0.6535196	0.6930309	-0.014108956	-0.052465007	0.52454937	-0.30783215	-0.2591444	0.1514895
-0.1042028	0.032144338	-0.042539127	-0.63655806	0.063053936	-0.58290637	-0.787058	-0.30354694	0.08116538	0.7120912	-0.0077646486	0.15359165	-0.025320098	-0.013732973	0.024684032	-0.2803827
-0.09066302	0.30801174	-0.4607289	0.0143545065	-0.0042521222	-0.11546499	-0.09149841	0.21050504	-0.38056555	0.20321733	-0.2762423	0.43450016	-0.5176796	0.36468855	-0.028057849	-0.19883272
0.40745687	-0.47988686	0.48291975	0.4600759	0.0847903	0.22542611	0.46506914	0.41086912	0.782537	-0.27044395	-0.103154995	-0.34986538	0.795075	-0.4733427	-0.39145836	0.69755
0.012783208	-0.1795864	0.28253704	0.11148518	0.07165219	0.2139089	0.25679597	-0.022012655	0.16343193	-0.22108808	0.11086202	-0.23795682	0.3134992	-0.2831419	0.0039370926	0.17556915
0.37625965	0.22762051	-0.4793521	0.3953324	-0.15040475	-0.2621449	0.004013348	0.79197955	0.047790904	0.42414305	-0.67077005	0.63260937	-0.24265353	0.5636538	-0.61758095	0.25090283
-0.0620044	0.23526554	-0.30007836	-0.34460348	-0.04686085	-0.34590435	-0.5421598	0.038116608	-0.19090332	0.5545936	-0.12925763	0.39208868	-0.3360887	0.2467218	-0.04173	-0.34801185
-0.23564774	-0.07761181	0.17082267	-0.15411286	0.19741125	0.07427229	-0.05009908	-0.3618704	-0.05166066	-0.040906053	0.15161149	-0.22987443	0.12747845	-0.20048042	0.16060981	-0.09714936
0.035513	0.02167305	-0.13373144	-0.15291126	-0.053781815	-0.3018462	-0.31377855	0.016087633	0.09687301	0.31155196	-0.1091907	0.13801844	-0.056059048	0.11881628	-0.07915797	-0.07264132
-0.52975065	0.13431387	-0.009241938	-0.20920774	0.15938286	0.3063344	0.13833158	-0.6235113	-0.6329359	-0.30259213	0.5010286	-0.2589861	-0.3961576	-0.07100181	0.5270562	-0.49992105
-0.7682645	0.48738533	-0.3474347	-0.66065174	0.08439537	0.096137114	-0.28997418	-1.0114939	-1.1821612	-0.031739138	0.53793496	-0.049300324	-0.8949662	0.11849099	0.92776453	-1.1158075
-0.10204981	0.19161619	-0.19176154	-0.059817683	-0.04255482	0.020119559	-0.0642483	-0.030184574	-0.43669888	0.09418697	-0.0049016224	0.1555076	-0.43044686	0.3071563	0.058410235	-0.26569593
-0.1045708	0.12360626	-0.11775457	-0.1883715	0.0019639605	-0.14546697	-0.14004329	-0.16737315	-0.18206906	0.10062193	0.047096822	0.062188804	-0.09481864	0.0385519	0.17644586	-0.1413208
-0.1261874	0.08850355	-0.103674516	-0.053672936	-0.008401477	0.11135742	0.070620045	-0.096045576	-0.21777205	-0.09629299	0.09682872	0.025448384	-0.14619091	0.098545216	0.09177601	-0.14107598
-0.18653089	-0.30421397	0.44667828	0.26339063	0.17250453	0.58524483	0.6105454	-0.15574424	0.020832507	-0.62942797	0.3754336	-0.4460784	0.23771761	-0.31171453	0.18263958	0.116537094
0.114323184	0.09817448	-0.24010777	0.024346719	-0.041099325	-0.32166937	-0.16597193	0.32412773	0.017316239	0.42822796	-0.367945	0.31994337	-0.12266896	0.3086687	-0.29782334	0.05340617
0.5112822	0.24614085	-0.63710517	0.7186697	-0.20212273	0.037613016	0.3514135	1.0637016	-0.098356806	0.15203002	-0.7814529	0.84210813	-0.45992962	0.7542181	-0.76976186	0.36217725
0.075050265	-0.094786495	0.109136574	-0.11790236	0.08110888	-0.14352517	-0.19426788	0.050395112	0.28003007	0.21452051	-0.09764444	0.075674914	0.17457947	-0.078851044	-0.21424489	0.14149788
-0.3611347	0.056421943	0.07438745	-0.22494943	0.14088792	0.22839732	0.023457838	-0.587849	-0.4035366	-0.26608163	0.45988533	-0.29935914	-0.13649711	-0.105470546	0.43240497	-0.35864085
-0.5178524	-0.032191157	0.16374354	-0.20280682	0.19681385	0.41350448	0.1663831	-0.6717234	-0.5992596	-0.4483661	0.54278845	-0.38567665	-0.25831732	-0.19949608	0.5731933	-0.4375137
0.21149716	-0.19714375	0.14601701	0.63703924	0.04658329	0.25234985	0.5456628	0.52507913	0.3367426	-0.29932654	-0.15884037	-0.06130784	0.28559384	-0.034459155	-0.3330861	0.53227866
-0.2136448	0.12736608	-0.15789941	-0.37593153	0.006717907	-0.18113652	-0.3424241	-0.27006483	-0.26854303	0.2873167	-0.020824382	0.18188332	-0.35580683	0.11760747	0.08720383	-0.28132063
0.417067	-0.10587755	0.005281817	0.26380643	-0.104811795	-0.26443723	-0.11148476	0.72103643	0.32151994	0.53100556	-0.56139696	0.5173248	0.013986869	0.39883834	-0.69625056	0.38021174
-0.47471476	-0.011368191	0.075641416	-0.036768958	0.1969086	0.46889168	0.3656588	-0.4934467	-0.6591986	-0.4982032	0.46145755	-0.31327683	-0.29239687	-0.044112105	0.45932207	-0.36058667
0.005431759	0.0007435457	0.020177282	0.16176187	0.062827446	0.17192723	0.27287006	0.01164773	-0.025666684	-0.23352224	0.07263597	-0.098894835	-0.028825998	-0.020709082	0.014949467	0.032672103
-0.3773025	-0.21439347	0.34769994	-0.15420243	0.16567545	0.5056306	0.33266717	-0.60073596	-0.34234568	-0.4866355	0.5836041	-0.5836122	0.06679813	-0.36181363	0.48535395	-0.20625481
0.047447447	0.04879117	0.011936009	0.004850814	-0.06381515	0.045774847	0.057735696	0.029049724	0.08660017	-0.03344253	-0.033739533	0.020348102	-0.0050651846	-0.08488685	-0.027904706	0.07795967
0.04788555	-0.38932073	0.43928564	-0.56898093	0.12565526	-0.49630466	-0.7016832	-0.24862339	0.5396434	0.69437104	-0.0065874076	-0.03854563	0.38045028	-0.235217	-0.1662708	0.08347381
-0.74131835	-0.27649727	0.488146	-0.2855681	0.36033502	0.7552668	0.4003266	-1.0124581	-0.64737743	-0.7486443	0.8779719	-0.7720467	-0.1728886	-0.42070127	0.8097542	-0.5218839
-0.10399101	0.08979987	-0.043368723	-0.31426513	0.05336651	-0.19830243	-0.3567842	-0.28149748	-0.11575148	0.26708525	0.1116342	-0.011184361	-0.17906377	-0.021248871	0.12627676	-0.2523344
0.2550328	-0.10179066	0.0833335	0.40983012	-0.030705716	0.09786173	0.30447942	0.3567178	0.2411986	-0.14003687	-0.15890929	0.051944897	0.15339331	0.04533518	-0.2861577	0.29526228
-0.5948185	-0.019540988	0.18217646	-0.26271686	0.22985159	0.54717225	0.28528836	-0.79005116	-0.6292261	-0.49323693	0.6416955	-0.53917843	-0.30307567	-0.2716449	0.6573977	-0.48726046
-0.24832642	-0.15781975	0.24396212	0.0011655925	0.15474567	0.31330472	0.23168053	-0.340417	-0.18276763	-0.2707524	0.299545	-0.30947313	0.08278969	-0.17788243	0.21842627	-0.061946332
-0.5627693	-0.1613476	0.23987766	0.11282819	0.35381684	0.73528826	0.73793066	-0.6058504	-0.8401451	-0.7698811	0.643056	-0.5669764	-0.41846237	-0.15773328	0.5908509	-0.4289062
-0.3173626	-0.05746039	0.13641238	-0.06929112	0.16600585	0.3005166	0.28535956	-0.3314364	-0.21775584	-0.35021454	0.33463782	-0.28607577	0.057679743	-0.18293318	0.29720637	-0.17279783
-0.14222103	0.6939942	-0.8489763	-0.4892427	-0.18254784	-0.64125186	-0.7316262	0.029718664	-0.6284773	0.8007059	-0.3876142	0.68870366	-0.9229379	0.58983225	0.10893377	-0.60163933
-0.67103845	0.029951587	0.064910054	-0.28333482	0.27754125	0.51720905	0.20406422	-0.8029889	-0.86316466	-0.49113357	0.6686396	-0.4350045	-0.4212055	-0.14597996	0.78828555	-0.6300785
-0.36909258	0.8777202	-0.8878895	-0.74200284	0.01635481	-0.77083623	-0.810299	-0.3875711	-0.7363587	0.7254137	-0.19348548	0.54922223	-0.93188107	0.4551467	0.4563691	-0.83731616
-0.25130448	-0.16744159	0.3323482	-0.12063572	0.12913853	0.24515572	0.1868967	-0.3782108	-0.017728796	-0.267906	0.39495504	-0.40351453	0.18182912	-0.31334808	0.272889	-0.025507018
-0.55021447	-0.16829863	0.35608658	-0.2501597	0.23607938	0.5179567	0.29640505	-0.6981445	-0.5516892	-0.4496066	0.6500546	-0.5462602	-0.20054623	-0.2731157	0.6155564	-0.4206071
-0.36332458	0.095232956	-0.11340138	0.09006412	0.1981768	0.4511451	0.36011165	-0.2592478	-0.6262873	-0.40400374	0.30438966	-0.14011347	-0.47696808	0.15926094	0.3246461	-0.31361884
0.18150128	-0.18115066	0.22697954	-0.38415557	0.06182211	-0.54730994	-0.62969476	0.092586696	0.62198937	0.62260723	-0.26852635	0.21341759	0.4275952	-0.06898458	-0.39180893	0.18986522
0.6843279	0.29296488	-0.7023471	0.9348141	-0.30196774	-0.11340009	0.38287038	1.3787283	0.11858764	0.3215091	-1.0013022	0.92657954	-0.46477473	0.9047686	-1.0675502	0.6403217
0.14739391	-0.16269152	0.14749292	0.20719509	0.10374281	-0.11736754	0.11886353	0.2182859	0.3556988	-0.016146665	-0.20057926	-0.07331278	0.42305654	-0.1670654	-0.19949757	0.37301037
-0.27992848	0.25205624	-0.21128072	-0.47847193	0.035219673	-0.2920928	-0.43660483	-0.3960135	-0.23301552	0.3816164	0.14127229	0.07401296	-0.28620875	0.07193186	0.2528838	-0.34559327
0.25214544	0.20060511	-0.4078048	0.33657396	-0.1425077	-0.07850986	0.058613185	0.55972165	-0.06374845	0.32373938	-0.46258008	0.6139652	-0.41816175	0.53589624	-0.42363194	0.14171927
-0.1161425	-0.0377917	0.07315165	0.006813328	0.05038641	0.105571754	0.088011555	-0.117040694	-0.1322452	-0.057290465	0.102215774	-0.047154903	0.021090921	0.003623426	0.122786194	-0.02426992
0.1787623	-0.2284563	0.26599568	-0.3922263	0.025473265	-0.38460723	-0.48895508	0.028401548	0.50645924	0.6164145	-0.16455816	0.13395084	0.2739749	-0.06863109	-0.31572735	0.13246496
-0.06891033	-0.02685106	-0.0330637	0.1820164	0.0057537393	0.25432515	0.20093836	0.14100038	-0.11333631	-0.15419279	-0.048306633	0.016685506	-0.080034025	0.12100475	-0.04835045	0.0064603416
-0.12945539	0.12664379	-0.03842917	-0.38051426	0.107636265	-0.2619307	-0.27078652	-0.25405487	0.08852465	0.28274488	-0.035413187	0.07257057	0.06578196	-0.052027732	0.16518126	-0.13504338
0.14879784	-0.11629917	0.13236721	-0.274601	-0.014930457	-0.47853732	-0.45738405	0.10353528	0.48319492	0.5383487	-0.37356293	0.24754578	0.23811679	-0.005370077	-0.39009368	0.17466706
0.03722963	-0.003044763	-0.02865217	0.08122188	-0.114469685	0.04262338	0.06881811	0.13054568	-0.044032477	-0.06382862	-0.020665174	0.09170434	-0.07649394	0.049807847	-0.038933493	0.0034746395
-0.19375591	0.11039186	-0.10297774	-0.11241095	0.017132193	0.00868274	-0.09175205	-0.13579422	-0.23705392	0.049405467	0.06367126	-0.03148062	-0.18630412	0.087820046	0.15581393	-0.16737759
0.26405048	0.21504949	-0.4597251	0.17493923	-0.08185668	-0.2623389	-0.15642625	0.5493703	0.000295081	0.43755704	-0.48686263	0.51740825	-0.34423545	0.46020922	-0.3870815	0.08663933
-0.05107462	0.3751494	-0.48887897	-0.37949666	-0.13641225	-0.49113348	-0.5964818	-0.048197128	-0.25557846	0.5202283	-0.1945087	0.4240798	-0.45760667	0.26002315	0.07603364	-0.3979345
-0.022389159	-0.2377058	0.1918921	-0.15477955	0.0065293107	-0.06629353	-0.09220616	-0.012358472	0.14490823	0.06451765	0.025531674	-0.055563204	0.15898006	-0.09735488	-0.124759726	-0.025538
-0.85210145	-0.16708219	0.41065794	-0.299734	0.3718907	0.7807154	0.45848408	-1.129898	-0.87466174	-0.77259123	0.9567312	-0.7794523	-0.3150679	-0.39866674	0.9532981	-0.73178273
-0.121703565	0.11577013	-0.0843222	-0.052216217	0.030762725	0.14114194	0.094308086	-0.09891142	-0.27657166	-0.11457407	0.14711869	0.019377302	-0.1753244	0.038453348	0.14900842	-0.19818625
-0.11994048	-0.05999326	0.05598416	0.18742296	0.027615746	0.23797211	0.21389635	0.0016821529	-0.23747084	-0.23813222	0.19088385	-0.07776017	-0.20099294	0.047179937	0.10279363	-0.07695782
0.056145065	-0.30484334	0.3215073	0.025727998	0.059174925	0.23743317	0.09192468	-0.14314485	0.16408661	-0.16351308	0.24442282	-0.18963267	0.2042692	-0.18072192	0.012000672	0.12318561
0.18279865	0.38711432	-0.6199738	0.06461839	-0.2176066	-0.23022681	-0.16453935	0.40225503	-0.37413636	0.34310856	-0.34406003	0.54270387	-0.6237265	0.57879317	-0.21910678	-0.21584465
0.030339804	-0.08432217	0.21094605	-0.33318225	0.085077375	-0.2871683	-0.35642537	-0.13478325	0.22904555	0.37000844	-0.023739899	0.06323309	0.17423342	-0.12933671	-0.012117122	-0.090120815
-0.07137802	0.095882334	-0.021720812	0.054487925	0.043625712	0.06886543	0.10617498	0.006199793	-0.21764705	-0.019054407	0.074223466	0.023035206	-0.14315262	0.029105281	0.055673957	-0.04096144
-0.04127028	-0.08431561	0.09884196	-0.001963974	0.0568705	0.13541177	0.06320977	-0.07907733	0.019069739	-0.043212634	0.09984727	-0.09442146	-0.03228343	-0.056840174	0.0366845	-0.06286151
-0.088909805	0.022913214	-0.038230613	-0.2323555	0.036912937	-0.17477077	-0.25167426	-0.16851006	-0.06528665	0.21450119	0.057290357	0.04083177	-0.086207114	0.033301476	0.104500845	-0.16035722
-0.2990798	-0.3791739	0.49415874	-0.03846441	0.2083312	0.47184864	0.33050454	-0.4635056	-0.11546779	-0.47969073	0.5123401	-0.5116581	0.24329793	-0.38639736	0.3495356	-0.07966477
-0.027020123	0.060530305	-0.0664408	0.11243184	0.03843049	0.0028045573	0.09449777	0.08159387	-0.096735425	-0.061334368	0.0007036816	0.044910364	-0.07618942	0.056945145	0.0051110527	-0.004710577
0.18967775	0.024101768	-0.17230815	0.2037486	-0.10588058	-0.109901845	0.027315568	0.45420846	0.078687966	0.16190971	-0.26166642	0.23796786	-0.11579085	0.2762244	-0.33025965	0.11340504
-0.21791205	-0.2893927	0.32049948	0.012001673	0.18788126	0.35485923	0.3175809	-0.36786455	-0.11193973	-0.43135548	0.43205646	-0.43107852	0.11817117	-0.3290407	0.28170142	-0.05449706
-0.15040949	0.12629785	-0.09386171	-0.17895782	0.0033508502	-0.01123872	-0.06635906	-0.18975689	-0.37581408	0.027974755	0.1064696	0.07164933	-0.31956127	0.13100654	0.21226873	-0.27025753
0.30040374	0.33046883	-0.53777426	0.15352587	-0.23113088	-0.24028401	-0.10368881	0.6448916	-0.07566454	0.41427177	-0.5721868	0.58671546	-0.32793042	0.52735674	-0.42130536	0.04572374
-0.024807759	0.2449298	-0.16996215	-0.08208236	0.016358742	-0.21577439	-0.12168261	0.031061783	0.10171236	0.15374939	-0.1778911	0.12415914	-0.018016547	-0.011150523	0.047071613	0.06717734
0.092714146	0.15040559	-0.24294381	-0.14523438	-0.031370655	-0.32893002	-0.36047614	0.19201978	0.00477485	0.41584873	-0.3058516	0.32614332	-0.19539458	0.25518268	-0.22446832	-0.056508604
0.20295335	-0.34972265	0.43725303	-0.5982311	0.019205324	-0.7469067	-0.8344202	-0.12877446	0.78171355	0.84987485	-0.2703917	0.123859055	0.5066667	-0.15278423	-0.4195409	0.13283288
0.0102136005	-0.051505264	0.051383622	-0.49483794	-0.024368217	-0.45199615	-0.6217411	-0.20861952	0.16919424	0.53533155	-0.021364545	0.13905767	-0.0017217414	0.012814779	-0.01539203	-0.17886318
-0.0041933428	0.24209252	-0.35960507	-0.07895522	-0.06741847	-0.23903555	-0.14221144	0.053071752	-0.18796426	0.2742258	-0.15984634	0.2733673	-0.29874837	0.24167241	0.067845166	-0.17628261
-0.09906766	-0.012128295	0.033338714	-0.21689327	0.085805625	-0.12621501	-0.2108036	-0.28194058	-0.051708482	0.07901599	0.092730775	-0.0569936	0.016479382	-0.042208005	0.10168201	-0.13438384
-0.122144364	-0.015718155	0.07899263	-0.13789189	0.050375383	0.05543578	0.020336693	-0.20522639	-0.06356491	-0.033279993	0.08259788	-0.11216732	-0.0064137815	-0.042253077	0.16973796	-0.1298595
0.13558394	-0.02207054	0.04763583	-0.021187875	-0.028955631	-0.22426188	-0.17864482	0.22339915	0.3658353	0.19757369	-0.19083636	0.050666887	0.25413233	-0.07377701	-0.2203084	0.22543383
-0.37932527	0.13674508	-0.07351496	-0.27706802	0.120822474	0.08160889	-0.1065332	-0.51437795	-0.47022322	-0.02871262	0.23207428	-0.13346453	-0.33821806	0.015659768	0.39340156	-0.4232708
0.0077834073	-0.22245811	0.24272291	-0.36519545	0.07195904	-0.3285996	-0.42359588	-0.23535493	0.2967075	0.41450956	0.0288381	-0.03173219	0.18059728	-0.14784369	-0.065169215	-0.017928418
0.32514504	0.08597051	-0.18450253	0.34533975	-0.11489299	0.033593547	0.12324648	0.5783511	0.06286306	0.15542176	-0.42733148	0.3784397	-0.066460684	0.3435331	-0.4351956	0.27759185
-0.59205616	-0.058007192	0.26290667	-0.20816752	0.22169508	0.52535	0.34692872	-0.8001481	-0.6220965	-0.577205	0.7510761	-0.53749716	-0.1866427	-0.23321904	0.69789046	-0.4490523
0.09105927	-0.24344292	0.23354416	-0.4938945	0.055969425	-0.49087217	-0.65714633	-0.17540331	0.38284293	0.66294426	-0.092197925	0.13195346	0.19002688	-0.039148543	-0.19264658	-0.05082149
0.23201089	-0.2712605	0.36811957	0.3709195	0.22553337	-0.062342852	0.4363118	0.36810368	0.8447695	-0.2868716	-0.27786258	-0.33341327	0.8990578	-0.52951163	-0.2798415	0.74606943
0.2060357	0.04506462	-0.13875291	0.24583493	-0.09565307	-0.08581871	-0.002441931	0.44018906	0.10127693	0.21068874	-0.28060788	0.25652295	-0.11356561	0.26294547	-0.30111232	0.19130065
0.019788828	-0.17726767	0.27327377	0.11194147	0.058215495	0.07672881	0.14103588	-0.011127315	0.23507062	-0.08808678	0.05289249	-0.12003224	0.34170368	-0.15105407	-0.105058394	0.17406265
0.42890307	0.060052283	-0.25510463	0.493701	-0.10777364	-0.030207638	0.2503957	0.7468653	0.24532782	0.08839313	-0.48166272	0.36197287	0.020747337	0.28137925	-0.60197926	0.3520771
0.2731099	-0.7526865	0.9325259	0.70993865	0.2832036	0.5249403	0.9865547	0.3006435	0.9733684	-0.8389834	0.071801566	-0.8019508	1.2481645	-0.9197485	-0.27351716	0.94744
-0.29021513	0.0011335211	0.080306515	-0.20153126	0.08992407	0.13950396	0.06295323	-0.39644176	-0.28472528	-0.17346105	0.3090045	-0.23637193	-0.06194682	-0.08305834	0.2710602	-0.27639157
-0.17223741	-0.21271634	0.29828423	0.047231015	0.12086434	0.3963194	0.34188062	-0.28401378	-0.06455588	-0.41855526	0.28585976	-0.37571138	0.19479771	-0.25357082	0.20437485	-0.03965857
-0.59106886	-0.036798727	0.18181056	-0.3776194	0.21505678	0.34227905	0.051101893	-0.7734678	-0.6132313	-0.22407816	0.5573423	-0.3720488	-0.36061892	-0.1423371	0.5852303	-0.54088145
0.17767704	-0.026633937	-0.03738209	0.22524238	0.0046510985	-0.017623102	0.081563376	0.368189	0.13235752	0.07643697	-0.22222789	0.09322414	0.053238776	0.09827584	-0.25545037	0.24115221
-0.27926496	0.46337906	-0.5556539	-0.3345145	-0.044212427	-0.30302787	-0.43668872	-0.15701829	-0.5044003	0.41906384	-0.10237928	0.39767542	-0.60912704	0.32298437	0.28472245	-0.49037164
0.117968604	-0.22253019	0.21516356	-0.20693749	0.061198253	-0.321832	-0.39713544	0.052111596	0.2654025	0.48374304	-0.06851511	0.13473523	0.219622	-0.010175551	-0.17051166	0.11351691
-0.03122278	0.48331392	-0.47025988	-0.38935715	-0.13796791	-0.61491483	-0.556373	-0.05635131	-0.29040954	0.60321456	-0.25699502	0.40857795	-0.47575688	0.3642159	0.040218037	-0.3902455
-0.25514922	0.20875402	-0.17383656	-0.22512186	0.013887965	-0.0942003	-0.19116157	-0.3095166	-0.38031295	0.07703301	0.10146529	0.097036704	-0.3953287	0.106557794	0.24360071	-0.38150647
-0.0002528075	0.038242023	0.110729516	0.08329145	0.13525532	-0.07511364	0.12524313	0.12001338	0.22665687	-0.06351671	-0.13487296	-0.13002191	0.2899028	-0.15867011	-0.026681427	0.2459562
-0.29588217	-0.18559445	0.34315246	0.014339152	0.25979888	0.3970472	0.38130036	-0.5182477	-0.14515068	-0.5571383	0.50633425	-0.5063523	0.1433042	-0.37457526	0.43825573	-0.07182355
-0.50738627	-0.03199507	0.0337932	-0.15734981	0.21922421	0.4507488	0.2357499	-0.53680724	-0.69817245	-0.31126532	0.43275788	-0.31806126	-0.35872787	-0.05261268	0.4192815	-0.41097674
0.033763032	0.012915205	-0.09348799	0.28782803	0.038253397	0.11906914	0.20278648	0.275812	-0.089460395	-0.104722835	-0.12197438	0.10857649	-0.12304634	0.17604372	-0.16728489	0.1066682
0.029598288	-0.26960427	0.33002794	0.109488726	0.076019995	0.26787463	0.28142142	-0.07154873	0.10953556	-0.307204	0.24706769	-0.29823962	0.28087053	-0.21740372	0.07998782	0.13615912
-0.13235195	0.6104827	-0.6895817	-0.25745228	0.021468302	-0.49640563	-0.5160355	-0.035696343	-0.43669164	0.60583925	-0.29807094	0.54126966	-0.64260006	0.4930977	0.11834122	-0.44916797
-0.05826666	0.12661502	-0.052420404	-0.106243715	0.023308266	-0.14896597	-0.12845436	-0.03825052	-0.1461616	0.15902434	-0.043299306	0.08573116	-0.12841286	0.0582077	-0.00070966786	-0.15254924
0.36854148	0.1313938	-0.3970071	0.54192626	-0.15676542	0.076675296	0.32040796	0.78042334	-0.020644832	0.076887086	-0.5171627	0.5313003	-0.30002025	0.46125966	-0.56796134	0.30378082
-0.32276055	-0.118249595	0.23330837	-0.15893465	0.24206439	0.19674276	0.12985982	-0.48226377	-0.2646012	-0.29123494	0.32994407	-0.41812012	0.09074304	-0.25420785	0.40290838	-0.11728932
-1.0027897	-0.12416434	0.46625486	-0.360613	0.40958536	0.9413667	0.5147951	-1.2748817	-1.1285007	-0.90724796	1.1634319	-0.835388	-0.51082504	-0.39348137	1.1114309	-0.9386714
-0.32283473	0.7524385	-0.8395309	-0.5713574	-0.030381447	-0.56229144	-0.6697271	-0.20718716	-0.6887162	0.669547	-0.17528038	0.55655295	-0.85609263	0.41900524	0.34818232	-0.6636095
-0.024941487	-0.30192527	0.4594965	-0.43261975	0.1139123	-0.26941824	-0.45812935	-0.3169456	0.38195378	0.42745325	0.035245262	-0.089852065	0.36927655	-0.16789262	-0.12254957	0.04006804
0.020408163	0.06509333	-0.095739275	0.076131366	-0.006984139	0.024156349	-0.0010041727	0.066298015	0.0034780055	0.03715952	-0.08179184	0.09604885	-0.07078569	0.026032258	-0.03683182	0.06885008
-0.09903975	-0.017116252	-0.066176616	0.18243852	0.059818726	0.19039015	0.20033403	0.050444745	-0.18140282	-0.16801429	0.092978165	0.006414543	-0.16833678	0.0910226	0.08313988	-0.06567648
0.026464654	0.57300687	-0.75214064	-0.04330216	-0.05806357	-0.38048062	-0.2759284	0.19552217	-0.34357962	0.4682604	-0.35793117	0.55228525	-0.5873503	0.5379961	-0.100146525	-0.29006878
0.12642255	0.09553105	-0.15767576	0.042382825	0.0073704463	-0.16924676	-0.05203446	0.18378422	0.09830994	0.13867688	-0.24685492	0.19879511	0.033229105	0.06632663	-0.12858604	0.1202232
-0.125104	0.07084843	-0.07709427	-0.038839243	-0.003375613	-0.02151728	-0.04858025	-0.076752365	-0.15001772	0.029978892	0.029502258	0.024779191	-0.14280076	0.076995715	0.039631084	-0.135468
-0.032908343	-0.20525058	0.2123366	0.12730551	0.12680005	0.16632833	0.22512907	-0.063807644	0.17746432	-0.27396226	0.060720544	-0.2284928	0.25078937	-0.2393839	-0.008928099	0.11554961
0.5398961	0.20640421	-0.63038826	0.81035113	-0.16410252	0.07315804	0.42263168	1.126576	-0.13028306	0.22527345	-0.7338175	0.8453807	-0.4832195	0.7452607	-0.81893045	0.3405447
0.24361207	0.09967714	-0.20209348	0.11962905	-0.10750668	-0.21832243	-0.11589411	0.3209805	0.11655878	0.22437938	-0.24248277	0.19299625	-0.016533656	0.08253021	-0.17916037	0.097599424
0.02082445	0.2679346	-0.3068137	-0.2108335	-0.095067434	-0.36767572	-0.32702467	0.111784115	-0.10078094	0.34632072	-0.2389266	0.31687722	-0.30973452	0.23457783	-0.09194422	-0.170184
-0.2738215	-0.111550756	0.12549259	-0.104243256	0.14980002	0.18777208	0.08366933	-0.4051476	-0.24641886	-0.25478643	0.3011927	-0.30235	-0.08515455	-0.15649378	0.24201077	-0.15790418
-0.1696458	0.78016216	-0.8628076	-0.7363414	-0.21554264	-0.7492958	-0.87019396	-0.26639092	-0.587029	0.816834	-0.33763388	0.65251225	-0.81336087	0.48928815	0.30504435	-0.6995989
0.49824366	0.18472512	-0.49822062	0.64716375	-0.19316214	0.0055875685	0.28787327	0.9979164	-0.040203787	0.20869082	-0.6831109	0.6813664	-0.41016194	0.69982684	-0.784334	0.36425143
-0.23732899	-0.10303415	0.21256317	-0.17016785	0.18765299	0.23765926	0.08405561	-0.45854956	-0.15627564	-0.27308327	0.32380018	-0.3067486	-0.02630725	-0.22518392	0.32711396	-0.15996893
-0.22715653	0.87442064	-0.9238237	-0.6975363	-0.09827041	-0.83328104	-0.92536247	-0.21949723	-0.68843657	0.8599696	-0.31202433	0.67013806	-0.96131563	0.58436865	0.28098068	-0.8181834
0.06292323	0.04091187	-0.08687821	0.19891953	-0.052064575	0.11011328	0.10789566	0.28102332	-0.010041979	0.044861577	-0.12940522	0.1698178	-0.09568925	0.18103005	-0.1742458	0.10372855
-0.06810404	-0.06856109	0.09956698	0.12628427	0.046456724	0.13888954	0.24536994	0.010437085	-0.069269985	-0.16879417	0.026563935	-0.07425312	0.03539791	-0.037203424	-0.007086713	0.054947045
0.6265185	0.39622954	-0.8173407	0.83764666	-0.27553836	-0.14236261	0.2828487	1.285968	-0.02222327	0.50562	-1.0133045	1.0121198	-0.580785	0.9476912	-0.94141984	0.42091814
-0.09860256	-0.18251511	0.20513123	0.117192335	0.08670074	0.3024727	0.3153805	-0.1150547	-0.08338484	-0.30215663	0.18830557	-0.25155845	0.049222495	-0.08565147	0.111486666	0.002800841
0.12884608	0.10659941	-0.175937	-0.20711865	-0.08898629	-0.31468448	-0.35161433	0.05785791	-0.017995793	0.3853441	-0.12998277	0.2160136	-0.105345465	0.12695895	-0.048646763	-0.054304007
0.13486205	0.12458173	-0.14275643	0.06973288	-0.08407685	-0.056213725	-0.06846653	0.15972511	-0.058684535	0.12721209	-0.14674222	0.17112906	-0.13643003	0.22241938	-0.08630037	-0.07502008
0.3023067	0.06589287	-0.12819144	0.36572266	-0.093757056	-0.013750775	0.23176552	0.59025717	0.18429506	0.08991476	-0.33810166	0.302652	-0.046962142	0.2544238	-0.36854765	0.25187263
0.387426	-0.0062457705	-0.2564165	0.48123762	-0.078778	-0.013713461	0.19315276	0.7775686	0.05382723	0.25554442	-0.5206845	0.55958295	-0.19564416	0.48693284	-0.6181589	0.27126387
-0.0063083554	-0.09974019	0.1400545	0.09911089	0.062681496	0.10875023	0.15793979	0.04549961	0.14556573	-0.12242524	0.07464135	-0.17406759	0.18214107	-0.09436899	-0.051838197	0.16599306
-0.030007668	-0.29235417	0.45831564	-0.48659217	0.065146856	-0.44656497	-0.583211	-0.23804575	0.46719676	0.6113929	-0.0024301137	0.01815284	0.4490277	-0.1601832	-0.16971105	0.01614029
-0.17742585	0.30997822	-0.31485707	-0.22710578	0.047453165	-0.23558132	-0.21887755	-0.27515167	-0.252032	0.18485676	0.0024289552	0.08390034	-0.23391336	0.07272441	0.30634585	-0.27719873
-0.13661534	0.104305856	-0.051975712	-0.1295742	-0.013277142	-0.07184279	-0.027955644	-0.0869385	-0.139537	0.0009459088	0.020065293	-0.019179549	-0.19540861	0.058921073	0.13614346	-0.15545298
-0.13894245	0.29424325	-0.23500593	-0.13703392	-0.00017273969	-0.097560465	-0.19682202	-0.07378768	-0.31658483	0.1457123	-0.007926433	0.22482018	-0.36585966	0.22331527	0.15871106	-0.3132166
0.16499372	-0.28255233	0.46926025	0.2831045	0.23762049	0.12189299	0.4641145	0.17607221	0.60814834	-0.42164633	-0.04697634	-0.4110402	0.8482205	-0.50605816	-0.14455383	0.6224205
0.14022811	-0.037384164	-0.07143849	0.2760774	-0.037672162	0.08085881	0.20216985	0.2687923	0.012695968	0.004611863	-0.1355835	0.11102594	0.020370958	0.18544914	-0.1903762	0.114811905
-0.045466334	0.0065376675	0.03088316	-0.08831153	0.082717046	-0.12298426	-0.12281538	-0.032256026	0.104787864	0.15955807	-0.091461875	0.02291927	0.1196953	-0.04606074	-0.065853775	0.037378497
0.05539366	0.088436075	-0.05446453	-0.069852896	-0.05583429	-0.16011232	-0.16262709	0.20679657	0.088746734	0.2186998	-0.23480226	0.15799475	0.024494505	0.106329724	-0.16142224	0.09060735
0.14599603	0.28918317	-0.4888164	0.17964983	-0.1421271	-0.2433657	-0.171036	0.4551517	-0.11951931	0.3492813	-0.40763423	0.5089433	-0.43230477	0.4293186	-0.2879896	0.01299186
0.1328794	-0.048099186	-0.003501228	0.17355928	0.0018500681	0.09948301	0.123209715	0.26698458	0.028784825	0.001192505	-0.121965155	0.10121826	-0.029693542	0.117329	-0.15446004	0.08284649
0.18876228	0.28474882	-0.39432856	-0.16185428	-0.22202128	-0.45037073	-0.3871727	0.26178128	0.16827717	0.44210684	-0.40090153	0.43556505	-0.047400877	0.17237425	-0.1967855	-0.009701761
-0.13938579	0.014720437	0.02881567	-0.13311917	0.017012008	0.026471544	-0.12394545	-0.25788504	-0.19505931	-0.023455486	0.12831652	-0.015513739	-0.102793865	0.023247935	0.16909546	-0.1383875
0.10977445	0.046646412	-0.0025674999	-0.17971562	-0.04788176	-0.3885658	-0.35698736	0.042026114	0.1154954	0.48974842	-0.19599488	0.20794174	-0.051341917	0.13770373	-0.12676367	-0.037619058
-0.20332654	0.088833444	-0.06907319	-0.19973627	0.048423912	-0.009289353	-0.07393186	-0.27321127	-0.20019926	-0.047541697	0.14619823	-0.051674973	-0.124221385	-0.10193082	0.25881016	-0.17754635
-0.11967206	-0.044083327	0.109009124	-0.28235143	0.123032674	-0.070579365	-0.2214252	-0.20028695	-0.0877948	0.09425008	0.097637996	-0.087682076	-0.026741976	-0.043524995	0.08692785	-0.15685803
0.19346012	0.00011856165	-0.18816687	0.4319005	-0.078550376	0.067034304	0.24262388	0.5536153	-0.001503705	0.0020942818	-0.29799068	0.29735324	-0.15020686	0.31214076	-0.3753672	0.2570981
0.022433437	0.2328424	-0.3193663	-0.22347584	-0.061377108	-0.37001097	-0.47972137	0.026726516	-0.098880336	0.44072217	-0.26280418	0.35388193	-0.3238315	0.33205676	-0.106771365	-0.21518548
-0.33591667	0.13172662	-0.07755364	-0.09182561	0.13537477	0.21233444	0.10166585	-0.4099266	-0.50376403	-0.26518553	0.30887073	-0.20384778	-0.32713103	-0.03095077	0.41484323	-0.40824783
-0.10707409	0.21405387	-0.15119356	-0.2079895	-0.03873401	-0.21103053	-0.23107037	-0.10492746	-0.20244923	0.16384885	-0.04806822	0.13704374	-0.22222666	0.048594996	0.1727588	-0.19132455
-0.5375929	0.48543957	-0.44251025	-0.64224356	0.046342533	-0.09673499	-0.39729053	-0.8050576	-0.96153796	0.07647659	0.39864466	0.017288359	-0.85801053	0.22375147	0.7380301	-0.876709
-0.037937243	0.0591739	-0.07711387	-0.06302802	0.0081249	-0.06974918	-0.1172617	-0.059298936	-0.03925912	0.14625566	0.009998401	0.058913838	-0.06509362	0.04863311	-0.011689397	-0.12627274
-0.06049868	0.09354674	-0.105969846	-0.20646575	-0.014608993	-0.28084934	-0.24790975	-0.039713353	-0.07163954	0.32584006	-0.07957701	0.17797108	-0.12879357	0.046481818	0.05039	-0.119015485
-0.060858622	-0.05958541	0.14760935	-0.04336425	0.03504073	0.14652069	0.11487953	-0.13068064	-0.007221466	-0.1430837	0.13775887	-0.19792342	0.07276731	-0.14015096	0.16113319	0.033909917
0.119954035	0.287037	-0.46261427	0.193163	-0.066338785	-0.11833143	-0.018588113	0.37391156	-0.274826	0.22451276	-0.3439139	0.40938932	-0.47067687	0.42807475	-0.20341095	-0.065503515
-0.008473793	0.38896006	-0.3524474	-0.25256234	-0.103976995	-0.39054635	-0.40821147	-0.02673566	-0.1423256	0.34715632	-0.23053639	0.3534338	-0.2849599	0.24529606	0.094553	-0.22677477
-0.18240182	0.33603984	-0.38085586	-0.46480134	-0.038838323	-0.36083108	-0.467638	-0.27699694	-0.40979433	0.43530694	-0.025233675	0.22186242	-0.46593982	0.18661024	0.30312157	-0.44725484
-0.3225983	1.0423661	-1.0974054	-0.89839125	-0.20738152	-0.8728085	-1.0812485	-0.39369032	-0.90578616	0.9345745	-0.2601652	0.80233264	-1.1494755	0.6386892	0.44163632	-0.9502339
0.25099155	0.2666344	-0.43731833	0.27098227	-0.07725142	-0.17128704	-0.087603025	0.50549537	-0.055394914	0.32719812	-0.37166312	0.48825806	-0.30820763	0.43183863	-0.31587648	0.0746034
-0.6808553	-0.2332933	0.4504203	-0.19109014	0.30512685	0.8026532	0.45343047	-0.9467256	-0.7413998	-0.830348	0.91060346	-0.77241737	-0.2428862	-0.37446535	0.7861116	-0.6018018
-0.1629276	0.38031682	-0.37549093	-0.2626476	-0.0817137	-0.31884757	-0.32868204	-0.13775223	-0.28687465	0.32484087	-0.06486228	0.28693342	-0.386801	0.21134156	0.1689198	-0.35001072
-0.11047099	-0.071327105	0.07734044	0.017985562	0.105149955	0.108876094	0.080419935	-0.10465734	-0.040794373	-0.13879251	0.08827105	-0.15930255	-0.0013294957	-0.11682354	0.10088988	-0.01588899
0.36797464	0.15630314	-0.24880467	-0.025236953	-0.12802084	-0.5914595	-0.4372689	0.5042726	0.37421763	0.63745785	-0.5776214	0.45593524	0.06657352	0.31959006	-0.502233	0.21805045
-0.4148336	0.81421417	-0.924545	-0.80256116	-0.011613153	-0.7640473	-0.8805316	-0.4592696	-0.7804545	0.8102052	-0.16190393	0.57419324	-1.0105677	0.4069969	0.49187902	-0.82826585
0.14191577	0.13807903	-0.20789766	0.26141554	-0.043674804	0.051885415	0.10648276	0.4025079	-0.12290073	0.016550418	-0.2871916	0.31290972	-0.17702591	0.25212905	-0.2827504	0.09651792
0.01956545	0.08565219	-0.14969595	-0.2151899	-0.0709269	-0.25088483	-0.28820512	0.033163346	0.016007392	0.34227356	-0.12993255	0.18457273	-0.17292298	0.14919773	-0.052631114	-0.061503273
-0.7657001	-0.090274364	0.27470317	-0.3066546	0.2668864	0.668052	0.30353367	-0.9772305	-0.87388974	-0.6469953	0.8686885	-0.64889157	-0.36903572	-0.28823927	0.7842462	-0.70711094
0.41241288	0.123115815	-0.3459382	0.60201246	-0.1898584	0.011951826	0.23915803	0.7309869	0.083569184	0.15560423	-0.48648128	0.4580746	-0.17507648	0.50832796	-0.6302161	0.33169407
-0.18094283	0.24181798	-0.24500015	0.0018233827	0.020206533	0.094639055	-0.023966338	-0.041747116	-0.45116425	0.004065319	0.049469132	0.11658186	-0.3958316	0.19653137	0.124143265	-0.24445745
-0.37964186	0.0024753418	0.011192323	-0.1383115	0.14380336	0.27728552	0.13868113	-0.35309783	-0.4478879	-0.24414214	0.40946868	-0.22822678	-0.28230253	-0.0029455947	0.35306674	-0.36197323
-0.23148277	-0.095013976	0.14359176	-0.021026766	0.11619393	0.28517804	0.2183333	-0.25738698	-0.2762463	-0.24221629	0.23187947	-0.17731635	-0.1011435	-0.1077829	0.20784245	-0.10031149
0.09577168	-0.056140255	0.10274379	0.0018735165	0.022977497	-0.034236312	0.026443642	0.11001977	0.28191897	0.080434315	-0.14480245	0.06255265	0.16325572	-0.010946221	-0.16845436	0.217672
0.17637289	-0.021378173	0.0049826005	0.10600806	-0.0041598836	-0.092120655	-0.011448512	0.17242509	0.26199535	0.09540166	-0.20124488	0.11206946	0.13656834	0.0005436019	-0.19510092	0.15799028
-0.05850492	0.16677742	-0.20600699	0.019307025	0.02527889	-0.023177987	-0.03850241	0.039680496	-0.14699161	0.07520775	-0.0898296	0.13824919	-0.21724465	0.1386548	0.04659015	-0.16041861
0.15604046	0.13837463	-0.27665415	-0.035315953	-0.12151396	-0.27018452	-0.2455206	0.15957995	-0.00051893084	0.34067124	-0.2088507	0.3053223	-0.1919765	0.17265375	-0.11631789	-0.070976496
0.042040695	-0.3109186	0.4003645	0.20442119	0.054368794	0.30018106	0.45048085	-0.10628156	0.28828615	-0.40620324	0.2803862	-0.40150163	0.4627325	-0.35127255	-0.0023114309	0.26166493
-0.4163606	0.01521141	-0.022569666	-0.28275967	0.14130573	0.11506186	-0.04726985	-0.5846555	-0.4398039	-0.12694345	0.37429556	-0.20816763	-0.3323425	-0.025477834	0.40831485	-0.47278935
0.008024818	0.108691186	-0.0811977	-0.3449815	-0.08786143	-0.4164305	-0.54454726	-0.08544248	0.13616669	0.56910956	-0.14348838	0.23914012	-0.122769386	0.1433113	-0.093656406	-0.12250411
0.06585625	0.058488082	-0.08930903	0.23961475	-0.008134781	0.11944411	0.16218205	0.16791536	-0.16825803	-0.03207707	-0.06650822	0.15680002	-0.17599449	0.18211001	-0.119650684	0.02217719
0.35705286	-0.5339494	0.73819005	0.5605537	0.1968536	0.31492832	0.6995365	0.37681314	0.9329546	-0.57202834	-0.033775214	-0.52624464	0.9645281	-0.6847801	-0.36914364	0.8891926
-0.032320026	0.44058645	-0.49877644	-0.39567465	-0.15772508	-0.49040484	-0.52371436	-0.031128775	-0.40566438	0.5745833	-0.21140926	0.48999614	-0.5997904	0.35641727	0.010162253	-0.41711217
0.3312535	0.24281323	-0.46863997	0.2727365	-0.118036665	-0.19659232	-0.073871434	0.70935535	-0.022144018	0.3151264	-0.49491525	0.6053675	-0.39679918	0.5561559	-0.4144797	0.10102994
0.026088756	0.37079325	-0.42978042	-0.20536773	-0.082730286	-0.3379842	-0.3793115	0.01232624	-0.14664878	0.37509486	-0.23274632	0.29078224	-0.33143744	0.21560577	0.055674147	-0.2211433
0.03478637	-0.08477585	0.06680299	0.16577515	0.038659047	0.19798732	0.18247573	0.03242747	0.044062532	-0.18802732	0.07594264	-0.103798434	0.06498225	-0.027971359	-0.046804115	0.10755255
-0.34808984	0.037120763	0.031129405	-0.046692736	0.18406515	0.18984704	0.19652595	-0.39600724	-0.38366252	-0.24047251	0.26292455	-0.17559594	-0.20274344	-0.08536436	0.32924938	-0.2284375
0.15034911	0.07129197	-0.0496332	-0.019451994	-0.0659507	-0.21294008	-0.24743101	0.18235539	0.17484699	0.20375241	-0.22993861	0.16393092	0.051389933	0.07943651	-0.21576965	0.09261119
-0.46451318	0.8527193	-0.85733765	-0.75396603	-0.008101914	-0.68663704	-0.88244843	-0.4533499	-0.8353227	0.78707623	-0.04543613	0.53804845	-0.94280046	0.3858502	0.51379603	-0.862788
-0.112228416	0.22662596	-0.2388829	-0.07387198	-0.03292242	0.04371265	-0.012203856	0.014514193	-0.32326615	0.035841595	-0.06073755	0.1827466	-0.44089088	0.2712287	0.08381781	-0.27222142
-0.21994905	-0.112816215	0.17414296	-0.15115808	0.11435812	0.049009148	0.012362994	-0.2383487	-0.108272985	-0.08558946	0.14145364	-0.09205008	-0.046297174	-0.065430164	0.13343823	-0.14481542
0.10652155	0.013474215	-0.011992007	-0.049199525	-0.0035664947	-0.3693018	-0.25823084	0.22351837	0.22569953	0.41540903	-0.33280838	0.26110983	0.05020927	0.086563826	-0.23820244	0.12755187
-0.034741957	0.048095997	-0.051949777	-0.097170815	0.054325365	-0.1635829	-0.095823765	0.011668268	-0.022054544	0.16970772	-0.104152784	0.06807157	-0.07582001	0.043270525	-0.014904367	-0.027626837
-0.42440405	0.15130192	-0.06936481	-0.24639782	0.135263	0.17980585	0.044385906	-0.5634166	-0.5697222	-0.1902168	0.31681243	-0.15812972	-0.39137104	-0.03704925	0.5281591	-0.40874642
-0.04431172	-0.08003031	0.10874155	-0.36445025	0.010439257	-0.24574396	-0.36580485	-0.19102429	0.19853355	0.35697803	-0.05870618	-0.020150565	0.09730094	-0.027981492	-0.0108431	-0.021209205
-0.44741195	-0.14083044	0.29816222	-0.24635702	0.1648306	0.2795663	0.15094732	-0.67342067	-0.39673358	-0.31929573	0.5147623	-0.38878402	-0.04212133	-0.23412347	0.414182	-0.32033455
0.23977455	-0.20279689	0.25367096	0.21522193	0.10095827	0.05709747	0.2721097	0.3052261	0.5069301	-0.1408662	-0.18619744	-0.15095188	0.53437734	-0.34913063	-0.2453197	0.5102676
-0.2600593	0.19264232	-0.15210813	-0.18222846	0.05308849	-0.042162977	-0.09599612	-0.2566532	-0.3089215	-0.03357648	0.088344865	-0.024595127	-0.30649075	0.044278428	0.2964721	-0.27614024
0.08971387	0.096813835	-0.14986831	-0.110495605	0.02073456	-0.30056956	-0.21863689	0.112099394	0.035173386	0.31010342	-0.19516018	0.23400913	-0.088942066	0.11321551	-0.1704865	-0.01512177
0.3047923	0.13610393	-0.19338475	0.043244254	-0.15168744	-0.14454864	-0.112029046	0.38371864	0.0999135	0.22555216	-0.27693298	0.25364187	-0.053552225	0.13902219	-0.2437103	0.06283818
-0.23607253	0.012747572	0.0077290726	-0.1770388	0.05342664	0.10791049	-0.020271987	-0.3378219	-0.25714937	-0.12160064	0.22938454	-0.101257406	-0.16211207	-0.0698524	0.29318243	-0.27893505
-0.10270807	0.015029733	0.009030655	-0.057831377	0.05633533	0.10689717	0.055729587	-0.08256043	-0.19870827	-0.07284393	0.04464415	-0.00032766952	-0.15242505	0.05719927	0.041994248	-0.094797134
-0.015214778	-0.08066663	0.12717009	-0.20621738	0.09759853	-0.097980596	-0.15638359	-0.115413375	0.13972607	0.1279202	-0.01977036	-0.059936844	0.22431414	-0.07094943	-0.020101748	0.017024996
0.2804538	0.07354391	-0.16290057	0.33169472	-0.07199701	-0.14251953	0.044890072	0.47848657	0.13614517	0.21671148	-0.3858678	0.3312768	0.0014968145	0.27819115	-0.37111068	0.23809604
0.38145915	-0.23813885	0.15890755	0.45346013	-0.08522968	0.1604941	0.30179936	0.48734388	0.35774994	-0.08543858	-0.22693266	0.028253805	0.2989406	0.010062426	-0.45264894	0.41982162
0.023523455	0.031678542	-0.030176897	0.12583189	-0.005992999	0.031196117	0.05516965	0.09065271	-0.033083342	-0.102966145	-0.007238111	-0.023740834	0.03945778	-0.02365131	-0.043631483	0.08774515
-0.0039338376	0.22432351	-0.14246492	-0.11546117	-0.07638451	-0.18758217	-0.15659718	-0.026333254	-0.040190674	0.17192906	-0.043510284	0.075213775	-0.1296695	0.092801824	0.11037465	-0.11480642
0.07264683	0.3049158	-0.2717134	-0.26492324	-0.15911517	-0.3006072	-0.3334968	-0.05656924	-0.010951336	0.24339502	-0.098089375	0.2724207	-0.21927103	0.12524138	0.112476334	-0.17495626
-0.08289976	0.031103	0.036472466	-0.2073798	0.06290721	-0.09782394	-0.23412663	-0.19416021	-0.023124706	0.20809159	0.03531606	0.0041528847	-0.08227566	-0.056717116	0.06090566	-0.15421204
-0.03652558	0.0931154	-0.11538835	-0.15167418	-0.03697223	-0.15640938	-0.20343632	-0.025846563	-0.11511541	0.21183205	-0.061269563	0.12943411	-0.2260836	0.102509886	0.07426165	-0.13997512
-0.15172622	0.22103254	-0.20144138	-0.28877977	-0.03905717	-0.21754062	-0.26234668	-0.19553094	-0.19727783	0.25568047	0.06888763	0.07937504	-0.27464807	0.078426436	0.21964875	-0.29150403
-0.025496328	0.1473298	-0.13437338	-0.1199949	-0.033489045	-0.082444265	-0.16794613	-0.074007295	-0.14045705	0.13058476	-0.006854431	0.063673705	-0.1412057	0.0011507521	0.09484773	-0.095958315
-0.03190668	0.06340318	-0.06340646	-0.06981016	-0.015747564	-0.06926395	-0.02936515	-0.056746043	-0.16354057	0.05301269	0.009048047	0.025494538	-0.15767474	0.08452279	0.04280287	-0.096996985
0.4418342	-0.6653381	0.8371684	0.730501	0.30339834	0.39552546	0.9294066	0.49628925	1.064675	-0.7969476	-0.10824726	-0.71478623	1.2803892	-0.8301055	-0.40094492	1.1081011
0.021044709	0.28017733	-0.44126832	0.10393065	-0.04539781	-0.07531761	-0.06579049	0.3332148	-0.24564414	0.17269982	-0.34529656	0.41630766	-0.43399298	0.42070195	-0.19706775	-0.10140543
0.16977818	0.1884184	-0.32383305	-0.051261164	-0.14084359	-0.33359733	-0.19782652	0.2790222	-0.029403826	0.3783119	-0.36240286	0.33174473	-0.2350036	0.25899807	-0.1702151	0.029171044
-1.0276805	-0.294465	0.56846696	-0.35662082	0.43646857	1.0053688	0.5827388	-1.2548232	-1.0936935	-0.9846391	1.1753248	-0.9383775	-0.41875926	-0.4393184	1.1412611	-0.8494454
-0.17692499	0.0026106115	0.058966387	-0.18180193	0.0111999335	-0.008436672	-0.018683212	-0.1896009	-0.08585664	0.00068373367	0.06075938	-0.07885877	-0.10538558	0.008556436	0.19657908	-0.13228858
-0.5145972	-0.27963662	0.48648775	-0.07656973	0.23607081	0.6502349	0.51583326	-0.72324246	-0.42651957	-0.7028442	0.734571	-0.77116114	0.020063896	-0.4262562	0.61040425	-0.27320778
0.43355003	-0.5089095	0.42183766	0.40645474	0.0025731807	0.10844775	0.2765847	0.38049352	0.7184898	-0.1435474	-0.16147834	-0.19098717	0.61073315	-0.27983198	-0.41556424	0.6009405
-0.11946995	0.15756047	-0.23964603	-0.033091888	-0.019843364	-0.12542033	-0.10767346	0.02670397	-0.24156435	0.16186628	-0.025735384	0.18923898	-0.34240603	0.16318229	0.030330064	-0.14158258
0.2247382	-0.17367771	0.17234349	0.26307893	-0.015543474	0.010312344	0.18790478	0.3196376	0.38008237	-0.08491111	-0.08322253	-0.14235815	0.39318907	-0.1968267	-0.25849468	0.3448279
0.13643824	0.04323915	-0.045011498	0.014288951	-0.038254026	-0.07305725	-0.076068506	0.11862816	0.050077595	0.12124097	-0.14086482	0.1079783	0.0071860845	0.08119363	-0.100489564	-0.0022172593
-0.67663217	-0.054653917	0.18692714	-0.23248002	0.27112278	0.53325	0.26192352	-0.78948057	-0.76631486	-0.58697945	0.6834299	-0.5759354	-0.3084691	-0.17402615	0.7361768	-0.5180622
-0.10060204	0.5593694	-0.5637841	-0.3372891	-0.088481836	-0.44661662	-0.4817738	-0.060377505	-0.4939166	0.45455733	-0.20125458	0.38328305	-0.6642587	0.37392887	0.1542431	-0.42588067
-0.39826933	0.061215352	0.059588302	-0.1680642	0.16009688	0.2669588	0.14436087	-0.53560483	-0.46759978	-0.31860808	0.39739102	-0.25318986	-0.2441134	-0.11598403	0.39980745	-0.32363528
0.011106705	-0.11257913	0.14517923	-0.03245586	0.008287906	-0.030626709	-0.040137354	-0.0052035507	0.17757374	0.038843017	0.06182789	-0.08619095	0.14956321	-0.18103395	-0.00053093437	0.08583051
0.08769009	-0.23187633	0.25477812	0.17635667	0.05802801	0.117849745	0.21570377	0.09670261	0.34361458	-0.19977075	0.031974245	-0.23647603	0.3642317	-0.23539361	-0.11323723	0.29660055
-0.07535375	-0.017456947	0.0880305	-0.052518267	0.07393001	-0.00023568474	-0.09469002	-0.10973868	-0.0066178255	0.006619857	-0.013699902	-0.07727253	0.046975885	-0.046295237	0.02715122	-0.018031396
0.008711284	-0.0040981993	0.10383744	-0.112377055	0.016989242	-0.14772342	-0.11741606	0.03611922	0.1524986	0.13634005	-0.08870204	-0.02101232	0.12293626	-0.06420997	-0.02562252	0.017606337
-0.14057401	0.1078919	-0.16884366	-0.15636404	-0.01565759	0.06551595	-0.045942053	-0.17714949	-0.25297442	-0.023965258	0.05209345	0.054513615	-0.2819564	0.1276264	0.2272247	-0.24363185
0.24575026	0.14735885	-0.31521976	0.41993693	-0.07698113	0.063559435	0.22019157	0.54671854	-0.055322267	0.1304637	-0.37834153	0.44404796	-0.32435143	0.44367784	-0.43214995	0.20200527
-0.048975024	-0.032052256	0.027210303	0.06540172	0.023283474	0.0861634	0.053900074	-0.012539266	-0.044350445	-0.008363489	0.04355168	-0.010776633	-0.03168973	0.0012035246	0.01563496	0.02459801
-0.11950907	0.11333523	-0.105673924	-0.0020510885	0.006948612	0.020271633	-0.09250171	-0.025607528	-0.18067306	0.05205088	0.010954816	0.07065652	-0.26862508	0.117045105	0.01399241	-0.19938107
-0.7978923	-0.18185093	0.48754323	-0.25193134	0.340904	0.7719861	0.49699694	-1.0228299	-0.7908925	-0.83749795	1.0055339	-0.7861188	-0.29906923	-0.43727022	0.8349987	-0.646147
0.28613132	0.090108186	-0.35950837	0.6366824	-0.09288722	-0.012911982	0.37068713	0.77420354	0.076094046	0.06470755	-0.54771024	0.4095891	-0.11795321	0.36136943	-0.50734305	0.3986333
-0.1812273	0.029575514	-0.025110312	-0.09227498	0.024500143	0.060059965	-0.024247753	-0.24066758	-0.27302137	-0.016263857	0.15738846	-0.092968516	-0.22043952	0.023357479	0.15146269	-0.22171272
0.05022611	-0.34487703	0.36550754	0.08537729	0.07591094	0.16204993	0.2183569	-0.10159519	0.22607633	-0.22806245	0.15245236	-0.33395842	0.3548331	-0.23981056	0.022196218	0.22279541
-0.18123046	-0.10608601	0.1289292	-0.1020378	0.06800157	0.18940052	0.049473546	-0.26744202	-0.07597778	-0.206233	0.2084438	-0.1948316	0.0065247854	-0.15095615	0.18954372	-0.13637447
-0.18225586	-0.078934886	0.100299425	0.09122652	0.10259076	0.26376912	0.23446187	-0.09751009	-0.17764561	-0.26151776	0.16666256	-0.20194846	0.014427818	-0.09479819	0.14843023	-0.08950788
0.011686992	0.16060747	-0.25024217	0.06969467	-0.096825846	-0.039618433	0.06132372	0.17933775	-0.16241474	0.013434218	-0.1286654	0.16208382	-0.27149257	0.20278546	-0.004467837	-0.047794532
-0.09733515	-0.0022333823	0.038197152	-0.1761247	0.007384405	-0.039489333	-0.09546305	-0.12618111	-0.019578423	0.090505145	-0.01626825	0.03650715	-0.083194315	-0.024099046	0.02233051	-0.09372492
-0.015433438	-0.07778229	0.13390113	0.079703	0.03131265	0.15877411	0.13613474	0.026219925	0.03700022	-0.18626674	0.096824706	-0.14308177	0.07660349	-0.04515009	0.04281314	0.01669212
0.11860148	0.15848993	-0.25750935	0.2269245	-0.09934201	-0.019742882	0.123459525	0.38266826	-0.15818277	0.104579166	-0.34898564	0.38530368	-0.293671	0.3561592	-0.32858434	0.08549102
-0.11332777	-0.18705735	0.18035963	0.12114071	0.06660645	0.21976185	0.3404874	-0.05717722	0.028668769	-0.325614	0.21034148	-0.27613822	0.16206817	-0.12719437	0.11569176	0.041482855
-0.48623747	-0.081057884	0.119787976	-0.2640737	0.19618706	0.40033585	0.1511523	-0.6597753	-0.5295858	-0.31705332	0.50728905	-0.36416453	-0.24306571	-0.09905595	0.5763459	-0.45517626
-0.85953426	-0.13125218	0.36510193	-0.35055384	0.28979847	0.7691885	0.4077966	-1.1445265	-1.0162181	-0.7876688	0.99979496	-0.80096835	-0.43567938	-0.35381278	0.96827644	-0.7946661
-0.0892293	0.10653102	-0.108898714	-0.042229947	-0.0030766628	0.065134756	-0.010860993	-0.04082215	-0.2544837	0.06724996	0.017996373	0.035982925	-0.31449005	0.15116887	0.03218119	-0.2183307
-0.11724618	0.072343595	-0.032340255	-0.19063576	-0.008411899	-0.046793174	-0.11453352	-0.21450245	-0.20251477	0.0038827402	0.08953785	-0.005326453	-0.09393807	0.008217406	0.19153863	-0.21833175
-0.03269189	0.17266026	-0.21842319	-0.03245851	-0.04317727	-0.07148754	-0.093055695	0.17045872	-0.21506733	0.19224794	-0.14445788	0.29861063	-0.33759573	0.28068963	-0.06490263	-0.092562385
0.031489044	-0.045849934	0.11281628	-0.34478062	-0.0035111555	-0.30384764	-0.4039572	-0.16972905	0.07524514	0.35770288	-0.086206414	0.077915594	0.040675636	0.041127387	-0.08619723	-0.066035554
-0.16430788	0.26712775	-0.2512571	-0.18414658	-0.018547064	-0.05256786	-0.1708627	-0.18054935	-0.3600629	0.0899731	0.054307707	0.13366269	-0.43147227	0.20306112	0.19657977	-0.3211956
-0.3801184	0.094421156	-0.040519144	-0.32871	0.18044281	0.08831046	-0.00031382355	-0.5405599	-0.5405612	-0.15136771	0.35640365	-0.14435399	-0.3129338	-0.0051293196	0.41604313	-0.4108137
-0.054712072	0.17624561	-0.17921898	-0.18174021	-0.02670808	-0.22796074	-0.33660296	0.0027147594	-0.17300338	0.25025058	-0.098876186	0.24948233	-0.23847587	0.13518198	-0.020767044	-0.23430151
0.07920121	0.020622186	-0.023505779	0.073590554	0.014720082	-0.02889403	-0.00981124	0.05519951	0.04399376	0.041886374	-0.069590926	0.011881191	-0.02552886	0.036788434	-0.0798414	0.03183866
-0.46804777	-0.17373556	0.260455	-0.14297117	0.22131123	0.43460003	0.22884205	-0.6224023	-0.45456505	-0.44318816	0.5814422	-0.44337735	-0.16750126	-0.2158297	0.5439525	-0.3375386
-0.021644782	-0.06518024	0.120493725	-0.09782482	0.0031607226	-0.07725795	-0.14935412	-0.11334396	0.15222873	0.17672297	0.06301759	0.017165406	0.08154205	-0.025177289	-0.08739339	-0.0134961475
-0.2528519	0.02490778	0.021419246	-0.11869932	0.09941422	0.14478348	0.07245981	-0.29229382	-0.32469314	-0.1446119	0.209775	-0.18973958	-0.13527188	-0.11058755	0.32577857	-0.17203528
-0.009795417	0.012662796	-0.06850118	-0.029407918	0.0022844577	-0.09122378	-0.082134746	0.068080954	-0.014909559	0.18972406	-0.103589	0.15905246	-0.11230626	0.08617367	-0.03032323	-0.032396633
0.051385444	-0.14485428	0.1764801	-0.017902851	0.0131477155	-0.019368237	-0.014146665	0.022283565	0.15336438	0.016307598	0.005324572	-0.062765814	0.17508225	-0.120664775	-0.07802517	0.097400606
0.3033735	-0.41649187	0.5370019	0.48268276	0.24892078	0.22071065	0.6529314	0.35090497	0.81384194	-0.54646564	-0.037104383	-0.47619504	0.88684684	-0.57564914	-0.23839118	0.7851985
-0.030998042	0.09741187	-0.12638947	-0.027628338	-0.00897009	-0.071170546	-0.08825415	0.014765904	-0.07431376	0.12383822	-0.08342861	0.119249344	-0.068740055	0.12012974	0.014317393	-0.06659752
0.2283587	0.08848783	-0.25757873	0.33430704	-0.074998006	-0.065633014	0.03751271	0.46889266	0.013717278	0.2051832	-0.33400285	0.32634485	-0.2310529	0.3523825	-0.420148	0.14154135
0.10301872	0.28416663	-0.28815615	-0.032311875	-0.10000714	-0.34981975	-0.2698189	0.25770816	0.026269931	0.31125605	-0.262805	0.33737823	-0.2242204	0.23003212	-0.16001694	-0.070764
0.4546776	0.081931256	-0.25393873	0.5266721	-0.15776224	-0.012824269	0.18394642	0.7549493	0.17253031	0.11372368	-0.5113049	0.4636074	-0.117029935	0.4270428	-0.58402187	0.38453755
-0.32168674	-0.036498435	0.06302454	-0.12080387	0.10740499	0.26792893	0.098124824	-0.34552905	-0.32872692	-0.26852965	0.34242746	-0.1900257	-0.21574084	-0.08231959	0.32654262	-0.23325042
-0.20177196	0.08262963	-0.082242645	-0.01637143	0.0258436	0.11115763	0.058951613	-0.16971144	-0.25068912	-0.10185122	0.119484976	0.03890939	-0.23905958	0.08504397	0.20246597	-0.22644924
-0.1547691	-0.003014688	-0.03429983	-0.0010132928	0.029277442	0.10726552	0.075208046	-0.08408712	-0.15288489	-0.092635415	0.055895437	0.001585962	-0.12421411	0.049835782	0.11293742	-0.12428012
-0.28108472	0.41146865	-0.39695674	-0.49459493	-0.12101085	-0.22557618	-0.40469468	-0.4158912	-0.60093766	0.27795285	0.04977167	0.21865731	-0.62892044	0.2758467	0.3448507	-0.5575293
-0.084734544	0.18716456	-0.2081886	-0.22513066	-0.07178316	-0.23890974	-0.3005406	-0.06559242	-0.08222606	0.27005607	-0.0032246043	0.1931044	-0.19634375	0.10589956	0.041741993	-0.18407816
-0.23278853	0.35523877	-0.3956373	-0.21948898	0.023785254	-0.13098471	-0.17327145	-0.21388747	-0.5007235	0.18860658	0.03470525	0.16180047	-0.57477385	0.30748096	0.2345078	-0.42557767
-0.22395988	0.46548292	-0.5322576	-0.4292147	0.0024099718	-0.44562823	-0.50584406	-0.1874451	-0.41095093	0.42532232	-0.18300244	0.29338273	-0.5524728	0.20071875	0.18694434	-0.43983376
0.0037478833	0.37837148	-0.4617591	-0.23132393	-0.094081484	-0.3414457	-0.34300905	0.046800736	-0.3110523	0.37255272	-0.24450614	0.45036733	-0.45553654	0.37128788	-0.033377253	-0.3200661
0.16829069	0.050140005	-0.09663967	0.14092208	-0.09464171	-0.14821286	-0.064796984	0.27515897	0.10676533	0.20767897	-0.30432108	0.21778685	0.022295604	0.14131597	-0.27740285	0.12518138
0.0847925	0.20803611	-0.28005496	-0.022557028	-0.04015659	-0.25454053	-0.14925678	0.06918899	0.014324041	0.18346389	-0.22552577	0.24098377	-0.029210567	0.049811147	-0.03987689	-0.07037162
-0.7564434	-0.27112472	0.43115658	-0.29995614	0.313929	0.8589665	0.51033384	-1.0633522	-0.86758375	-0.83840084	0.9340783	-0.7827824	-0.34740415	-0.37838054	0.8902787	-0.6252495
-0.0034666206	0.0820177	-0.12975292	-0.051130578	-0.011037291	-0.084609404	-0.16419381	-0.0040205866	-0.16701393	0.19806746	-0.09042195	0.22858398	-0.21163651	0.20188908	-0.0457678	-0.106115796
0.19824181	-0.14557639	0.17916688	-0.001378579	0.012119987	-0.19972844	-0.12758733	0.10658963	0.46631196	0.120052904	-0.14467369	-0.024053581	0.38477704	-0.12440019	-0.18824555	0.34194118
-0.08851511	-0.07290648	0.14646384	0.061008655	0.09318178	0.15344192	0.12411295	-0.15601636	-0.071280204	-0.17125924	0.17089078	-0.12685277	-0.024480721	-0.028552502	0.06480118	-0.02878003
0.10349158	0.27372462	-0.3599354	0.0012551143	-0.055127326	-0.30579823	-0.17935488	0.37100515	0.03206829	0.38230303	-0.34196267	0.37803504	-0.19273107	0.26967534	-0.23699425	0.011901508
0.30178285	0.08681839	-0.2623206	0.49478385	-0.067152515	0.10740236	0.27702507	0.63668513	-0.035079625	0.09143658	-0.3956472	0.44414252	-0.2309225	0.3858977	-0.46810883	0.21396254
0.031599194	-0.09482611	0.21905223	-0.4115383	0.008126227	-0.43204916	-0.56601095	-0.1585369	0.2880738	0.51238465	-0.11806788	0.122235894	0.19703244	-0.0501443	-0.07254674	-0.10590078
0.021398166	-0.0039448575	0.023689037	-0.035091355	-0.019197859	-0.033860106	0.013048022	-0.013146148	-0.056879077	-0.06134236	0.060734004	0.008627197	0.016413566	-0.030282151	0.08192991	0.000653281
-0.026871132	0.09098142	-0.17194729	-0.14026326	-0.020376844	-0.11349266	-0.11396077	-0.09670848	-0.17886354	0.12259182	0.034687713	0.13484298	-0.20708619	0.1315542	0.07357334	-0.1806481
-0.18132837	-0.22982693	0.30711016	0.011714611	0.13024057	0.31944743	0.32384595	-0.3172764	-0.11559271	-0.3439821	0.31360912	-0.33091414	0.13877314	-0.16610959	0.18605478	-0.07556172
0.07175643	0.13008502	-0.1483473	0.07107903	0.025789768	-0.057412867	0.0045172633	0.0788201	-0.0042656893	0.07444655	-0.10816699	0.17933129	-0.12832314	0.09733934	-0.048040584	-0.033533268
-0.13793877	0.19637774	-0.26316193	-0.28258157	0.0059589054	-0.30178484	-0.33178723	-0.06723336	-0.18812118	0.2830455	-0.12455095	0.2103244	-0.27777994	0.20217666	0.06589136	-0.23486137
-0.10468533	0.13528551	-0.15292886	-0.20482351	0.018735636	-0.10783655	-0.18784466	-0.1022116	-0.21853977	0.14336617	0.020713337	0.080381244	-0.2502744	0.090449825	0.07290477	-0.18782395
0.11431545	-0.21298338	0.30064026	-0.10382839	0.05401716	-0.13447879	-0.08970451	0.048320293	0.37974837	0.2172701	-0.14007041	-0.027463008	0.30902478	-0.12533864	-0.21319358	0.23145781
0.27281144	0.14020869	-0.2983756	0.22312415	-0.11173687	-0.19429761	-0.014827346	0.55522066	0.03952965	0.33464324	-0.4078982	0.49442825	-0.28971243	0.44296852	-0.4418523	0.07123788
0.053669423	-0.1080761	0.18229304	0.05184134	0.10522777	0.016239045	0.0036877121	-0.023199623	0.28774816	-0.025064856	-0.071647085	-0.1382008	0.25769058	-0.117243506	-0.07042894	0.22009006
0.23961826	0.28656957	-0.49650183	0.39718664	-0.15580426	-0.046103023	0.07652377	0.6108477	-0.1723948	0.30745584	-0.45768625	0.5188021	-0.49592632	0.5152711	-0.43457425	0.096718736
0.3355788	0.1692129	-0.42438427	0.4540091	-0.18794118	-0.13298778	0.11027832	0.77491385	0.05404803	0.28502932	-0.5066379	0.5102739	-0.2934095	0.4943239	-0.5143329	0.24706736
0.1362115	-0.24612254	0.33487839	-0.32668498	0.032423846	-0.2852778	-0.40390858	-0.05745098	0.41349894	0.40233335	-0.021685617	-0.05367012	0.33911183	-0.16553292	-0.19858095	0.13643761
-0.0073545594	0.11168826	-0.11407284	0.008612723	0.028365001	-0.007909926	-0.06585382	-0.008964445	-0.12286743	0.10563201	-0.05209612	0.07126746	-0.21013905	0.11034191	0.006083419	-0.09814478
0.081397966	0.032177493	-0.15386993	0.15773953	0.0034966795	0.015161358	0.09512116	0.2063071	0.013633294	-0.00049681624	-0.16749328	0.10440919	-0.05088292	0.07920251	-0.115256235	0.1008222
0.19784865	0.14546798	-0.28458703	0.38137677	-0.1435141	0.09493205	0.22351338	0.44156238	-0.07918925	0.04913225	-0.3135231	0.26580378	-0.2800375	0.3321886	-0.28364456	0.13879676
0.0346183	0.15830554	-0.24651438	0.016401198	-0.01570437	-0.1808476	-0.059526984	0.2047153	-0.032430626	0.28208554	-0.27977303	0.29734614	-0.21957657	0.22920437	-0.14811252	-0.05284058
-0.12740783	0.060899287	-0.028122138	-0.11469429	0.050630488	0.057331357	0.00069540914	-0.18972564	-0.1286117	-0.049480908	0.12542535	-0.076092355	-0.0884599	-0.051756836	0.13567352	-0.17190762
-0.06959279	0.32548675	-0.4082302	-0.36735424	-0.07675576	-0.36915037	-0.3847684	-0.122931845	-0.23583393	0.30221477	-0.09945376	0.25525838	-0.36461332	0.24201626	0.13213311	-0.35604092
-0.4396075	-0.15136424	0.29241097	-0.102056265	0.21716754	0.3513839	0.2886155	-0.5890332	-0.35072887	-0.4333858	0.50038314	-0.46290892	-0.019434294	-0.28446007	0.45249003	-0.21297403
-0.47812882	-0.050745063	0.09755014	-0.17401136	0.2414794	0.2837741	0.13889274	-0.556542	-0.39058012	-0.35625705	0.46950126	-0.41926438	-0.09565796	-0.22593354	0.45057502	-0.27647507
-0.29251134	-0.20210356	0.30825773	-0.021898925	0.22672717	0.39025608	0.34908536	-0.5157527	-0.19937132	-0.4791212	0.43966696	-0.45555946	0.05094944	-0.30096734	0.4482995	-0.072251946
0.16997905	0.09175654	-0.19099468	0.15576394	-0.0602809	-0.13565966	-0.020794293	0.3871246	0.11058728	0.14595452	-0.26246595	0.1932968	-0.05854815	0.19663726	-0.21244062	0.13193557
-0.23596962	-0.10668051	0.1333308	-0.018719934	0.04615263	0.30952668	0.14816983	-0.2916115	-0.26916072	-0.30197203	0.34635276	-0.23692338	-0.12356838	-0.13818827	0.2573408	-0.192598
-0.103515655	0.22313134	-0.22428955	-0.14047389	0.0038439499	0.037378695	-0.1177894	-0.10583701	-0.4290141	0.06981573	0.065901764	0.16370834	-0.34174722	0.23503469	0.15441766	-0.3226255
-0.09277141	-0.09334677	0.1337011	-0.18475997	0.03473597	-0.035998113	-0.16003919	-0.16687742	0.0874634	0.1286899	0.08073605	-0.034377825	0.087557346	-0.08079106	0.018693635	-0.050573003
-0.085212156	-0.019491011	0.035399146	-0.13120347	-0.051834457	-0.11732766	-0.17347799	-0.111254856	-0.080406465	0.15332386	0.035904106	0.04220222	-0.07647931	0.033955783	0.07473509	-0.10295349
-0.019873336	0.044927657	-0.13017067	0.17596385	-0.0010781165	0.08710992	0.20075116	0.15806626	-0.04935787	-0.09151905	-0.12937644	0.119018756	-0.054382425	0.12682956	-0.1305182	0.06875033
-0.40178424	0.005904517	0.07738136	-0.23803312	0.045972213	0.19655989	-0.06413002	-0.5476773	-0.5152055	-0.16886543	0.34478173	-0.15762001	-0.33205542	-0.002294735	0.39315972	-0.38511983
0.14416787	0.060472976	-0.07540305	0.004246789	-0.036015425	-0.18633543	-0.16359536	0.22112001	0.0733115	0.33681062	-0.24588498	0.33247766	-0.14945573	0.21895984	-0.19597796	-0.01269016
-0.058026113	-0.17496946	0.19253156	-0.017207706	0.06671568	0.13629946	0.18862382	-0.07059595	0.05800668	-0.2291333	0.17415966	-0.19446407	0.13253178	-0.15074311	0.11530558	0.05906603
0.039601382	0.53231275	-0.602877	-0.30597204	-0.09408117	-0.5835002	-0.4619713	0.022399886	-0.1967164	0.5352054	-0.29681432	0.42159295	-0.43576702	0.3161002	-0.00025451358	-0.27639678
0.12800086	0.07064216	-0.21845947	0.14456733	-0.08021931	-0.15688792	-0.089420505	0.2726282	-0.0039368146	0.14244527	-0.21394816	0.23728384	-0.15640599	0.28470066	-0.25407583	0.09210478
-0.09961089	0.22867188	-0.25381935	-0.23863088	-0.05893317	-0.21559048	-0.32921466	-0.11365631	-0.18827656	0.28129917	-0.09917391	0.21326512	-0.28734863	0.17998815	0.09682074	-0.28913748
-0.2604866	0.8022679	-0.8878914	-0.70976996	-0.16039796	-0.79412514	-0.8976115	-0.2512955	-0.6396856	0.7545	-0.28930828	0.69383	-0.89500517	0.5522678	0.38317916	-0.7768352
0.0016791814	0.22028038	-0.23632707	-0.12871116	-0.0077298386	-0.21085157	-0.24658127	0.04886602	-0.21513073	0.28993294	-0.13167685	0.26598045	-0.24758348	0.23053126	0.0017475553	-0.19177134
-0.18978956	-0.05203673	0.20504011	-0.030543188	0.10575396	0.1905262	0.15316659	-0.34150645	-0.17123672	-0.26499203	0.243436	-0.2556889	0.06769912	-0.2015588	0.21773285	-0.1257526
0.04648393	0.16747968	-0.12781788	-0.02387569	0.02325526	-0.12291828	-0.11337295	0.07037869	0.017476762	0.17858861	-0.10479054	0.07205297	-0.037174124	0.07561367	-0.004066447	-0.04583859
0.11182211	-0.02167187	-0.020502213	0.07723581	-0.018763091	-0.08710081	-0.026576184	0.20703694	0.103046075	0.16240978	-0.17138383	0.1780346	0.008334712	0.12833531	-0.16394377	0.1314608
0.13821234	-0.3337134	0.3479209	0.33130413	0.14162397	0.13476466	0.36121288	0.16797449	0.51128274	-0.33837175	-0.08832363	-0.297014	0.6077222	-0.32127097	-0.19253156	0.5122844
-0.03227303	0.3352723	-0.3118268	-0.2757977	-0.08982702	-0.26963925	-0.39229602	-0.13017154	-0.23633674	0.31388476	-0.13474025	0.26072758	-0.38220522	0.16942374	0.06721763	-0.3061763
0.12431729	-0.1223343	0.107475586	0.04508842	-0.038934615	-0.08816952	-0.008592269	0.0905031	0.19536531	0.073004015	-0.050807368	0.007807701	0.10227565	-0.027657876	-0.1719515	0.18096673
0.088039346	-0.14539479	0.23827028	0.08542686	0.040335815	-0.058929488	0.05714937	0.06316325	0.2629998	0.04443181	-0.016324487	-0.017573971	0.24055222	-0.06896652	-0.16647735	0.22383717
0.033599384	-0.1363724	0.16551319	0.30803084	0.06010118	0.21980552	0.30306455	0.13778499	0.05907987	-0.30999	0.033693966	-0.16593459	0.106799595	-0.042919796	-0.11164254	0.24549328
-0.2816658	0.58884674	-0.534983	-0.6725773	-0.15985012	-0.47583506	-0.7233814	-0.4235443	-0.64310294	0.5560021	0.020838551	0.3828389	-0.7117119	0.33783913	0.4166659	-0.68081385
-0.050616592	-0.091903076	0.17877775	0.027970305	0.10380745	0.15705967	0.16235517	-0.1717376	-0.045245405	-0.15199341	0.1823459	-0.1508838	0.057384968	-0.09287317	0.04562866	-0.061247755
0.07524431	-0.1810516	0.19897291	-0.29618824	0.061689615	-0.3478386	-0.4387677	-0.0944691	0.3642196	0.3961927	-0.095989525	0.034706503	0.24268644	-0.09014346	-0.17194843	0.08642279
-0.4731976	-0.002216874	0.12242833	-0.17950922	0.19669507	0.4094954	0.16357262	-0.5437995	-0.5936122	-0.41571388	0.49178967	-0.3360861	-0.3343107	-0.1185355	0.43705565	-0.42182833
0.027240979	0.052612357	-0.10058785	0.039836507	0.014872294	0.029063694	0.06469476	0.06455926	-0.11377577	0.07698445	-0.030447904	0.10560158	-0.1751155	0.18254636	-0.08153652	-0.038672972
-0.0021376652	-0.21336298	0.23687927	0.15458919	0.08938203	0.20627293	0.28358135	-0.06766578	0.18167967	-0.27039355	0.060510036	-0.23237623	0.3646319	-0.22836195	0.0025551487	0.21518064
0.010565802	0.057080597	-0.065490104	-0.064724825	-0.05457952	0.026665363	-0.08621055	-0.12579569	-0.07699143	-0.0066222283	0.06474552	0.047148667	-0.1691208	0.059686102	0.075094625	-0.16005541
-0.030501014	0.18422921	-0.2330783	-0.10283302	0.00074691226	-0.17954265	-0.18285479	0.06659078	-0.18484472	0.18260258	-0.16421035	0.24085546	-0.21406758	0.21362214	-0.026835546	-0.09547586
0.06592703	-0.22123057	0.28835738	0.06957356	0.14454035	-0.053047895	0.11307638	0.09017525	0.4829976	0.0030507226	-0.09872281	-0.1185363	0.4712325	-0.28447482	-0.17360651	0.31468394
-0.025977746	0.0026399195	-0.057691455	-0.05611137	-0.020115113	0.0039298115	-0.061872285	-0.024008304	-0.039583392	0.05136277	0.029235689	-0.0031075268	-0.019410547	0.07399163	-0.020459974	-0.067805625
-0.14733897	0.32794362	-0.29527238	-0.28597274	0.0064954124	-0.20712365	-0.28393686	-0.25335595	-0.26740602	0.15818025	0.05218073	0.06345043	-0.28560662	0.09833516	0.30525312	-0.31857434
-0.037626687	-0.10436001	0.24035065	-0.3097034	0.051498882	-0.26801273	-0.37499106	-0.1444098	0.23100725	0.30787346	-0.018030416	0.02357638	0.19880393	-0.09198059	-0.032722775	0.0087676495
-0.2182779	-0.079284094	0.11891406	-0.15414593	0.12354514	0.034390863	-0.08514159	-0.23349018	-0.14976647	0.06361571	0.14029227	-0.05625394	-0.04311703	-0.020644974	0.12935182	-0.17258342
0.2964678	-0.036458448	-0.049897313	0.51084286	-0.057982802	0.07760771	0.36508447	0.54541165	0.18595167	-0.027938126	-0.3852985	0.19787417	0.11029707	0.17680249	-0.45006266	0.40873393
0.28237492	-0.18395309	0.29694715	0.2950401	0.095707834	-0.06614115	0.31219724	0.33028868	0.5978221	-0.13218902	-0.2141439	-0.14627093	0.59660584	-0.2831736	-0.34378776	0.53407377
0.045024496	0.27424616	-0.3598228	0.0020930427	-0.105372496	-0.21444423	-0.16460077	0.2836189	-0.13975991	0.2999708	-0.28403977	0.37318555	-0.33429876	0.33492002	-0.17318647	-0.094612665
-0.020271728	0.29822358	-0.3885216	-0.14445123	-0.1148595	-0.25377035	-0.30666047	0.09372678	-0.18713076	0.33216393	-0.19718494	0.36097395	-0.4145425	0.23834474	-0.015013982	-0.21271718
-0.049808625	0.03468737	-0.07745243	-0.14135318	0.024938192	-0.16932441	-0.20066676	-0.010850883	-0.0031921526	0.25295138	-0.10219835	0.12214316	-0.048704628	0.071893916	-0.043313585	-0.12384644
-0.0041709114	0.24026491	-0.25360167	-0.2529256	-0.051001027	-0.26555592	-0.1978345	-0.08542133	-0.040104296	0.20983602	-0.0644987	0.18996324	-0.17006385	0.024278909	0.0670674	-0.16484138
0.15498814	0.09537517	-0.23294707	0.33538523	-0.04921201	0.050138038	0.20752431	0.4841176	-0.0035219514	0.101107836	-0.30583927	0.34339803	-0.25928777	0.32554814	-0.3539203	0.14252764
-0.5687406	-0.048267543	0.26951325	-0.24759136	0.19540244	0.5014339	0.22956488	-0.779278	-0.6310803	-0.5425524	0.6767965	-0.48304078	-0.25808686	-0.19236112	0.62571305	-0.5710202
0.006034883	0.0049803834	-0.0066736247	-0.10692268	-0.0030218428	-0.11934559	-0.14596944	-0.06071281	0.042973746	0.116351984	-0.056266617	0.029303718	0.06196209	-0.020761175	0.06741789	-0.04352619
0.087827034	0.019908493	-0.05101076	0.10564841	-0.031161416	-0.03721438	0.05454815	0.17643043	0.11275662	0.03905209	-0.11552198	0.13720103	0.008034774	0.10501243	-0.18429576	0.12220875
-0.13967584	0.09134768	-0.09474963	0.02970088	0.054709002	0.08938641	0.085865006	0.020360833	-0.16468652	-0.13429327	0.005099804	0.046351016	-0.0927718	0.037240595	0.086333014	-0.1132229
-0.25879043	0.43994853	-0.5475282	-0.4506647	-0.037852053	-0.37574694	-0.4605265	-0.2529066	-0.49333736	0.46614972	-0.06432672	0.33797312	-0.6047677	0.23867168	0.27133375	-0.5188525
-0.045916684	-0.044612903	0.053485245	-0.04328357	0.055982504	0.08450631	0.0049530007	-0.103946604	0.099315315	-0.04122088	0.06297504	-0.098551564	0.14645578	-0.1568024	0.08087172	0.066054784
0.24368642	-0.36381382	0.5388197	0.5204764	0.22712143	0.09812033	0.65503997	0.3807247	0.87120724	-0.37232175	-0.2103571	-0.44885796	0.9612664	-0.62987864	-0.34863603	0.7955
0.0408222	-0.06944252	0.07961946	-0.53649616	0.048104927	-0.61936057	-0.75349927	-0.1595499	0.254517	0.75055516	-0.16563983	0.26145482	0.066035554	0.05841137	-0.10491577	-0.097159676
0.06593284	-0.12179736	0.18584573	0.2179607	-0.0036974645	0.18459833	0.30086076	0.13969207	0.15401351	-0.25615874	-0.016471282	-0.096815795	0.17293258	-0.13691485	-0.09574346	0.16294178
-0.052219756	0.21026729	-0.20950173	0.05557744	0.0363756	-0.11992499	-0.0470821	0.10417326	-0.13211069	0.13361552	-0.16060837	0.15287127	-0.16626282	0.1422749	-0.08729082	-0.006070353
-0.12365356	0.1828106	-0.27058348	-0.20835882	0.035251565	-0.1951755	-0.19542581	-0.10434009	-0.20126033	0.20590807	-0.07429666	0.20000692	-0.23415734	0.14550045	0.09518511	-0.22247419
-0.07139879	0.050217364	-0.12391856	0.06741741	-0.03291505	0.06358747	0.081799366	0.02387598	-0.22861755	-0.06736936	0.0014411419	0.042455506	-0.3229807	0.1571866	0.07985467	-0.07365695
0.11916285	-0.1720753	0.099570416	0.22283784	0.017567927	0.15387988	0.15782169	0.15888704	0.22405009	-0.19595371	-0.008343426	-0.035803843	0.19760273	-0.11222155	-0.1447468	0.23076896
0.16589338	-0.15932924	0.021713661	0.1071402	0.005406413	-0.07749694	-0.07563356	0.24145159	0.16286495	0.18127917	-0.1903545	0.10996882	0.11877185	0.07694962	-0.31410056	0.18334098
0.082717374	0.019220911	-0.062246203	0.15119733	-0.011583288	0.04108865	0.110277444	0.13357212	-0.027615845	-0.07004971	-0.044576567	-0.011759471	0.004119797	0.037419103	-0.020728722	0.102521144
0.0049236114	0.50912	-0.641168	-0.31451774	-0.15261088	-0.5044444	-0.5294876	0.03526691	-0.31221384	0.50913167	-0.3089313	0.5217475	-0.57579154	0.37802327	0.06108585	-0.43587026
-0.015305612	0.012044283	-0.021589572	0.08554272	0.053505138	0.07604867	0.11062642	0.06402628	-0.14264858	-0.1421667	0.007931138	-0.009810849	-0.07257351	0.022187741	-0.010915211	0.014706662
-0.06193471	0.38104978	-0.50307447	-0.40782958	-0.022261815	-0.5010205	-0.53787935	-0.109981775	-0.27473402	0.48785716	-0.20437545	0.35195833	-0.39333302	0.27844828	0.15768617	-0.35522982
-0.044269733	-0.17275554	0.19590902	-0.0017274563	0.04858289	0.28437853	0.21171482	-0.17808385	-0.0441908	-0.21144328	0.17279783	-0.15200233	0.09869007	-0.101751864	0.07812538	-0.042448744
0.24190554	0.19595735	-0.2796526	0.036202755	-0.13957526	-0.24548994	-0.16360155	0.42621997	-0.0317514	0.37694004	-0.38362974	0.34603834	-0.17283867	0.30589184	-0.32221046	0.018259749
0.08300187	0.045561947	-0.16316576	0.057179507	-0.06724017	-0.13860816	-0.012037416	0.1938183	0.05956302	0.10411868	-0.1801592	0.12979005	-0.03492642	0.067065515	-0.15820314	0.07987303
-0.018100275	0.27848417	-0.33483213	0.05600116	-0.085560374	-0.1270949	-0.09011111	0.15334521	-0.24793585	0.13860077	-0.12976979	0.2697375	-0.2909632	0.22790354	-0.013345818	-0.11618795
0.0040549748	0.11333496	-0.08935394	-0.13968211	-0.04876744	-0.21563278	-0.24581097	-0.0021398265	0.021842107	0.28001994	-0.061327714	0.18498477	-0.13362944	0.09554321	-0.017148707	-0.15632637
0.18445256	-0.06927206	0.08287211	0.051908873	-0.02572684	-0.12308231	0.0006452043	0.11838869	0.24581495	0.09784148	-0.17729436	0.020484157	0.19884206	-0.011537394	-0.16003208	0.21571589
0.24147451	-0.30185208	0.25860125	0.2953942	0.0483883	0.13462958	0.35417417	0.35905513	0.4499418	-0.16563691	-0.17581919	-0.17885561	0.470195	-0.27085087	-0.3165017	0.4180953
-0.006791761	-0.082121335	0.20045823	-0.27645746	0.031102592	-0.25282294	-0.3766129	-0.07308841	0.3011891	0.41261393	-0.04710168	0.06271761	0.1315079	-0.09044912	-0.10281589	-0.0491072
-0.21482284	-0.056690086	0.094716355	-0.16109894	0.120859645	0.18760578	0.059684664	-0.3590831	-0.2096956	-0.19132663	0.24080874	-0.22737364	-0.082216084	-0.052917056	0.25836197	-0.15868214
0.2148974	-0.031302102	-0.03878721	0.26930788	-4.166628e-05	0.042202715	0.12374302	0.4001368	0.2209842	0.026661994	-0.16949928	0.078824654	0.08994412	0.11176202	-0.25419292	0.23953141
0.029578468	-0.12494176	0.14662264	0.1840207	0.030543838	0.2902252	0.30628777	-0.026147045	0.039246388	-0.29168993	0.1281496	-0.10129463	0.15810806	-0.043534055	0.0034892925	0.15395068
-0.0338921	-0.025444569	0.019447515	0.01766622	0.02771137	0.12122158	0.07333781	-0.06411127	-0.061199788	-0.109547324	0.04475605	-0.06343544	-0.11025201	0.019294845	0.01114226	-0.07840724
0.17286906	-0.38788363	0.44133884	0.3657861	0.10633922	0.21914384	0.43490225	0.24121764	0.5538606	-0.35802615	-0.034336258	-0.3775493	0.71897674	-0.49202657	-0.18741183	0.56268865
0.26994863	0.10347325	-0.2563794	0.23561573	-0.07561007	-0.053485963	0.07618148	0.43194857	0.035608057	0.10756865	-0.2913806	0.277267	-0.11199033	0.28413343	-0.2724075	0.1885687
0.06056772	-0.20457338	0.27717996	-0.36814943	0.026620831	-0.39224142	-0.49180728	-0.18040058	0.27964568	0.48427612	-0.081850775	0.05375615	0.2566653	-0.124085456	-0.14115685	0.007054397
0.32041538	0.14996944	-0.4019165	0.6051069	-0.14932433	0.040726982	0.27274296	0.81991845	-0.061677925	0.1591692	-0.58037966	0.52202135	-0.3940074	0.5419089	-0.5994295	0.2587732
-0.6318117	-0.039294757	0.18249685	-0.31856388	0.171902	0.43337393	0.16440414	-0.82710916	-0.7434218	-0.47906762	0.7307938	-0.46296668	-0.3066984	-0.17839845	0.73634493	-0.6171322
0.006934499	0.13892744	-0.21601315	-0.03285671	-0.021158375	-0.1665877	-0.13896579	0.13065623	-0.0847208	0.22732946	-0.16497819	0.2589584	-0.19101809	0.20638596	-0.09195681	-0.07584088
-0.1364923	0.48632795	-0.5655813	-0.32075664	-0.118907444	-0.44136193	-0.5732762	-0.053723074	-0.42113596	0.55725414	-0.2129518	0.4265204	-0.5800129	0.3839594	0.06911137	-0.41916013
0.029708765	-0.13494055	0.20009644	-0.09618712	0.013915187	-0.13657992	-0.1341612	0.028633922	0.15359767	0.2075709	-0.0107777435	0.027243538	0.11823104	-0.028434308	-0.17697954	0.049731843
-0.029782888	-0.04356807	0.0043985927	0.07765538	0.011393682	0.0687096	0.046631142	0.024822291	0.017335597	0.006566621	0.0105947275	0.030390188	-0.050630003	0.028178537	-0.078784816	0.03557442
-0.021504931	0.070012115	-0.1208797	-0.06653998	-0.06486844	-0.0943565	-0.06440359	-0.018112186	-0.14782816	0.13291025	-0.06868578	0.08741223	-0.23936722	0.1064773	0.020518424	-0.15468743
0.031155936	0.029681398	-0.051659	0.03950773	-0.01569097	0.0077320547	0.004811351	0.040142797	-0.10539877	0.042483184	0.0037052438	0.10012052	-0.09886596	0.12602496	-0.05562703	-0.021828825
0.10814819	-0.31471264	0.3542676	0.20869637	0.04499566	0.17549844	0.27433556	0.112273	0.45781517	-0.18813834	-0.0077179833	-0.28675237	0.50087917	-0.349585	-0.18079352	0.45698735
0.13241832	0.06975616	-0.10886823	-0.07917924	-0.0066136094	-0.17513005	-0.07380143	0.057169694	0.08537714	0.111306004	-0.11114085	0.061192464	0.059930682	-0.002861321	0.0073810546	0.03531374
-0.020488065	-0.0109113855	-0.05134398	-0.019622516	-0.025944037	-0.06064788	-0.10887808	0.040507976	0.005061978	0.07264574	-0.06079832	0.031327643	-0.001631835	0.027204487	-0.009967815	0.022181327
0.22357532	0.10891333	-0.2523642	0.46834525	-0.051681053	0.14976254	0.3423194	0.6882459	-0.06841896	0.065926336	-0.39376843	0.39385268	-0.29771563	0.4359052	-0.3798708	0.19094726
0.12595673	-0.16044798	0.20429945	-0.103625305	0.0016740237	-0.24281526	-0.20074666	0.12055321	0.35362947	0.2978998	-0.19081439	0.024206463	0.32502636	-0.031940755	-0.24317347	0.16698879
-0.12253513	-0.08966707	0.20072056	-0.13177663	0.093493424	-0.059333097	-0.02528441	-0.19869974	0.011233792	0.026053669	0.10539632	-0.15198004	0.08915076	-0.08688256	0.081851125	-0.040140916
-0.19574359	0.116026945	-0.08409431	-0.036409274	0.05090334	0.031135712	0.034077056	-0.1621865	-0.24253437	-0.085622564	0.11134955	0.023450214	-0.20269196	0.07863903	0.22709693	-0.18923135
-0.11494631	0.13070935	-0.10950027	-0.1697255	0.02622626	-0.10700507	-0.21345808	-0.1805383	-0.19168302	0.12456469	0.025377706	0.13358244	-0.20879929	0.115007386	0.094383344	-0.2864795
-0.16806196	0.023812294	-0.039594024	-0.1740778	0.045669373	0.059068613	0.002521606	-0.24737623	-0.20502739	-0.13450713	0.19319655	-0.08814311	-0.1436042	-0.016403647	0.27485585	-0.18346392
-0.10520975	0.19763002	-0.13283443	-0.167396	-0.07726972	-0.16909584	-0.16280833	-0.061356217	-0.2281316	0.2103615	0.0047490774	0.1478296	-0.2323376	0.177053	0.033073854	-0.16494383
-0.29245296	-0.24856566	0.33247074	-0.012090301	0.17477052	0.3819721	0.27067435	-0.35584807	-0.12348333	-0.39070123	0.39498398	-0.41735274	0.10808539	-0.3722305	0.26872775	-0.11550545
-0.014530491	-0.085811354	0.11100143	-0.37094826	0.03941619	-0.4338211	-0.5271163	-0.060809735	0.16937628	0.44484067	-0.08962392	0.20322545	0.089319654	0.019725414	-0.1539164	-0.07899923
0.055519663	0.23528907	-0.39428782	-0.11398084	-0.08887986	-0.26877752	-0.31412464	0.17943907	-0.17900497	0.37086818	-0.17444894	0.3993706	-0.36161175	0.32305628	-0.05007218	-0.20740394
0.19591878	-0.35043213	0.44780913	0.37626797	0.1638659	0.30468914	0.5818212	0.2292432	0.5998418	-0.4926411	-0.008991002	-0.43067363	0.83027315	-0.51053405	-0.1536753	0.6173633
-0.039902505	0.1974592	-0.21691348	-0.043077003	-0.026972296	-0.055424068	-0.10872989	0.042883195	-0.16529845	0.11150919	-0.029421624	0.11131486	-0.2861912	0.1721088	-0.019473955	-0.14626053
-0.27907163	0.004957179	0.075148724	-0.037125636	0.11955045	0.2755226	0.22524256	-0.3157543	-0.36792558	-0.28441805	0.35631758	-0.27373418	-0.18977667	-0.016069427	0.2653134	-0.22134277
0.15482762	-0.09882248	0.02337029	0.12733106	-0.0340376	0.078996934	0.116884604	0.225449	0.057661653	-0.040960986	-0.035945278	0.02055169	0.022069575	0.031587455	-0.10473572	0.17654334
-0.24841434	0.59544057	-0.714948	-0.54504246	-0.013781105	-0.56703687	-0.6608164	-0.33691072	-0.5434986	0.6008777	-0.08556104	0.43871275	-0.6861921	0.372737	0.37459075	-0.61892414
0.20697789	0.30793962	-0.5082645	0.20688775	-0.08145114	-0.18852969	-0.080157995	0.5070339	-0.15196	0.3184148	-0.46133757	0.5822235	-0.38712865	0.4903238	-0.33335108	0.07180491
0.11523552	0.13865261	-0.19694938	0.24549703	-0.051832356	-0.0042196084	0.1046738	0.3060156	-0.06759236	0.07138192	-0.19925746	0.23044826	-0.24664871	0.21624553	-0.23044133	0.10902799
0.09589289	0.047456626	-0.09449539	0.08535289	-0.049675863	-0.10320188	0.04437153	0.17708588	0.059392948	0.06386029	-0.14270638	0.17229956	-0.0040640747	0.06284864	-0.13446024	0.11702744
0.13819869	0.21412046	-0.33127606	0.13967511	-0.0319884	-0.15525939	-0.043431833	0.25989184	-0.13182187	0.17171393	-0.29239982	0.35006413	-0.3404326	0.2689163	-0.18844534	-0.030133074
-0.09779088	-0.065331146	0.13211873	0.042529114	0.08805163	0.19809978	0.17459676	-0.23706758	-0.107292	-0.26837376	0.22946979	-0.2681014	-0.0027435422	-0.16605723	0.19095603	-0.10081203
-0.12005678	0.106014535	-0.028271096	-0.07335371	0.059430685	-0.102226876	-0.078436606	-0.10424294	-0.10296794	0.053567823	0.062591255	0.006021949	-0.08166737	0.05947398	0.16272399	-0.12921914
-0.063648246	-0.06250606	0.03798046	-0.014995119	0.12319833	0.08527421	0.072158545	-0.113277905	-0.08997536	-0.12927309	0.17665416	-0.1466317	0.056239113	-0.12912954	0.09132665	0.028962975
0.22022109	0.15241244	-0.22177225	0.030728973	-0.029996961	-0.30108964	-0.15613382	0.3791829	0.078477144	0.34315047	-0.31459996	0.2799835	-0.08059953	0.2613206	-0.3385914	0.104400165
0.00556379	-0.04114042	0.13323283	-0.30014315	-0.014612151	-0.2661029	-0.35386083	-0.14113899	0.15006404	0.3974684	-0.0112810545	0.033709332	0.12534821	-0.049640592	0.01998713	-0.04826948
